-0.00750565543045,-0.0194894933803,0.0561173451965,0.0619848210424,0.0107610296507,0.0742477250811,0.06823559078,-0.0396438891402,-0.0508681852993,-0.100969918605,0.0443479332983,0.0514905710427,-0.0225344534941,-0.0544450863692,-0.0293215084981,0.000916461093248,0.00783512081967,0.0119645253459,-0.0916788828797,-0.0330736518357,-0.0406916125977,0.055110807733,0.0243149841297,-0.0366101029989,0.0593704440544,0.0309870012338,0.0579492795113,-0.0787066990004,-0.0162478586377,0.0706291499046,-0.101564595157,0.0201720409314,-0.00596839732626,0.0908135596173,0.0225606910204,-0.0109078740405,0.0526950454437,0.00514020292733,0.0276821506347,0.0471102507349,0.0664085951349,-0.0430497192197,-0.00842476804689,0.087766383432,-0.0367985179372,-0.0555458321709,-0.0966690986723,0.0083269329409,-0.0285653221042,0.067322166305,-0.0935200849762,-0.0830781414365,-0.0688417232057,0.0552291018299,0.0198485331065,0.0820838383217,-0.0736694936735,-0.0915372113353,-0.0200474263355,-0.0893438335565,-0.0366101822769,-0.0913931787391,0.0356068285261,0.0183917946518,-0.0924484280105,0.0165771914052,-0.000828078332405,0.0372427455337,-0.0496207609648,0.00475405084273,-0.067698833952,-0.0667688760755,0.0512094382956,-0.0211672630647,-0.0498523158704,-0.0797596391495,0.0526889191621,0.073934009265,-0.0270259663151,-0.0943663014398,0.0362637406132,0.031727554174,-0.0894954695377,-0.0538525719296,-0.0777372925563,-0.047249808914,-0.0859987264172,0.0795556925008,-0.0734888279228,0.00163175676513,0.084540375923,0.0541043801652,0.0847727881587,-0.0482996518321,0.0636360000795,-0.0984456910283,0.012997773256,-0.00866591954735,0.0127550855645,0.0310250366938,-0.0489281769307,-0.072036970731,-0.0347475273569,-0.0572807892072,-0.0023918551101,0.0523338317283,-0.0755364710351,0.0784300655678,-0.0224127608206,-0.0653498940341,-0.00133810592276,-0.100741559772,-0.0153492096832,0.0417567775499,-0.0104966737834,-0.0949896000826,0.0848752035747,-0.0189913372204,-0.0116103281203,-0.0369224321519,0.0886950599087,0.00798517599163,-0.0245190191483,0.05040521036,-0.088182038556,-0.0541253934534,-0.0385382746785,-0.0683302762275,0.0339059854911,-0.0282795296425,-0.0774949247918,0.0793126789738,-0.0330326348968,-0.0722411829762,-0.0630921098577,-0.0954429795877,0.0497814720548,-0.0102963732915,-0.0990309218743,0.0684335574014,-0.0211607058117,0.0647783970853,0.0186500898736,-0.042642029565,-0.0503063641482,0.00904643298527,0.0659589235719,0.0243259860207,-0.0123859633661,-0.0527654194253,-4.61390926794e-05,-0.0288859620408,-0.0923019480039,-0.0138142270451,-0.0719364314264,-0.0402872972332,-0.0875942010496,0.0374081742602,-0.0140592972392,-0.048480201562,0.00761397547074,-0.0349614010906,0.0634865118846,0.0828235638694,-0.0537111500979,0.0655846105561,-0.0589648938961,0.0809301759229,0.067475572487,-0.0373194016238,-0.0243858459343,0.0556931504345,0.0096290970658,0.0237934254283,0.042419603255,-0.0466884618322,-0.0705355194822,-0.0581725556213,-0.0610089005143,0.0555833351092,0.0516635378536,-0.0501905228662,-0.0915318415081,-0.0638770531566,0.0630039644691,-0.0233044930179,-0.0660939890351,-0.0527376469764,-0.0309972588056,0.0235947176235,-0.00902410716096,-0.0703993880449,0.0313946919964,0.0388724103837,0.0977683623507,0.00690949112215,-0.0432647313406,0.08326303094,-0.0765731700345,-0.00540847131732,0.032205696491,0.0554030040445,-0.0499293336015,-0.0539072877307,0.0548965083832,-0.0744662175773,0.00787910899089,0.0391753609119,-0.0180744511613,-0.0268237335252,0.0179855214956,-0.0515578988257,-0.0193497186419,-0.011580178002,-0.0126285752822,0.0312713349414,0.0077014111809,0.039175212546,0.0693036058837,0.098710497039,0.054441852823,-0.0257593446311,-0.0107435207237,0.0267473800853,-0.0977344567675,0.04173328275,-0.0410078801847,0.0777500657048,-0.00937325380117,0.0685066074973,0.0476789309311,0.0456841342164,0.0851827971589,-0.023662131272,-0.0222978333096,0.00316040232059,0.000507692293083,0.0706069388471,-0.0402202082608,0.0837247059392,-0.0635507788217,-0.04360244469,0.0194544842721,-0.0698344348486,0.0552657577932,0.0228776535006,0.0382388416139,0.0196865314475,0.0917404601809,0.0580511452795,-0.00481012349758,-0.0692169230007,-0.0837452282623,-0.0884586216397,-0.0922271943899,0.0883373446631,-0.0951074256623,-0.088981753669,0.0343689948131,-0.0626091662134,-0.0908778582305,0.0787076810373,0.086500942689,-0.0942497464601,-0.027766501113,-0.0743080092441,-0.0984658105308,-0.0543672661828,-0.0429718268949,0.0530435311308,0.0481926041175,0.0232760857692,0.0809139929263,-0.0804539578395,-0.0377005221772,0.0424950268989,0.0581368731179,-0.0199799572434,0.010481420428,-0.0748343283944,-0.0311584850286,-0.0444534774641,0.0274786360146,0.0177638383354,-0.0436309544628,0.0368070584926,0.0187175537279,-0.009535892783,0.0255968021423,0.0707186937893,0.000477630886898,0.029212763372,-0.0611244325726,0.0795792798183,-0.000288515503165,0.0841744554175,-0.0317059115007,0.00745666451864,0.0108662878658,0.0348124381519,-0.0933102540819,0.0325503181982,-0.0369397566419,-0.0250220876957,-0.0511435695538,-0.0731665457875,0.0880696719749,0.0018383371971,0.0685963957612,-0.0840462294696,0.0252584981724,-0.0413715015713,-0.101710775663,0.0587914644355,-0.0156471541578,-0.0373088330964,0.0415965209566,0.0508848803345,0.0489511900292,0.0353654194656,0.0701994776928,-0.0489087552519,0.110664353774,-0.0812224289305,-0.0854400228198,0.099856850504,0.0709107464842,0.0163411135909,0.0187429697601,0.0370192066697,0.0356838005249,-0.0980632385757,0.00616759577668,-0.0769243156114,0.0914336459645,-0.0179895839067,-0.0801132132592,0.0368858964673,-0.0735946628219,0.0729809527442,-0.0504087494584,-0.0348779500948,0.0636475978383,0.075803373914,-0.0302712134471,-0.0811550535279,0.00421595982325,0.0815838486105,-0.0883391147726,-0.088226915364,-0.0209024892847,-0.0232004928641,-0.0573970333745,-0.0812335535752,0.0405934652513,0.0968827571307,-0.0746234556629,-0.0845168168485,0.0846256511848,-0.0925362628652,-0.0273861746838,-0.0902625535714,-0.0568498178461,0.0642944571036,0.00184636208106,-0.00177761665698,0.0182017076339,0.0112985389705,0.0532357523073,-0.033131519046,-0.0340809650159,-0.0984091225789,-0.051487935032,-0.0849431777706,0.0466562358963,-0.00803340977226,-0.0225483675882,0.040442873903,0.0436492333606,-0.0459926679805,-0.0841997916792,-0.099745050748,-0.0290087031446,0.0327944013816,0.00538410745438,0.0660154162885,0.0666347816747,0.0392890223307,0.086437517225,-0.0527872528407,-0.051515987245,0.0311477127777,0.047317548386,0.00533518353255,0.0541402186291,0.00161123593348,0.0650605607481,0.00545930629098,-0.0437728194852,0.0789668569843,-0.0435684463375,-0.0222277417448,-0.034720012165,0.033882531403,-0.0115992282119,-0.0222255465554,-0.0735643800987,0.0660601666964,-0.012803409989,0.0444977534188,0.0297709758516,-0.065915462441,0.0781243624643,-0.0782160800299,-0.0712763637846,-0.0630705290706,-0.0511997168631,-0.0203610166578,-0.0298644764318,-0.0157309405275,0.0163616432288,0.0443948095677,-0.0909829619448,0.028116279725,0.00506559690444,-0.00377357460154,0.0237100437949,0.0666682711405,0.0385222927959,-0.017144263215,0.0824619028936,0.058686144804,-0.0152749209014,0.0826877489814,-0.0536082094313,-0.0121673018625,-0.0946407860518,-0.00702942334189,-0.0875019894567,-0.0351791356639,0.0179879794654,0.0666777563415,-0.0329066819564,0.0603365829025,-0.0179843821324,-0.0637865264039,0.0630167812666,0.0750105381019,0.0442200043413,-0.0549674942698,-0.0944849918822,0.0621520972838,-0.0738018919715,-0.0316330772104,0.00610724273639,-0.0680832119532,0.042498933832,-0.0437206732145,-0.0105869577701,0.0864013649108,0.00458576193509,-0.0320930762081,-0.0600354883938,0.0787697240939,-0.0978733141824,0.0859603695899,-0.0595439803447,-0.0291569839409,0.06428220966,0.0762448421029,0.0518012682321,0.0121178363739,-0.0313687948561,0.05044786756,0.032812153725,0.0904374771173,0.0969094339832,-0.0530633772314,-0.0418375928912,0.100309341913,-0.00106477395582,-0.0448297136347,0.0687813029486,0.0734659271428,0.0491678936726,-0.010977771675,0.0821993902048,0.0944407705326,-0.0243030303065,0.0399751018613,0.0616528818441,0.0666051642756,0.0556333656561,0.0324160032519,0.046372921964,0.0859014317313,0.0334170429383,0.0116602413379,0.0361785071858,-0.0596415297614,0.0904259310369,-0.0492700218389,0.0931699517905,0.0414190274274,0.0862518190354,-0.0505797570158,-0.03226458186,0.009292653112,-0.100299988402,0.003947827985,-0.0100437309914,-0.0303402958652,0.0656066251992,-0.0834539782841,-0.00974774633654,-0.0851467170117,0.088934705375,-0.0196140655937,-0.055871776382,0.0708227067453,-0.0383614587242,0.0370872336887,-0.0311277100903,-0.0555652249742,-0.0675553165656,0.0625365503342,0.00682755672661,-0.0952732270512,-0.0325833745892,0.0209585482733,0.0684619977175,0.0836451698675,-0.0855502300801,0.0251316351741,-0.0396217072963,-0.0830566201151,-0.0920347225538,0.00230838298936,0.0387397650288,-0.0136049729396,0.0675097161054,-0.0221126595614,0.0766364436345,-0.0182866225154,-0.0311524064012,0.0567935254516,-0.0606280236339,-0.0450703459316,-0.0958012392395,0.0733023993441,0.0942117897278,-0.0382683425432,-0.0994003147908,0.0623401275024,-0.0725617264858,-0.0988210116388,-0.0462148228037,-0.00751234518547,0.103901885791,-0.0380884001912,0.0069967945631,0.0583995559138,-0.0602158245835,0.056367434535,0.0528278608694,-0.0281453842106,0.0212472149259,0.00295552450106,0.00733977091419,-0.0423119637837,-0.0367941468737,0.0532613749751,0.00490294481481,0.078095954099,0.0845700412404,0.0752223054435,0.0892653092198,0.014942322555,-0.0265833898783,-0.0387963612357,-0.0753922403065,-0.095863450673,-0.0738965581552,0.0357525825215,-0.00438895445526,0.0558689712352,0.0326986855534,0.0897623702799,-0.0838056362689,-0.0125186517225,0.0392380729904,0.0169118770972,0.0440078471557,0.00651576169137,0.0965782958238,-0.032544937371,-0.0975022540182,-0.0694284421375,-0.0536720765632,-0.0784102005531,0.00479372714855,0.0511107861447,0.0883730969499,0.0496136267627,-0.0976055243564,0.00856979891603,-0.0123386095641,-0.0449659034595,-0.0283597330929,-0.0714425326171,0.00805072866347,-0.00922597511459,0.0491798973153,-0.0123151399211,-0.0637044665153,-0.0218535531565,-0.0462989887276,0.0711963805158,-0.0139288473639,0.0766457103508,-0.0759472151975,0.00510936076079,-0.0572234149247,0.0476410332034,0.0558256635651,-0.0469150043832,0.0490051648891,-0.045322380787,-0.0303032916907,0.0892654701943,-0.0162365523421,0.0519359981818,-0.0191552610481,-0.0373676631109,0.0858268767221,-0.108084538525,0.0752520647398,-0.000238342049782,-0.0920150088802,0.038911618919,-0.0466253161116,0.0417611922287,0.0400993046976,-0.0697735628172,0.060149229198,-0.0825414929902,0.0919044747226,0.0278551971164,0.00648005730298,0.0387877405598,0.0774268876873,-0.0646691200303,0.0821317635867,0.0531532840643,0.067000153153,0.0737812291312,0.0694558602878,-0.042957434524,-0.0370159226633,-0.0296190254567,-0.0221343564045,-0.0594152061388,-0.0372529283634,0.0151965673101,-0.0675864238402,-0.04167305852,0.103372198848,0.00515016163091,0.0747742004377,0.0533546480814,-0.0126310742387,0.0793238871088,0.0626771637918,-0.0808568776587,-0.0317206847679,0.032137528424,-0.0475781790151,0.0185187978027,0.0506583429485,-0.0447739271433,0.0245489982663,0.0689468808611,0.00488906894194,0.0742941054185,0.0655113605677,0.0669807020285,-0.0234638134261,-0.0360279030709,0.0121939384518,0.015678208663,0.0664738538266,0.0897151980322,-0.0455582117909,0.0550395347126,-0.0453568046809,-0.0862258495129,0.0217421679151,-0.00135378147544,0.00853797769495,0.0586408332129,0.0419180661411,0.0359546224555,-0.100669688886,0.00500177852978,-0.0579417168988,0.0723349244662,0.0317669210657,-0.0987144713167,-0.0540923553002,0.0917044144,-0.0204551002165,-0.0536625885832,-0.00581591877215,0.0862537971132,-0.0234567738731,0.048179400572,0.0735695548538,0.00718503165049,0.0848934809833,0.056886229912,0.073407002254,-0.0341901337022,-0.0384511486474,0.0639651791153,0.00382823163733,-0.0472569865932,0.0722185135001,0.0448586787939,0.0897528980698,-0.0217630821548,0.00451390989497,0.0076014766442,0.043382924991,-0.0945745419765,-0.0142762954381,0.083610142313,0.0586442213484,0.0705100191133,0.020765584473,0.0793981583213,0.0987756849776,-0.0749400020931,-0.0595762530808,0.0196989973168,0.0553628340869,0.0324844203919,0.0949717236088,0.011673334583,-0.00128067739656,-0.0718079767684,-0.0113096021453,-0.0401548869314,0.0415599336336,0.00760804390323,-0.110149412678,-0.0508338015806,0.0920228651299,0.0751908396228,0.0193069525548,0.014337686145,0.0334937032623,-0.00469216841586,-0.0923769077628,-0.0163770939028,0.000902062839213,0.0488370985904,0.0804994086592,-0.00686951982805,-0.0930466873136,-0.0933021666176,0.00831719081459,0.0884896491274,-0.0576387229941,-0.0453523980686,0.0540135837164,-0.100109787304,0.0811630948749,-0.0474492858918,0.0574038877838,-0.0274765569887,0.0177176530871,0.0803568187558,-0.0131650159107,-0.0284992392489,-0.00840799685143,0.00348772390201,-0.0323645537863,-0.0263660403046,0.0727071624805,-0.103043000957,-0.012538310484,-0.079772175226,0.0113343445422,-0.0552525846475,-0.0155221524163,-0.0427404106565,0.00642076353209,0.0127074015491,-0.0869405643283,-0.00241292614766,0.0213209091249,0.0153075922494,0.0508809752034,0.00918861347687,-0.00821029404988,-0.0367943263554,-0.0418181438927,-0.0828515729393,0.071189438185,-0.0738769755738,-0.0323872225805,-0.0270779759566,-0.0826543844188,-0.0721270920712,0.0413357425743,0.0891843774323,-0.00371611234446,-0.0128029272011,-0.00881552024459,0.0689675926795,-0.10203721269,-0.0572604174341,0.0716658965739,0.0508740562252,-0.0691727336554,-0.00969950592622,-0.0859971365597,-0.0757001028188,0.0553203374528,-0.0377131068626,0.0593448052238,0.0751374361374,-0.107864007124,0.0523132683349,0.0265499370981,-0.0834097500097,-0.106141264917,0.0626826030663,-0.0669794304351,-0.0316536225946,0.0492355895168,0.0416564260264,0.0763599373261,-0.0124599377775,-0.0452278378523,-0.046638846207,0.0434029453289,-0.0307978281099,0.00384249413227,0.0797470172803,-0.0637559018335,-0.0575914204231,0.0636044011312,-0.076977697664,-0.0131170703705,0.0865190564042,0.0695371280332,0.0634989239883,0.0968021873519,-0.0605888899523,-0.0396495110163,-0.0400302499076,-0.0711542355753,-0.0542820611732,-0.082672911432,0.0270907678979,0.0795327820887,0.0787416963214,-0.0936542996977,-0.0623993316094,-0.0411120716444,0.061276350848,-0.0362018127119,0.0156435665696,-0.0632595881241,0.0687689705473,0.0638311470542,0.0330707486434,-0.0164215559519,-0.104704094755,-0.0131419020208,0.00762886566997,0.0270386842535,-0.0212322414927,0.0996107084936,-0.0737287078437,-0.0646581992301,-0.0816606797021,-0.0695850862381,-0.0684961026073,-0.0238600949372,0.0470250253173,-0.084690904433,-0.0403884453445,0.0852725358009,-0.054534617877,-0.0232378527991,0.0322340258008,0.056503683948,0.0204543841292,-0.0159144851988,-0.019520443606,-0.0211317059972,0.0386429762081,0.0545459237986,-0.0593309145251,0.0536741014661,0.0133342538805,-0.0508707265117,0.0426743946577,-0.0827394972593,-0.039410881051,-0.0834072837494,0.0149179517253,0.0935519239114,-0.0337810193283,-0.078493813006,0.0858988732051,-0.0904564858441,-0.081041889099,-0.00257875889727,-0.0243825140937,0.0941014496903,-0.0466662703812,0.030922154708,-0.0862983837838,-0.0984341036986,-0.0206213083737,-0.0793840757953,0.00982886526321,0.0218920374311,-0.0577797392393,-0.0227868691685,-0.00261833565702,-0.0150525622818,0.0333488622144,0.0827297154299,0.105771843117,-0.0784841919426,0.0871099294951,-0.00463992033484,-0.0593169570635,-0.0155804056078,-0.0318325596203,-0.0776213698209,-0.0183671551774,-0.0369797132981,0.0318905868166,0.0707968344778,-0.0908180446373,0.0633064527151,0.0281971125334,0.0375377647184,-0.0186035076988,-0.0770625499529,-0.0571161220443,-0.0389939420866,0.0413200717083,0.0885881747359,-0.00400279102861,-0.0135595267757,-0.108309342433,-0.0554847527232,-0.0888577041334,-0.0235474783865,0.103233670649,0.0928433014719,0.00112667168283,-0.0035979801241,0.0791869223394,0.0198778835247,0.0919438541841,-0.0723893916352,0.0231174800445,0.0997369155741,0.0608306769064,0.059193941865,-0.0447379578476,-0.0273137804988,0.0954218385349,0.0677210531702,-0.0244360981298,0.0746274160157,-0.0373241017572,0.0473166354762,-0.0939980254171,0.0178145657338,0.0436464398374,-0.000467590626486,-0.0405716731029,-0.0506142289986,-0.0916077754221,-0.0859908853151,-0.0507815728097,0.051089690193,-0.0481252721906,-0.0405014567175,0.0875807781232,0.0171225745609,0.0854441526664,-0.064280047244,0.0708275593759,0.0128235948741,0.060980779326,-0.0840245544773,-0.0539484811813,-0.0421820047623,-0.104162514554,-0.0925871901609,0.0897442855174,0.0285186653282,-0.0177679625538,0.0148573350864,-0.0117433218758,-0.0944751478715,0.0856205623518,-0.0862824635061,-0.0124327986905,-0.0879360537193,-0.0165751652961,0.00438184449727,-0.0759435008768,0.0640490803193,0.0268938969565,0.115440984122,-0.0288285611486,-0.0340645428439,0.0549527907806,0.0600054934579,0.0151596871235,0.0517362255161,-0.0547151428031,-0.0951008950449,0.0816310149803,-0.0141056519072,-0.0729020591823,-0.0501612603447,0.0629312285432,-0.0876407308916,-0.0687879415209,0.0289600964117,-0.0644370324347,-0.0418482421582,0.0164517786701,0.0580485876054,-0.0138998202151,0.0817385722326,-0.0491738653272,0.0528893433147,0.0433006056027,0.00708762387638,-0.033596596905,-0.0321582578447,-0.00451427346642,-0.0635306901135,-0.0622551760434,-0.0860145335033,-0.0206231791302,0.00768503961728,0.00952857600901,-0.0927074235838,0.00196945982168,-0.0299904772937,-0.0492007434486,-0.0646254000403,0.0594148347998,-0.0518125926554,0.0415689011481,-0.0142905871774,0.0704297716717,0.00648386049488,-0.0476330415309,0.0939333928199,-0.107369777282,-0.0476771543516,-0.0208210606038,0.0981579143975,0.0159131964039,-0.0191556827056,-0.072369602832,-0.0273166952209,0.0138447901013,0.0386436467666,0.00164178715231,0.00454760233391,0.0122656795282,-0.0518315640493,0.0808395418622,0.0344178456269,0.0982046495628,0.0176157663133,-0.0164558902897,0.0272879163353,-0.0422564077594,-0.0657015973197,0.0623787166729,-0.0295408207379,0.027196062355,0.0408202261088,-0.0312389963613,0.0144711493764,0.036322883662,0.0822968383311,0.0217822355129,-0.079467728252,-0.0788628925789,0.0538641327633,0.0435980765997,0.0270342220369,-0.0385305842878,-0.0456347802754,-0.0083235813513,-0.0466614924829,0.0361404077139,0.0794132008022,-0.0520040466853,-0.0640013404988,-0.0296754881691,-0.0242207504545,-0.0323861577085,0.0549197321016,-0.0316057461951,0.0909470064058,-0.0865034999263,-0.0714066907187,0.00375096014994,-0.0369399297528,0.051353938469,0.0412983785714,-0.0368036750828,-0.0893703951711,-0.0801964156942,0.0145992712139,-0.0897683482061,0.0539419757715,0.0926807461976,-0.0242491926627,0.0707085468942,-0.0492363816363,0.016705494517,-0.0925963715629,-0.00864528062512,0.0382014580984,0.0422694946145,-0.0134299477477,0.0975264340476,-0.00390381620676,0.0739604942627,-0.038594525772,-0.00290629772355,0.0704736680891,0.0624299586853,0.0501768541442,0.0909637624824,0.0300379282388,0.0960164613929,-0.00902013597501,0.0268547836796,0.00655192341777,-0.0223135994876,0.025246383564,0.0725779591669,0.0650076175056,0.0153072755815,0.00179575726656,0.0257949438252,0.0861490941099,0.0929557325082,0.108946004531,-0.0807682081629,0.0186341737017,-0.0474439882007,-0.0916292805809,0.00513641622575,-0.0938493524467,-0.0653136530305,-0.0462206531178,0.0120267861718,0.0485674052617,-0.0759309142514,0.0863572560301,-0.092764289462,-0.0554495659906,-0.0225609588837,0.0838281907654,-0.0663645544888,-0.0905528999936,-0.0204569107619,0.0674492713631,-0.0126277313329,0.0263289615317,0.026782652176,-0.0732886959755,-0.0738258840001,-0.0781046324261,-0.00988391451275,-0.0325008698054,0.0783318563297,-0.0362579204678,-0.0250658548674,0.076721899431,-0.0628087309188,0.0132036848369,-0.00273074191687,-0.0549679451768,-0.0457932963417,-0.0335262391891,0.0491677492165,0.00782581887933,0.0561277742103,0.00558242132043,0.0830123349411,0.057631941901,-0.0814601972803,-0.08116423182,0.0195461798409,-0.0382881986325,-0.0499458215471,0.0549241429279,0.0598665184467,-0.0350853560022,0.0125199421772,-0.0661839863356,-0.0507467268865,0.0812099687361,-0.0135449911993,0.04905376902,0.0670255677311,-0.0393004233453,-0.0517219102809,0.0318832260504,-0.0209679845741,-0.054970133944,-0.0846804946038,-0.00970035415588,-0.0596466223036,-0.0483179539909,0.0465009112312,-0.00142465042771,-0.0969328229379,-0.0167467538445,-0.0921115644463,0.020093699122,0.0809952286544,0.0715435188059,0.0329429516253,-0.0142635782484,0.0739535420614,-0.0279648472334,0.0728752389822,-0.099517241579,0.0618044052537,0.0799511313295,0.0809338641871,0.0771014955826,0.0619042760116,0.0623484006123,0.00922504345752,-0.0748498373603,0.00251718652553,-0.031980573009,0.0115084247219,0.036911150793,0.102693619407,-0.0643905094957,-0.107712158797,-0.0889908640348,0.0215512756434,-0.0844977130217,0.0128356371352,-0.0342035564966,-0.00261420713138,0.0824653187441,0.0414737865683,0.0709756572076,0.00441330688722,0.0427947264431,-0.0290073837454,0.0896370619208,-0.113511201388,-0.0554586095797,-0.00232344263446,-0.0451684436425,-0.0458452746357,-0.00872154131238,0.021426824429,0.0787527230418,-0.0915819969753,0.0448567218338,-0.0212330936247,-0.0422002703369,-0.0373367678273,0.00900695256818,0.0528201079536,-0.0528129651524,0.00160926752512,0.0565235818575,0.0993823864665,-0.0716123109154,-0.0185763266326,0.0601172497306,-0.0244927148721,0.0376446978796,0.0926698325575,-0.0363373488836,0.00474145076618,0.00966748159283,0.0220736456313,-0.0644441465744,-0.0243770934045,0.0486321703088,-0.0675014473323,-0.0623603551265,0.0185857363294,-0.0750584841542,-0.00440447897193,0.0745142395415,-0.0556871886122,-0.0914484428998,-0.0253280408821,0.0778009476985,0.0361008765377,0.0103972479402,0.0501178681612,-0.0719218514244,-0.0625234627707,0.0337280982607,0.0987547679082,-0.0682529877878,-0.00244154734595,-0.0657686780602,0.0910054862447,0.0493147564387,0.0596767849113,-0.0677347833097,0.0855710112585,-0.0406845563665,-0.0512717448273,-0.0244701389179,-0.00517919589746,0.0556538183186,-0.0513884805981,0.107992270918,-0.0502267818225,0.0390587470223,0.0783552809202,-0.0439963295126,0.0554253501655,-0.00386421380315,-0.064370327586,-0.070792575309,-0.00465939929265,-0.0143833979566,-0.0421011455509,-0.00252741549189,0.0191548281752,-0.00952589551966,-0.0985230490059,-0.0702226133567,-0.0621472061759,0.050475424693,0.0835951815057,-0.0887337355472,0.0571891149504,-0.0309247897003,0.0909657000416,-0.0249554044869,-0.0696288448633,-0.0357625792905,-0.0810117852256,-0.0716933077659,-0.0126444653813,0.0217473631864,0.0125387278745,0.0561048668935,-0.0488053337407,0.0045661380187,-0.0642224082841,-0.0907529843603,0.000254361751657,-0.0548689972758,0.0542798698265,0.107857717574,0.0390594722127,0.0725022336673,0.031590545729,0.0759025255633,-0.0972878199288,-0.0599042572754,0.0299549789685,0.0209967299453,0.0976272599533,-0.0416393504246,-0.020111019706,-0.00823822473329,-0.100155227654,0.0670031207635,-0.0965787373071,0.105515780237,0.0735058098197,0.070057971073,-0.0164860040093,0.0829292327109,-0.0165229228309,-0.045260692937,0.108465739019,-0.0431971822517,0.100432347706,-0.0527160926953,0.00867008779498,-0.06952899873,0.0677140647837,0.056314400476,-0.0376606642585,-0.0110557211308,-0.0695972350765,0.0965346346448,0.0888612420746,0.0520250850706,0.0678212405223,-0.0889102195919,-0.0749096200678,0.000467771428216,-0.0351646995693,0.0477941271881,-0.0151015009644,-0.0781927980469,0.0629249390933,0.0414172724655,0.0808799671819,-0.0420869092778,0.0868171514807,0.0394125742641,-0.0711423526804,-0.0533711232819,-0.0816443863,-0.0460546035218,-0.0768352898691,-0.072836441654,0.0333499928068,-0.0852439390164,0.0776392081917,0.0811070212225,0.069719958661,0.056131002749,-0.0364228725723,-0.0796211125084,-0.000126376053756,0.0879842913082,-0.0746787783537,0.0324872192775,-0.061312550257,-0.0555125584882,0.0179919248704,0.0392515266349,0.00457433970088,-0.00752788490573,0.0593341621742,0.00455018832318,-0.00295036256143,0.0763323107013,0.0245911234053,-0.0664838483459,0.0426297862354,-0.0159550132991,-0.0498243511072,-0.0714578712161,0.0532980472521,-0.0803657313686,0.0188620802815,-0.0511346633846,-0.0283537470627,0.0647590443784,0.0501970928269,0.0549253984424,-0.100220680659,-0.069345024527,0.0586881514482,-0.0642491936654,0.0810720479579,-0.0351612342031,0.0717197666841,0.0947674837829,-0.0176320990634,-0.0993040646152,0.0178598283933,-0.0841309768195,-0.0171206183964,0.0448933238869,-0.0347514264321,0.0535232038816,-0.0283096089808,0.0654741789291,-0.0190567597096,-0.0833075609985,0.075477439286,-0.0920419130315,-0.0391104790613,-0.0657665736648,0.0522565801649,0.0570448826427,-0.0101635033826,0.0847206811044,0.00538827259249,0.0654865284784,-0.0181598685881,0.0825941975176,0.0238632909689,0.056324610037,0.0168292028428,-0.00684205523361,-0.0826036890333,0.0910366223632,0.0538069876196,0.0552862994144,-0.0733519156389,0.0401081303693,0.00493358794328,0.0866845401179,-0.0478220787378,0.0761476469178,0.0934539527347,0.0478173751326,-0.000290631867886,0.0903452496072,-0.0512984805427,-0.0595976486005,-0.0615443841674,0.0113932274467,0.105808090343,-0.0737677584974,0.0531175736458,-0.0980124568281,-0.0230081702859,-0.0713138882054,-0.0963064127085,-0.0646734501194,-0.0844624718374,0.0874309343175,0.0516683724695,-0.0438197986897,-0.00817081948805,0.0138000578476,0.0786110887069,-0.0286316455869,0.0737207578097,-0.0219877790983,-0.093365459487,0.0566632258971,-0.0988157083551,0.0173045483461,-0.0697595551303,-0.0812164143224,0.00312762302984,-0.0613131067502,-0.0603507647158,-0.0801062009116,0.00811242955998,0.00280853686042,0.0375406486954,0.0357284618356,0.0891197243456,-0.0651584367432,-0.0172418609583,0.00630845316339,-0.030691012694,-0.00412866848097,0.00974514682759,0.0749398997707,-0.0144794818073,0.0107898293594,0.0231836653804,0.00735024684101,0.00306288656517,-0.0720562358484,0.071733891818,0.068515942224,-0.0477455672521,0.0498637202022,-0.0191589537406,-0.0619759953623,-0.0535011955935,0.0900974397137,-0.0837229183753,-0.0940896473732,-0.0502933782641,0.0189255404581,0.00581730248846,0.0989022927796,-0.0144525277517,0.059730298651,-0.0925863553899,-0.071148042965,-0.014102698073,-0.0654904969092,-0.00803452462754,0.014924631365,0.0450665092038,0.00909635626411,0.0134879347855,-0.0997027657182,0.0238086036978,-0.0332131573805,-0.00549547793898,-0.0591306116379,0.0612101641036,0.0158631361619,0.0232534756527,0.0445456420817,0.0586552022603,0.00857925254604,-0.0239543304507,0.0200264734778,-0.0610042566437,-0.0738586592788,-0.0856820178066,0.0211849272105,-0.0429343680173,0.0955315206329,0.0261394519601,-0.0194720377223,0.0638617005393,0.100354517111,0.0279193971034,-0.038729322395,0.0164115282611,-0.0991297958692,0.0977939712274,-0.0663010536812,0.0690705387052,-0.0935825821463,0.0632488390131,-0.0034953089997,-0.0756613491491,0.0979030314351,-0.0680311334878,-0.0307681191446,0.0346105182802,-0.00104943971594,-0.010908268229,0.0188035231539,0.0925978616571,-0.0812770759817,-0.0401655676903,0.0722917022941,0.0335543063807,-0.0856984481008,0.0528770912652,-0.015343895481,-0.0236321849628,0.0572928595308,0.00939154387274,-0.0208042623384,0.0557008666337,0.0851406667164,0.0710181088024,-0.0257532781361,-0.0834883918253,-0.106086608136,-0.0725272988104,0.0269715259112,-0.093930964286,0.0403120220028,0.0885239171559,0.0229706755875,0.013391703463,0.0686543557723,0.00698217711901,0.0877680103367,-0.0576287760255,0.0371256177183,-0.099221316764,0.0489797233937,0.0559905814567,0.0697384460193,0.0310577357021,0.0595703414608,0.0382871980316,0.0741361340384,-0.0244871973585,0.0899115203942,0.0974767516842,-0.054525627444,-0.0383404037601,0.0154263508937,0.0682914087462,-0.0292509472338,-0.0564495215803,-0.0973052432621,0.0645046633691,-0.0478829244583,-0.0900176878195,0.0856863069477,0.00124598724754,-0.0186550371052,-0.0653423424586,-0.0183479828602,-0.0228687971266,-0.00263401584933,-0.0133590524563,0.0074995375781,0.115508436639,0.087351101133,-0.104306408275,0.069322328259,0.0703145078651,-0.0237232614794,0.0382250322881,0.0840166684013,0.017031109197,-0.0210056510418,-0.0865124538044,0.067552873044,-0.000934297669737,-0.0789423854357,-0.0221608987182,-0.0730548747378,0.0623626891077,-0.0718619808144,-0.090688204759,0.0828864623885,-0.0219673688702,0.0913450978992,-0.0551297500098,-0.0519265856387,-0.0300892820371,-0.061605678488,0.0462933696619,0.0124675941878,0.0740626252097,-0.0101825839947,-0.0571609572026,0.0638882424184,0.0172589968633,-0.054773028282,-0.0867873186971,-0.0649583136855,-0.0371423539511,0.0245804847128,0.053863420225,0.0143272492465,-0.0132851698489,-0.0345610503159,-0.0751236794185,0.0223915602548,0.0325347341899,-0.0562624759553,-0.0332924497752,-0.0434123288358,0.0151019391419,0.0726934477484,-0.0387453162893,-0.0182031332294,0.0430571232146,0.0628642900843,0.0518255046688,0.0623744919224,-0.0730725930464,0.0963778020387,0.0858466189284,-0.0602209154915,0.0760974117187,-0.0313640774567,-0.0337430253719,0.0116600728884,-0.0201216870882,0.021547166357,-0.00633868148065,0.0546662524481,-0.0437242105092,-0.00153124100392,0.0178157667677,-0.0292163453231,0.0560313416011,0.0189799524289,-0.0221679610343,-0.0156343581267,-0.0182626501163,0.0862970090764,-0.0613755009261,0.030702920976,0.0105963047569,-0.0369436654167,-0.0616044727923,0.00403509252879,-0.0214463506173,-0.0376379092861,-0.036148196566,-0.0962485701046,0.00191710950277,-0.061745809374,-0.1139140075,-0.0607410175905,-0.0110662689748,0.0497466594691,-0.0169121173853,-0.0719603078714,-0.0488607607288,0.0694102366597,0.00275037109778,0.00397733668587,0.0865278687031,-0.0530413208182,-0.0170817441171,0.050450291201,-0.021102495485,-0.0306413366179,-0.0690745764474,0.0148170461397,-0.0470454953502,-0.0355918055826,-0.0873548043866,0.00680970740009,-0.0220343454147,-0.0893952105416,0.0272841578246,-0.0669458147554,0.0836948205136,0.0314012385375,0.0500811725238,0.0251044433037,-0.0338549509257,0.0447809240168,-0.0481246465632,-0.0507216042884,-0.0191173212838,-0.017108227038,0.0703158548964,-0.056231445042,0.0619427300023,-0.0319653290966,0.054233433568,0.11364990145,0.0637946133408,-0.0392651237147,0.076763372724,0.0147765825337,0.042019513794,-0.0558369723721,0.0532821986529,0.0507024539757,-0.0115864610218,-0.0377002700158,0.0167798042515,-0.055247147289,0.0547460971206,0.00742358172845,-0.0241465748376,-0.0709777379091,-0.101579575364,0.0441308617233,-0.00473662053807,-0.0163631646265,-0.0478913007325,-0.0788121260399,-0.0845588851612,-0.0567922052586,0.0233785450384,0.0712358360433,-0.0503671562225,0.0414911183738,0.0120799797033,0.0436445191688,0.063444079311,-0.0894456448955,0.0976925257038,0.0692504796176,0.0875367007811,-0.00482229206245,0.031868642547,0.0225658093229,-0.0943468461314,-0.009472859991,-0.0974405730503,0.0320590262872,0.00781061950746,-0.00144328072352,0.0058700830147,0.0899342175203,-0.00232685003741,-0.0316268490617,-0.039836315047,-0.048360637916,0.0709341230414,0.0705571961266,0.015363511584,0.0684091507405,0.0383136045575,0.0551537961111,0.0821106040943,0.0427370881007,-0.0290293131487,0.0720426277868,0.00767441550829,-0.0503981822759,-0.08330822072,0.0520518544922,0.0268312109736,-0.092566720829,-0.0424995903596,-0.0539279848071,-0.0548988529146,0.0454071456552,-0.0535907533442,-0.00363454294683,-0.0676565501483,0.0987332504754,-0.0743593554101,0.0363021428118,0.0472490757402,0.0353839402612,0.0539060742655,0.0635218011852,0.08143301572,0.0210898616621,-0.0834652228563,-0.0960031496863,0.0675059363301,-0.0405159886487,-0.0486439696242,0.0822518052976,-0.0143195255671,0.00712791380004,0.00821430898609,-0.0356984461536,0.00734375447042,-0.0194868083205,0.0475814544318,-0.0166061431584,-0.00861916981686,0.0338505215137,0.0335503256468,0.0809987572555,0.00364244155551,-0.0258191364791,0.0453744313323,0.102605861499,-0.0078452075762,-0.0708765901419,0.0341126290563,0.0693880657474,0.0611511746412,-0.0686741748746,0.0975168853691,0.0741864597871,-0.0856718692294,0.00445261604467,-0.0710992202188,0.0678105709708,0.0591738202647,0.0336778121901,0.0786348823342,0.0965885714698,0.0618321569335,0.0894693450641,-0.0720018643393,-0.0403665478963,0.0573725211826,-0.057111306095,0.000598123758357,-0.0382058817626,0.021462494003,0.0717607047904,0.00982254361712,0.0399022351995,0.024265264839,0.0114885694312,-0.0173599332004,-0.0834554404135,0.0106437308122,-0.0304406068211,0.0225730155068,0.0914952366263,-0.0135365880718,0.0579679693213,-0.0468875883909,0.0868114982244,0.0895463359445,-0.0836081479739,-0.0103949290467,-0.0840573492995,-0.0126505833807,0.0409639501141,0.0443348605302,0.0804762231573,-0.0152266007897,-0.0361223810413,-0.0342666578747,0.0511590254966,-0.0117359896906,-0.0448630021251,-0.0703896201534,-0.0318217111203,0.0451931949817,0.0858254498777,-0.0137523209388,0.0498595458629,0.0719559354056,0.0902720735961,0.0174514730039,-0.0657274134758,-0.0353665877768,0.00346496892281,-0.0687123840284,-0.0369840827158,-0.079808960444,0.0907673705132,0.0734681567148,-0.0840587469183,0.00179151385651,-0.00746574479136,0.07890880818,0.00247877197128,0.0478209771461,0.0704086567137,-0.0444870747966,-0.0413082259474,-0.00344419228914,0.0714951783546,0.00295477731122,-0.0760606016652,0.081822736472,0.0536710491512,-0.0734834278542,0.043090335312,-0.0274250525939,-0.0164306996002,0.0395607975863,0.043792581793,-0.0611699895533,0.0182616666089,-0.0229242315822,0.0405059962524,-0.0812884746599,0.0798987613812,-0.0402468512099,0.0342207432118,-0.0155607103831,-0.105354494346,0.0847155483502,0.101901327285,-0.0504535703556,-0.00153469039883,0.0517945207966,-0.097052140353,-0.0611976514868,-0.0434984019445,0.104197823783,0.0997984084956,0.0887554046848,0.0142066013527,-0.100549960531,0.0791215458315,0.0701352567137,0.071545398357,0.0774203348885,0.059426892525,0.0435516797414,-0.0823007565166,0.0317827054736,-0.0619333968096,-0.0378935945345,-0.0674422791816,0.0760728512074,-0.00659120319606,-0.0373605630699,0.0420344686473,-0.095128657962,-0.0406211566055,0.0271760049117,0.0319819621579,0.0946775290283,-0.0392104405057,0.071486873331,0.0304501142888,-0.0599888511249,0.05269594061,-0.055807483364,0.00346551674535,-0.035337399538,0.0247273914594,-0.0672195602725,0.0153070501345,-0.110948782268,-0.00365764071319,-0.0928573611098,0.00695963092273,-0.0254221517955,0.0894010739627,-0.0337833528713,0.0493910488508,0.00886971082978,0.0911526146157,-0.0949002363004,0.0553430680839,-0.0560083773233,0.0560642716471,0.00676567890522,-0.0309526945802,-0.00702469608699,0.000319223281005,0.0270284016971,-0.0668632900941,0.0290758428447,-0.086675765508,-0.0203759247771,0.00969722392596,0.0172287193472,-0.0763199365357,-0.0869247494185,0.0335347586757,0.0444037349139,-0.0291370150619,0.00307056252129,0.0755483612261,0.0751135008,0.040801610993,-0.0980642714528,-0.032130830425,-0.0408532891437,-0.0940666477686,0.0963430046296,-0.037959125782,0.0478693993013,0.0549702943855,-0.0592441437166,-0.0814466842689,-0.0955443286515,-0.031514156513,0.065496393096,-0.0637023864089,0.101918973796,-0.0654820432748,-0.0623943357256,0.0815731654949,-0.0845673194077,-0.108069120887,-0.00142419746101,0.0582635240218,-0.0226645190497,0.00955310409956,-0.0316306182204,0.00416454090228,0.0399734465042,0.0250023507053,-0.00685545519258,-0.0185984430548,-0.0572143984017,-0.0362459295746,0.061305400414,0.000407401754602,0.0276941706261,0.0101877642112,0.0833131996075,0.0680611094348,-0.0452042657569,0.0288217096764,0.0227495980959,0.0858234699438,0.0829986126075,0.0370857441827,-0.0203372898432,0.0727217493119,0.0436360118255,0.0231348478046,0.0719593820604,0.0791250784744,0.076422977341,0.0527866085783,0.101802120313,-0.0785925526461,-0.0873144264272,0.0283241382186,-0.0661795756949,-0.0774629992214,0.0170485038219,0.0705483914105,0.0140515660623,-0.049053950942,-0.0754684752153,-0.0878252343773,0.0290570301794,-0.0207898668169,0.0974037589373,0.0107818796301,-0.01879501924,0.024633158576,0.0647491219164,0.0531095715674,-0.056500950258,-0.00123250962659,-0.0895459587082,0.0132984407648,0.0510860101571,-0.0800019935753,0.0511423572297,-0.0506456463336,-0.0704592885557,-0.0900607732126,0.0572842096267,0.0339356074167,-0.0112248902361,0.0518496813585,0.0906459922077,0.0026245293721,-0.0915016233228,-0.0392829475532,-0.0465194194609,0.0859064642432,0.116510749643,-0.0378772239474,-0.0932633341662,-0.0840860870968,0.0511582013314,0.0770997688959,0.0221372507774,0.00548706206498,0.0247224479794,-0.0670636240246,0.0204966326812,-0.0446953034171,0.00953032861895,-0.100319986296,-0.0290062270737,0.111035043914,-0.0297669408427,0.0181272443644,-0.0530362101942,-0.0894533478687,0.00809962869812,0.0643737438646,-0.0963901990218,0.0772873920512,0.0318533097124,0.0369271274582,-0.0016548945439,0.0306755967046,-0.0742796457056,0.0544156205498,-0.0369243191984,-0.0697507837334,0.0904225135909,0.0242031759378,-0.0673340245108,-0.0597709414354,-0.0812093295391,-0.0522260163032,-0.0674931046222,0.0132512615251,-0.0581304104464,0.0315168711457,-0.037542179925,-0.0383839149777,-0.021342567239,0.0406235287393,-0.024613069387,-0.0899003506002,-0.0818167422037,-0.101663031974,0.0518952963648,-0.0323590340487,0.0927316386613,0.0387188217059,0.0127645430935,0.0492102515042,-0.0804903018228,0.0762886777658,-0.043702002508,-0.0632872891166,0.0882507088072,-0.0493928249165,0.0579583391128,-0.00286442709717,-0.0840745298355,-0.0311907909117,0.0406701259303,0.0881174781466,-0.0536664546506,-0.0737109682621,0.0392618027266,0.0939083259383,0.0298810599171,0.00961189004182,-0.0427124048622,0.0664828679704,-0.0717111220018,-0.0511365056471,-0.0350653836003,0.0670066700143,-0.0942444072674,-0.0671743773263,-0.00969211647337,0.0829783591883,-0.0135202224198,-0.0145254828841,0.0151609743143,0.0669182061161,-0.0171442345446,0.092173414717,0.0534046924895,0.0749919867572,-0.0973613225343,-0.0886858737872,-0.0167115210614,-0.0657629814195,0.0605315943644,-0.0208659978373,-0.0701440863573,-0.0517280096545,-0.0454939641238,0.0315715398416,-0.0187279199812,-0.088930496911,0.0756132358716,-0.0102371047945,0.0497732863147,-0.0068107544382,0.0356471861148,0.027997304108,0.0748692596359,-0.0893603652545,0.101715970163,-0.0371163694494,-0.0765772817882,-0.00228021142595,-0.0016228715327,0.0187217201868,0.00907537814095,0.0464105322016,-0.0234293783226,-0.0394048286196,-0.0532661796129,0.0294224936207,-0.061570410859,0.0419736560974,0.00106776528575,0.0822535321334,-0.0479336079606,0.0765705227663,-0.0172004907032,-0.0361325508459,0.0372085577512,-0.018787095132,0.00127066559838,0.0118153992154,0.0757847305522,-0.082232639721,0.0536728669396,-0.0481465674113,0.109581665866,-0.0504826363642,-0.0109121266762,0.0227702806824,0.0383312243988,-0.0553537693683,0.0134408406817,-0.0371013428764,0.0356895463507,-0.0226578546767,0.090952323924,0.0313430945496,-0.0216737154786,0.0148668503348,0.0919917465702,-0.0397979409618,0.0883317265605,-0.0903253816292,0.034685513321,0.0184179483637,-0.000820131086625,0.0745971683625,-0.0869034739779,0.0248812338916,0.026234642566,0.0417524061652,-0.0227468284695,-0.0124855585878,-0.0660633469881,0.0160187694427,-0.0868812586988,0.0617285385411,-0.0784889034558,0.0316535392038,0.0248381819946,0.0523198601127,-0.0912065425756,-0.0530660194537,0.0430363435554,-0.0860611294055,0.0233686698757,0.105510818395,-0.0673425448958,0.0683505948885,0.0364502455855,-0.0506488234816,0.0172682917351,0.0305006349357,0.063876818452,0.043293115424,0.0921448179778,-0.0108293852462,0.0276480133622,0.041367911562,0.0569491120118,0.0142661634036,-0.00145973788089,-0.000667730624895,0.0179100490963,-0.006179089971,-0.0871663027383,-0.0416894379856,-0.0771918099035,0.0188087913215,-0.0506762132414,0.110796631024,-0.0970744618878,-0.111956375722,-0.0372664695189,0.0815146595019,0.00338459864921,0.0635028677358,0.0814505305975,0.00739901315285,0.0383391271359,0.0289297367917,-0.0863036103222,-0.0408325671529,0.0463244835675,-0.0553928852048,-0.0781535958176,0.0178810400054,0.0216413761876,0.0487100738515,-0.0480244095297,0.103747770445,0.0825906621766,-0.0916044031131,0.0209945064599,-0.00295082136157,-0.0135362484791,0.0609071193177,0.0458754137373,0.0609401601545,0.048108176451,0.100634964274,-0.017856455184,0.0415844040045,-0.0220525664747,0.0359988079518,0.0181558603574,0.0286389658705,0.110462040986,0.0159707050117,0.0556797912538,-0.0577465009297,0.0275619509528,-0.0272830059713,-0.0402832174891,-0.0208609760692,-0.0518497980195,0.016427780218,-0.0907663958907,-0.0106568551897,-0.000706060440481,0.0664772453836,0.0529660113713,-0.0791754134382,-0.0984351196794,0.0877218458898,-0.105596748671,0.0579121699929,0.056314587353,0.0861164375669,-0.0373294769611,0.00404063755385,-0.0876190789768,0.0637824645756,0.0660840098456,0.08531061714,-0.0696396380905,-0.0822568642759,0.00340318316507,-0.0776479265117,0.0340649563585,0.0833138995652,-0.0038383129379,-0.0202449327141,-0.0827917106087,0.0151901253932,0.0323725443246,0.0241887084204,-0.0440188742029,0.0154012369791,0.0421124033903,-0.0178313367116,0.0729548375929,0.0150266467931,0.0698378386221,-0.030180112388,-0.019551441384,-0.0815474711638,-0.00165009976439,0.0585298195802,0.0800740712687,0.0064098948637,0.0982285876326,-0.0145758962639,-0.0394157713441,0.0580713465238,0.0523490784662,0.0276283390406,-0.0471406993347,0.0772817361584,0.0308406673233,-0.0356682181473,-0.0475431317125,0.0795562937631,-0.00821222015142,0.0339565342886,-0.0890062115807,0.0130027452896,0.106891705786,-0.102103639759,0.061757462868,0.0904347648559,-0.0267317987534,-0.0590411160333,0.0752458237677,0.086081932846,0.0779325457403,0.0898832615549,-0.0870866150817,0.0112349691402,-0.0534954326035,0.0805505585503,0.0644147106902,-0.0320505521919,0.0490797498661,0.037699822544,0.00825417540753,-0.0290240553859,0.0168512410331,0.0225246202286,-0.0597418826651,-0.0913492325622,-0.0508486408964,0.00597356304021,-0.0233537011672,-3.57218098079e-05,-0.0645973479383,-0.0220685182064,0.0541369132976,0.0874358410625,0.0545661800485,0.00251129431816,-0.0524567051071,-0.0516769248091,-0.00743013889005,0.0363041110109,0.0829777948569,-0.0786477557723,-0.0477421394957,0.0242200441893,-0.016317589696,0.0503622342213,-0.0616484321959,-0.0738720430403,-0.0121262007534,0.0236017260318,-0.0442616845933,0.0277442397247,0.0735364711574,-0.084375169464,0.00153368777975,-0.0815316806711,-0.0184839332684,-0.0765189026997,0.0522785814396,0.0912469599964,-0.046043914571,0.0576458519809,-0.0884511529699,0.0533394797788,0.0145877602341,-0.0985806394312,-0.0402696882482,-0.0895578831784,0.0444151718582,-0.0777163170787,0.0512937433697,-0.027176217316,-0.0352072033183,0.10900170623,-0.0149185876603,0.0252955869292,-0.0349922192158,-0.0352614190111,-0.068875483907,-0.105035068627,-0.0215825955439,-0.026801302789,0.0588394980883,-0.0579450303941,0.00284178830082,-0.057367998432,-0.0518274948645,-0.0223361413994,0.0397642244807,0.090651532975,0.0555974590334,-0.0852266996184,-0.0631902373549,-0.0570873634314,-0.0513159455991,-0.0344146631048,0.0694309070664,-0.0295419770818,-0.0157518153003,0.0700149338392,-0.0706150382656,0.0385144143208,0.0833102409272,-0.0677117503645,0.0534611815571,-0.012606952897,-0.0416678303976,-0.101921533497,-0.00307073112868,0.0398715848288,-0.0881877632793,-0.0853313143108,-0.0767986497174,-0.0365010628652,0.0927005360673,-0.0274750471124,0.095034513155,-0.0849188514675,0.0986456789527,0.0891845248115,-0.0435302459117,-0.00552983814228,0.0388659325826,0.00235847711529,0.0616607455189,0.0401388817186,0.0977265321545,0.0136105990906,-0.010823968768,-0.0165788100126,0.0279679616323,0.0577111718752,-0.0442743471813,-0.0209558719765,-0.0672528682253,-0.0271566791747,-0.0216728096462,-0.0435132328187,0.0132437783668,0.0143303135391,-0.095035130692,-0.0376256741029,-0.104849436627,0.0254384833637,0.0756386698411,-0.0695457248297,0.100269022357,-0.00585105856698,-0.0440038331857,0.0557070297539,-0.0106608789739,-0.0212986347511,-0.00423103415992,-0.0415434643959,-0.0221817365146,0.0479731077905,-0.0282912874623,0.0386509325463,0.0420758823186,-0.0881656145517,0.0313020329786,-0.00240551519231,-0.0770573441342,0.0252519557025,-0.0635382015789,0.0106462620138,0.0416184709973,0.0674283056231,0.0297966096364,0.0904851860721,0.0933266794038,-0.00229065313137,0.0929234468274,0.0525035811497,0.0226451910241,0.0405391882487,0.0382754287141,-0.051434086593,-0.070678492513,0.0278021873041,-0.0689204370478,0.0176163125134,0.0461221389736,-0.0404208998149,-0.0150249348372,0.103576884505,-0.0900538170833,-0.0571739345968,-0.0506836432381,-0.024565613242,-0.0489233458351,-0.033498340471,0.0114112675991,0.0289288331019,0.0188414953074,0.0829424600672,0.00896907010176,-0.0862766058786,0.0458512276673,-0.0145395131408,-0.0235277161333,0.0783768392951,-0.0222461151009,0.0914067772141,-0.0526971784927,0.0507051662174,-0.0343830295944,0.0412887229898,-0.0411106274217,-0.0516199382662,-0.0714226262261,0.0324105560997,-0.0799608772683,-0.0208905161108,0.093970015108,0.0485686095133,-0.0220320815739,0.0118280198967,0.0550755042118,-0.0668989069785,0.0890799326871,-0.0889081304757,-0.0423355476543,0.0308461810728,-0.0413611347392,-0.0716367932269,0.0803198035268,-0.0839794370601,0.0125260327657,-0.0456057151292,-0.0560307819355,-0.0366190502073,0.0160723446148,-0.00447780239374,0.0597282994467,-0.0440600322662,0.0266717133682,-0.0406842910006,-0.0219392352512,-0.0784385146856,0.0730047550399,-0.0564346838461,0.101372173732,-0.0792639779873,-0.0928940110007,0.0132260524178,-0.0230252691385,-0.0859031419506,-0.102416201886,0.0518945241097,0.0999553991795,-0.0183973653538,-0.0668756318591,-0.0585389556233,0.0775358610006,-0.0374323743681,-0.0686330119117,0.0990165285351,-0.0109608458648,0.00341766293838,0.040527976427,-0.0308256640356,0.0783305846622,-0.0511900688586,0.0767017765992,0.0869018103914,-0.0884946792645,-0.022490678794,0.00678410942032,-0.0829593004266,0.023302592618,-0.0289091147232,-0.0745809557008,0.0951964285062,-0.029872079992,0.0887029987981,0.0535813625008,-0.0408320689497,-0.00475482988134,-0.0215414877551,-0.0674947479597,-0.0809194485116,-0.0435694540693,-0.0827380791839,0.0741574216139,-0.0263383199041,0.0250209323295,0.0923741621333,0.0955812446328,0.064962309449,0.00989919543122,-0.0868616637352,0.0780092719609,0.0898295761847,0.0828892591072,0.0395354772413,-0.0710456000288,-0.0311062886023,-0.0697795072824,0.00651395623824,-0.0646766651107,-0.080440811541,-0.0106447865437,0.0650733807298,-0.06636998394,0.0536791060492,0.00237345563188,-0.0585913688089,-0.0132007802116,0.0141865930736,0.0327132513069,0.00395725918086,-0.0299250730349,-0.0597389728432,-0.0753011706094,0.0592210165833,-0.07322946251,0.0852522332234,0.0546913989409,-0.0497097891797,0.0631666014427,-0.0374755585023,-0.029548142296,-0.0563767854511,-0.029880836119,-0.00587686509965,0.107768528141,-0.0464808085283,-0.00715007648037,-0.0304441265818,0.0167664280994,0.0186740468329,-0.0766440942864,-0.0785819137663,0.0809538083734,0.0737699654122,0.0685129128632,0.0763377265694,0.0842636554037,0.0335025045626,0.0447848933539,-0.0595968175572,0.04154546161,0.0666765754468,0.0739761541296,-0.0524390057303,0.045062025203,-0.0321852767581,-0.0571284176368,-0.068406758919,-0.0410652515696,-0.0099840226729,-0.0434622940012,0.0157564637764,-0.0955891186274,0.0987857749895,-0.067986605725,0.0787821270019,0.041327215066,-0.0395287849519,-0.071728142909,0.0972632074924,0.0396033717535,-0.0647749292109,0.0984878210985,0.0356863845488,0.0304931239726,-0.0330330164926,0.0788159593067,-0.0765997243025,-0.0431064188818,-0.095065517496,-0.064912759033,0.063438867711,-0.0771711280451,-0.0026019609937,0.0265876019564,0.0775759002652,-0.0796493452258,0.0278398529619,0.0342123320185,-0.0627615469192,0.0218431000685,0.00538372033464,-0.0304065174016,-0.100481680442,-0.0106848942949,0.006866417264,0.0980095394513,-0.0431618797055,0.0179547798633,-0.0279436215718,-0.0649173006384,0.0807205975784,-0.0112785519235,0.0917897738551,0.0362970396842,-0.105694638041,0.0779947983407,0.0909039321932,0.0747568817497,0.115164059962,-0.0571886541383,-0.0607671341257,-0.0106658298046,-7.40458095253e-07,-0.0802060082155,0.0456852405793,-0.0753651594843,0.0298121269114,-0.0111428048976,0.021313804386,-0.0681676504157,-0.06462087588,0.0788420260007,0.0904430478865,-0.0771490565708,-0.0842263109177,0.0247094966355,0.0725325402191,0.00247494262932,-0.0506439594156,-0.0205023678154,-0.0570519309581,0.094534333289,0.0602489757563,-0.00652258165389,-0.0311671053344,0.00942635488823,-0.0368689298547,-0.046039407763,-0.0623603819266,0.0233890485787,-0.0216624334912,-0.0222625450478,-0.121715025732,-0.0273389641268,0.00342150158505,-0.061666529661,-0.0694039182358,-0.0755025654035,-0.00623755116229,-0.0235185945202,0.0151274747882,-0.0247401193289,0.0153313667227,0.0472616499127,0.0880669036923,-0.0920317062601,-0.117275304279,-0.111175902757,0.0293271230616,0.0372684313103,0.0177559447355,-0.067238101002,-0.00917903719442,-0.0520467196346,-0.102174353929,-0.0392711447482,-0.0506783531572,0.088017713347,0.0807083864062,0.00146027984029,-0.0600989522842,0.0161281105431,0.04983338392,0.0395128311001,0.0356333960863,0.0215010953675,-0.0386282352032,-0.0505300764648,0.00365479997921,-0.00360261403582,0.0522839662089,0.0438793153069,0.0116681656593,0.0842195366584,0.0560421790226,-0.0690436559563,0.0597746846861,-0.0693456279168,-0.0756415112031,-0.0593859411342,0.022954006987,0.0534207500818,0.0426392503087,0.0247840953509,0.0874870707458,0.0494450548466,-0.0246999783536,0.035986535639,0.103163895163,0.0621866406916,-0.0819136711875,-0.0993468450282,0.0643065688019,-0.0753490231937,0.0342194495724,0.0857727279073,0.0586404155234,-0.00630434097147,0.00512861836436,0.0479374189706,0.0104900221988,0.0427342197306,0.0364474012432,0.0229852800278,-0.0943719050055,0.0361271059989,0.0905625565959,-0.0461919823377,-0.0469350167994,0.0232851029526,-0.0870114977363,0.0178798424259,0.00932525035084,-0.0461674567726,-0.0217475838097,-0.0638384581909,0.0562604634602,0.0924412886433,-0.0352257542506,-0.0452303607207,0.0722320883442,-0.103176088235,0.0775871639839,0.0757467419285,-0.0300806703744,-0.00617381867946,-0.000218204897437,0.0977652169103,0.0596269687368,-0.0359595803328,0.059725819491,0.0133334584005,-0.0583177269146,-0.00488681568074,0.0325520048946,-0.0575848804218,-0.0476570521853,-0.00339848183367,0.062569977981,0.0359116421971,0.0767183192368,0.0140369518491,-0.0498414245545,0.0352057911621,0.0278580904916,-0.0304764073938,-0.00328420676625,-0.089607592753,0.0473689553835,-0.00727639372953,0.0698753208641,-0.0872935835887,-0.0926676807898,-0.0509207050543,-0.0863260785302,0.0757321780065,-0.0683350399354,0.0255511508647,-0.0564204748583,-0.062276767101,0.013105836354,0.0814330016654,0.00327660118229,0.0326923098317,-0.0870503553143,4.25071216528e-05,-0.0599411703288,0.00856184827847,-0.031549035376,0.0890379576661,-0.0479832889733,-0.0580538200892,-0.0183522695817,0.0123938498305,0.0140339959404,0.0433456484402,-0.0631624354611,0.0777569429087,-0.0523929912206,0.0379918809543,-0.0708010959315,0.0544506152058,0.0271549994055,0.0765129526523,-0.0537842243181,-0.0475339473384,-0.0468210004006,-0.0870441063063,-0.0161394936675,0.0645990564845,0.0105876869677,-0.0139664191767,-0.050686253831,0.0270310079627,-0.057205531852,-0.0900390506657,0.00169212187046,-0.0598093578548,-0.0252149576021,-0.0276870082356,-0.0876096998175,-0.0934074207054,-0.0716076282348,-0.0511584521635,-0.0784196185873,-0.0855101560677,-0.074388090125,0.0557042823433,0.043834547667,0.0871198503029,-0.00802533061426,-0.0201565576031,-0.0497788867276,0.0800607487127,-0.0224308029086,0.00707509715683,0.0683934835795,-0.0458607768642,0.0235030895603,-0.092923161928,0.0770863532554,-0.0822246572011,0.0927644229287,0.0941997408973,0.0640667084084,0.0154489420342,0.0394263911269,-0.00220799095757,0.0373471381431,-0.065328031878,0.0276355366719,0.0155481913641,-0.0852272305691,0.0847008915639,0.0768085566115,0.0837835161747,-0.00491151566891,0.0362924568607,-0.000892230027386,0.0476414555997,0.0165637782729,-0.0580564060696,-0.00177156186515,-0.034183403323,0.0841793901899,-0.0286290512981,-0.0144697545229,-0.0946048678564,-0.011703118529,0.0169001681413,0.0799346127486,-0.0832818551335,-0.0885846291569,0.0404121744612,-0.0332449117361,-0.0210476648436,-0.065025303764,0.0453539161637,-0.0403364162201,-0.0688902603712,0.0954026256198,0.0361595018816,0.0865781760768,0.0759869685786,-0.0646399001193,0.000914381704756,0.0548038543541,0.0158562491936,0.0893820472652,-0.0565631397884,-0.0809620380091,0.0138722406348,-0.0730335777981,-0.0732338437887,0.00517125635483,-0.100526655254,0.0624728441988,-0.010070896345,-0.0782278042914,-0.066440013436,0.0665112662799,-0.0979569561849,0.0765599573665,0.045424260116,-0.107178918413,-0.069447868051,-0.020989666837,0.120653992594,-0.0787848304274,-0.0694016959063,-0.0910468852008,-0.110719273887,-0.105897235443,-0.0410774644578,0.00113652751302,-0.0920822048573,-0.0528585966728,-0.0561388836698,0.0330841007339,-0.0159913145335,0.0297349582471,-0.00724650458566,-0.0236930357439,-0.0242157260871,-0.0788820495913,0.0771758352762,-0.0722959080382,0.0947920586616,0.0632209972479,0.0543509381849,0.0063342820862,0.0519811514377,0.00136371317004,-0.0152596438263,-0.060243949833,0.0869013397245,-0.0504043071341,0.0505650130837,-0.0135429900636,-0.0328103120123,-0.0521946829502,-0.0288567523003,0.057062534854,-0.0104103720373,0.0293959585702,0.0524612686864,-0.00748415073284,-0.0781259309982,0.0024331573384,-0.0555154001702,0.0208372806127,0.0450472836278,-0.0867085098537,0.0866594450515,-0.0201150806545,-0.0480057077387,-0.102654262258,-0.081336407847,-0.00753039346194,0.0827878378875,-0.0565083814631,0.0384950255275,-0.0568519268825,0.0642350517831,0.0471727259809,0.0101641013279,7.56566486208e-05,-0.0515263108088,0.0989274176289,0.00786949771803,0.00265386792852,0.0143697053502,0.0300534274517,0.0451386288597,-0.0744394763891,-0.0782838498599,-0.0589695888832,-0.0986578316046,0.0101232360204,-0.00640195014718,-0.0523100281357,0.0718632337209,0.109015351702,0.0710509211465,0.0538298970799,-0.020906782512,-0.0191334260138,0.0666288856164,-0.104605096788,0.0887255781187,0.00863455653347,-0.10664263481,-0.0869723425344,0.0456297064791,-0.0726301049256,0.0311112766955,0.0412599367806,0.0860445251294,-0.0378004088606,0.00617747637067,-0.0561252135322,0.0151081351858,-0.0408784673944,-0.010771786544,0.0417657561423,0.0745920643279,-0.0281782389264,-0.0302672946954,0.0405542024685,0.0422534050478,0.0514585058604,-0.0512866686445,0.0364304275679,-0.091873438135,0.094486861199,0.0718037635206,0.00227678418336,0.0328580291508,-0.0588095959581,0.0529427960712,0.000861241468291,0.0551521433182,-0.054889193138,0.0221962670022,0.00595598199164,-0.0451883075662,-0.0504826515988,-0.0204701111704,0.0684695647882,0.0736027492174,0.0520627573674,-0.0829849605256,-0.0363002730272,0.0905860332739,0.00146270351934,-0.0514350580373,0.0878327483043,-0.0592126038723,-0.114055745581,-0.0807419931081,0.0337445711522,-0.0692147703784,-0.0481097870475,-0.0245721138059,-0.0103415766826,-0.0454310544499,0.00151130901865,0.102229147736,-0.0519162120942,0.0904956058486,-0.0622101254871,0.0959007890971,-0.0536972180028,-0.000653165675329,0.0937539913356,0.0301136977456,-0.0557186035972,-0.0289906949214,-0.0284350634131,-0.075814785822,-0.050113498534,-0.0825759043701,0.0300273544743,-0.0921941296934,0.0869604553601,-0.011787115448,0.0891274095054,0.0788891926905,-0.0946148805809,0.0163847040788,0.0562776664927,-0.0792545978725,0.0243174430347,0.0601135481609,-0.00617720375573,0.054182746189,-0.0572146874981,0.0606460868083,0.0235332663425,0.0283216885043,-0.0286767416772,-0.0669324787973,-0.0916689697734,-0.00543940205847,0.0943847867893,0.00418228009082,-0.0569426902362,-0.000562080317311,0.0896355214366,-0.0940447602928,0.00462145704917,0.091250486306,0.0614365896229,-0.110480609014,0.0651003226829,-0.0484578190614,0.0771458905304,0.0586458909312,0.0255666019265,-0.00615884801831,0.0305839004251,-0.0849269560868,0.0937384498646,0.0604604046217,-0.0655189382542,-0.0522297328911,-0.0417051255778,0.0893586420686,0.0156291039292,0.0122228079737,0.0244591093186,-0.0853834296709,-0.0533345075381,-0.070618271078,-0.022191448864,0.00630094114121,-0.0673174157798,0.0328116377192,-0.068351216157,-0.0373506821498,-0.0977661621255,-0.0941019878393,0.0144291889227,-0.0819702865021,-0.0129810555598,0.0148413178509,0.00895832802431,-0.0521161766322,0.0501697830403,-0.054022872624,-0.0404278844371,-0.0917314449122,0.0569476776517,0.0668916116572,-0.0140187254365,-0.0428020701393,0.0780552931192,0.0515166588629,0.0685784705809,0.0364359689224,0.0791895492995,0.047420595859,0.0956344910806,-0.033799128172,0.0402653678051,0.0445585146868,0.0880053895077,-0.0106586809919,-0.0377262010539,0.0725205845004,-0.0487131788044,0.00883195463597,0.0631001038684,0.0618897262189,-0.00486863333047,0.100142004056,0.0991293878276,-0.00175109318137,-0.0744081310036,0.0935311908416,0.0656856903432,-0.0826910111415,0.0528729877846,-0.0658741445413,0.00588473279653,0.094261270653,0.0955514976019,-0.0794115869654,0.0300122792893,0.0164524981472,-0.0442718301275,0.0897544045745,0.0902410786696,-0.0254430027956,-0.0987248098597,0.0382899700518,-0.0523478494574,0.0564512802766,-0.0811507665528,-0.0487553552694,-0.0177389176424,-0.104158519912,-0.0119706646059,0.0572826929161,0.0806259383204,-0.0576412460853,0.086448383125,-0.0800196610035,-0.0718207865188,0.00633951074627,0.0937759762824,0.0358050683975,0.0134608868958,-0.075543447145,0.0172560591979,0.00315217848134,0.0557240525458,-0.0611639397698,-0.0901729166467,-0.042453099915,0.0837640920879,-0.0830893763927,-0.09563911027,-0.0919857418374,-0.0440882037911,0.0944879874886,0.024728245032,-0.0763512601382,-0.00105361351789,-0.0782688506746,0.0779399833074,0.0340200762521,0.0737434673936,0.0816734051657,0.0805238193535,-0.0454142587121,0.0507882167185,0.00702987912725,-0.0397252597255,-0.0973964538796,0.0150562888111,0.00802950199038,-0.0575874530393,-0.0620586273728,0.0238663588745,0.0842589728851,-0.107505996941,-0.0912968437879,0.0965352807599,0.0148948818041,-0.0225938085003,0.0980249953277,0.0584606263295,-0.117305561875,0.0447295712911,0.0816762823616,0.0143692230962,-0.0390143612065,0.0658993078702,0.039634412,-0.0829897210025,0.0861549105348,0.064210435524,-0.0239556188031,-0.0396665468601,-0.00142962215758,-0.0147620960371,-0.0532870442959,0.0242328197194,0.0482583118105,0.0359351200602,0.0636198940898,0.00507099853502,0.0949269369794,-0.0133422734347,-0.0963328258349,0.0156035875894,0.061768186046,-0.0480436550228,0.0559084617702,-0.0923869007624,0.0594673312582,0.0277198177398,-0.0277979482499,-0.0301065776868,-0.0591698333283,-0.0729911439765,-0.0563954510415,0.0685982568815,0.0628830634388,0.0489701683799,0.0818250037703,0.0211121450531,-0.000209065285617,0.0575898704687,-0.0290960570808,-0.0227485012202,-0.0429856893408,-0.048909233791,-4.40791587617e-05,-0.0750166014032,-0.00355239936615,0.0716312731538,-0.0259767000482,-0.0263868910241,0.0368217193502,-0.0283904148968,0.0668915841669,0.0508039829841,-0.0346662252401,-0.00186116764614,-0.0398279277775,-0.0599558534536,-0.0228630739839,0.0266282392121,-0.0196045263371,0.0971000965105,0.00415469367263,-0.0112772566068,0.0975534316807,0.0828898707168,0.0306233676009,0.0773685203975,-0.0200820320988,0.0203367150342,-0.100321443479,0.0379805703406,0.0266588175931,-0.104607840661,-0.0388333889917,-0.0901037406572,0.0179513744488,-0.0426103680875,0.0532958842995,-0.0727284265931,0.0452804354488,-0.0181827054472,0.0237073128098,-0.0413907386062,0.0576139220152,0.0262645947479,-0.0999183344188,-0.0926974248922,0.0372580301719,0.0490358277861,-0.017203761011,-0.0429792471774,-0.0574397980377,-0.073781099258,0.0829867444154,-0.0363949851541,0.090500003528,0.0746802238112,-0.00186584184201,-0.00957801070091,-0.0563878798906,0.0819408800393,-0.0693209598098,-0.0331740636581,0.0562986031385,-0.01933263262,0.0907887946161,0.0174021201566,0.0636187638955,-0.0479455801933,-0.0875984992047,-0.0487004510547,-0.0641964047279,0.0646226334937,0.0836907787854,0.0949771598626,0.09418898046,-0.0193154535453,-0.0916885561236,0.0224167908112,0.0167993549224,-0.00480623880301,0.0907320882302,0.0254527043988,0.0227254167847,0.00724845636228,0.00898919560117,-0.0858277513595,0.0305555914437,0.0142375269227,0.100392212609,-0.0638304156806,0.0544465919331,0.0346550224359,-0.0837848498025,0.0308638053603,-0.00124924802976,-0.0423325995728,-0.0177297788072,-0.015949580868,0.00352809478321,0.069882508363,0.0377344200665,-0.0411828864421,0.0818757712153,0.0537360877201,-0.0287152149083,-0.0262700613007,0.0138739526178,0.0697724347472,0.0468108400329,-0.0476283773741,0.00880238602758,-0.0798761654792,0.0575668119012,0.0877006160941,0.0646720976771,-0.0874582507877,-0.0708314780504,0.00698813321585,-0.0141749475564,0.042376990457,-0.0159992716148,-0.010537235499,-0.0269177530705,-0.0373000667046,-0.0208628361834,-0.0354975140615,0.074828864831,0.0272091393738,-0.076722033334,-0.0390974195456,-0.0737439995558,-0.075926863101,-0.0877637659716,-0.0753207329236,0.0902184567402,-0.0471118404908,0.0417132593458,-0.0617700647469,0.0459690267902,0.0703427317918,0.087741339894,-0.0351017334487,0.00354219624551,-0.0205970878843,0.0832305418285,-0.0350150163812,-0.0798485250101,0.0346882905952,0.000539551963578,-0.0154027859602,-0.0159437797166,-0.0653817180408,0.0990238944611,0.0325009199364,0.0949911681877,0.0365005447528,-0.116724102435,0.0897295860252,-0.100582367848,0.0189009498838,-0.0107659193347,0.024923259996,0.0573696686946,-0.0874562554303,-0.0833608591525,-0.0964912188686,0.0751375993523,0.0288102260513,-0.0746607440038,-0.00516284937587,0.0957048013451,-0.0697726919857,-0.0413878339337,-0.00873310320761,0.00763217382519,0.0884863977118,0.0837843682107,-0.0909487220425,0.0383951727425,-0.0286364565318,-0.0943082888046,0.0848089367969,-0.000626671951061,0.00727039038352,-0.0815642987073,0.0922823246403,0.0598950812653,0.0882318731475,-0.090479582551,0.0793283455873,0.00886075591031,-0.0125781537054,-0.0836542983512,0.0132416270752,-0.109794242718,0.0544879540255,-0.0866649200114,-0.0362618256815,0.0677148517088,0.0316698409301,0.0106382459413,0.0271450783095,0.0703222103018,-0.0513028123025,-0.0870420682811,-0.0846053038214,-0.0363920992325,-0.0834948666163,-0.0331513037367,0.0706874125555,0.00876734239328,0.0607597257444,0.0438593877327,-0.0140351297484,0.0677085047216,0.0851803649339,-0.116309452793,-0.0241700751266,-0.0189602423012,0.105938468762,-0.0256573297709,0.0366189543106,-0.0118868838241,-0.0645423824398,-0.0498692753993,0.0427089232935,0.0398505334106,0.0492761495321,-0.00913550256118,-0.0385114626597,-0.0742150799923,-0.0453489918437,-0.0624147380624,0.0138666905489,0.044490799124,-0.0838128285687,0.0165208900731,-0.0439047266745,0.0156826400261,-0.0613598503309,-0.00656721077467,-0.0817931875281,-0.0407183630239,-0.0322052811119,-0.0575103888454,-0.0131401890058,0.024107652053,0.0732122978524,-0.0120053986296,0.00434056281278,-0.055538725269,0.0335832135548,0.0232277789326,-0.00728892142645,-0.0364620342623,0.0546268554733,0.0885228411745,0.0254358025099,-0.0128781241308,0.0345016207977,-0.0843593463724,-0.0995186724837,-0.0759174542537,0.0504634604885,0.0482184351103,0.111565343263,-0.0208850820284,0.0460040090608,0.0445972730399,0.0691936871612,0.00587979181029,-0.0183573174992,-0.0568043136635,-0.0368035510364,0.0629341600913,-0.104751186623,-0.043945899844,-0.0358782854983,0.0839953032656,0.00252805997552,-0.0977771033732,-0.0434978848524,-0.0286750028565,-0.0087385462796,0.0247207170999,-0.0544351505829,0.0895285842051,0.0316117692555,-0.0031824167285,-0.0213694853347,-0.050110271164,-0.03176987002,0.0527871472326,0.0781466948363,-0.0576652873336,-0.011180610015,0.0567961640245,0.00862924232707,0.0930485624006,0.0418426232675,0.067372651961,0.0712600011933,-0.0177307880116,-0.0857417751109,-0.00653647895239,-0.0246930021847,0.0268223284705,-0.0324393757877,0.0623240001688,-0.0462294285452,0.0759090034857,-0.0851327099545,0.0302527725751,-0.0711898357325,-0.0827734959034,0.0206692837011,-0.0533022503794,0.0610629553349,0.0529552740254,-0.00207747893639,0.0252555266748,-0.0833881912266,-0.0438356420734,-0.0646091689906,0.0208390718427,0.000952308541506,-0.0526559523608,0.0563647273285,0.0682297875287,0.0860652748496,-0.0719877225959,0.0819364456809,-0.00700105409877,-0.08732506365,0.0098890503985,-0.0434895583964,-0.0413519406531,0.01838523226,-0.0669207049216,-0.0744120127135,0.0223241516537,0.0162140288258,0.0519322101247,-0.0732776266348,-0.0359605212083,-0.0566248553359,-0.0678594005646,0.00335216658275,-0.0879817856863,0.0811085010919,-0.0864408744894,0.0103870701812,-0.0205379225029,0.0325231848908,-0.0530396652165,-0.0346530639684,0.0831451391916,-0.0522010768983,0.0831449231901,0.0420631384541,0.0447921617151,-0.0246001594544,-0.0408844008027,0.0691068624945,-0.0368260969627,-0.09374699289,-0.0306979967728,0.0208560207928,0.0159551617305,0.00732618758549,0.0438270113291,0.0684269284321,0.0602746811032,0.07029201521,-0.0204771939131,-0.0467283572653,-0.0440026298445,-0.0326998864446,-0.0619233730386,0.0827361101366,-0.0152694385667,0.000776076500125,-0.0492152074153,0.00103442218521,-0.00809577790524,0.0132925100883,-0.0909616349078,0.049208169649,0.0671831223654,-0.0757878252333,-0.0241471755666,-0.0288689980182,-0.0270200843324,0.0249486194139,0.092548409941,0.018619567825,0.0157517646257,-0.0225158521229,-0.0803018049086,0.0774619709515,-0.104180302005,0.0636644771401,0.0276249305799,-0.0380300044595,-0.0367767279803,-0.0305131732562,-0.0773960295912,0.0511896760406,0.108469976407,-0.0418964523552,0.0308455779497,0.0806399627962,0.0451784960713,0.0941501259609,-0.0337777371417,0.010717779125,0.0501005239138,0.0755564912724,-0.0145840112331,0.00282181215607,-0.0200295524559,0.0631658011697,-0.063168262615,-0.0817615214461,0.00168775121516,0.0324570264727,0.0720641903597,-0.030026272128,0.0173006942268,-0.0202212068566,-0.0762045314183,0.0444501996777,-0.0822392999621,0.0532514374002,0.0589713727363,0.0093728690407,0.0853468793213,-0.0368782155647,0.0652529392567,0.0294117432598,-0.00866049283598,0.0695088727573,0.0558701902562,-0.0970675851878,0.0535257369297,-0.0557559757085,0.0282687013028,0.108072900084,0.0323996771992,0.0583081712695,0.0600936420167,0.0541499820333,-0.0660042470001,0.0775964629721,-0.0233683677672,0.0454876645853,-0.0895820776391,0.0216604875185,0.0718877452716,0.0348081328783,-0.047088494723,-0.0803100289675,-0.00681103307417,0.0896195395925,-0.00964981809066,0.0163791342018,-0.0979807178934,-0.0846905695734,0.0956725262815,-0.0662115181178,-0.0506125743346,-0.0543200471896,-0.0833648726792,-0.0109930177004,0.0981088727386,0.000339179314192,0.00618355195676,-0.0319449645367,-0.00504200801854,0.0791471336079,0.00706696198,-0.0359369515612,0.0101805628578,0.0173930849763,-0.0648827422955,-0.0337322962635,0.0804408442659,0.0204599220288,0.015442382101,-0.0666122953678,0.0845369925595,0.0194767051676,0.0885268059322,0.00294175539537,-0.0915650624108,-0.0452587788281,0.0798848234002,0.0551366516746,-0.0949564354497,0.0768394992419,-0.0772026618402,-0.0301651669218,0.0288702224448,-0.0155925950805,0.0878988736886,-0.0980382505635,-0.10562749313,-0.0208202337136,-0.0344078294351,-0.0487587748272,-0.0589546979201,0.049225380586,0.0734349359495,0.00598435563644,-0.0803856379873,0.0901567688247,-0.0360753082923,-0.118527152976,0.0151311045344,-0.00297451120504,-0.076554389845,-0.0503323193996,0.085333204903,0.0880804623106,-0.0980316334698,0.028069164442,-0.071449804829,0.00777966337308,-0.060532346143,0.00395063240906,0.0644019524655,-0.027518784508,0.0120993333012,-0.00265030977899,-0.0946056796784,-0.0960310013237,0.0705425293272,-0.0460737818786,0.0736025581907,-0.0324615881232,0.0718401939519,-0.0166730392813,-0.0397200418285,0.0143739225893,0.0609024262408,0.0819976561878,-0.0524039984241,0.0908175130986,0.0483311700107,0.07551344033,0.0704300880724,0.0217686472236,-0.00062526021974,-0.00602821286008,-0.0376048318506,-0.062292688286,0.0373937494817,-0.0716526724212,0.0683940854765,0.0834593193294,-0.0396875816559,-0.0737990670879,-0.031051068566,0.0845116721785,-0.0468004400497,-0.0544563875716,0.0141951169169,0.0344918642788,-0.044436052344,0.08612662591,0.0704354917109,-0.00160768686358,0.0393683439104,0.0191672795405,-0.0950045449254,0.0704849938345,0.0988480596412,-0.0987490591153,0.00367337359006,-0.0518129534765,-0.0631225790316,0.0393775472167,0.00531390688717,-0.0530799514955,-0.0705171491796,0.0176963795991,0.0223106260354,-0.0839874958828,0.0123606171494,-0.0722918119258,-0.0358212485863,0.10780098413,-0.0824318563652,-0.00784861943635,0.0136530954312,0.0431261665524,-0.0448952460776,-0.0905664213262,0.000143977510999,-0.0889123792065,0.0787971253516,0.0410177048735,-0.04143998857,0.0522745418535,-0.0061566486949,0.0525231179564,-0.0870809704815,-0.0238474066052,-0.045754732224,0.0349370742742,-0.0374843241897,0.085611488986,0.0463929169583,0.00360044548561,0.0868237402073,0.079843236872,-0.023967790945,0.0563374213125,0.0520041087536,-0.0546476958262,0.036937310885,-0.102915843256,-0.0733900663292,0.0943290636691,0.073961757065,0.0966217682896,0.057313284277,0.075524596966,-7.72150541807e-05,-0.0340692664423,0.0290875258995,-0.00184589724972,0.0583452740581,-0.084661865899,0.0931089307068,0.0209530370062,-0.0170563126706,-0.0634852304354,0.0189606244574,0.104266777718,0.0432044936642,0.00507906645652,0.0425735868141,0.0724275480366,-0.019615082443,-0.104416820734,-0.0187615888647,-0.00139430030697,0.102419218317,-0.0788971349972,-0.0663270001766,0.0638358410106,-0.101430405216,-0.0214986183169,-0.0673795137158,-0.0102643507898,0.0773423357985,0.109104121458,0.054111034317,0.0370934615698,0.101746611796,0.0142054740726,0.0037122055585,0.0917413282285,0.060001458742,0.00896513750403,0.0864418443577,0.011045090501,0.0207228760845,0.0856390469744,-0.00187642050682,0.0330994378961,0.0653976803877,-0.0335889957121,0.0578159359096,0.0291582380675,0.0696505831036,-0.0120778337205,-0.0815745557195,0.0323483350148,-0.0113898058222,0.0354390238007,-0.0985247398535,0.0442215270855,0.0764855239838,0.00557587080809,0.00530063643384,-0.0491702538633,-0.0139047767821,-0.0365280099085,0.068414611468,0.0438376496587,-0.0145542244406,0.0287016471145,-0.0130156967148,-0.0494340747029,-0.0114658615265,-0.0824563760868,-0.0894577003527,-0.0303304532368,-0.0452453654101,-0.0782482917013,0.0604961057149,0.021960825676,-0.080215480681,-0.078314044774,-0.0316224225428,0.0215952490249,-0.0460945805072,0.0101943513214,-0.0387924849805,-0.0998805171982,-0.00266327818489,-0.0742281982013,0.0636956276693,-0.0602274428853,-0.0622581669778,0.0728941823531,0.0687854507121,0.0796913819626,0.0470746130265,-0.0248468055771,-0.0472222260569,-0.00978824049439,0.0443126898595,-0.0747481627978,-0.0726391386487,0.0177285507625,0.0920400057969,-0.0157151294205,0.0176403139458,0.0690916346083,0.0863098363107,0.0059178128887,-0.00704804722541,-0.00952430221084,-0.0901530934037,0.0814443592017,-0.0755638961834,0.094046367965,-0.0888147031633,0.0844205277984,-0.0326132789962,-0.0601704846145,0.0205178429126,0.0817076981638,-0.0470850844513,-0.0322824759993,-0.00478975267521,-0.0591760215014,-0.0607238701653,0.0566102211989,-0.023069189784,0.0893934366923,-0.0378541783564,0.0252003013813,-0.0454024173834,0.0599991048915,0.0670682923569,0.0614575944639,-0.0159146476102,0.00540940307386,-0.0138382733564,-0.0105644100555,-0.0717646711962,-0.088060950394,0.0096190314981,-0.0334631814381,0.00679186694959,0.0802592256986,0.0734468222134,-0.0279936668519,-0.0953671585869,-0.0781279434389,0.0294215968111,-0.0136653746303,-0.0426809338211,-0.0514161547523,-0.0462926066716,0.0501109065532,-0.0470783162625,0.0948567530244,-0.00647624786482,0.0789356694786,-0.0523853877704,0.0339980036816,-0.0687319950771,0.088386823979,0.057136951098,0.0294106065532,0.046823989703,-0.0787958675658,-0.0904795383735,0.0632210460772,-0.00441027602947,0.0907275246096,-0.0612164054697,-0.00615342040721,-0.0550817465073,0.0117510855529,0.037903660577,0.069984943679,-0.0950171103099,0.0865928655447,0.0119232334938,-0.0189242274454,0.042519251456,-0.000194298805514,-0.0938161571165,-0.0257562399513,0.0551043177682,0.0655941724612,0.0338701344703,0.100455153311,0.0365034541687,-0.0170526099517,0.0282527716112,0.0711110671066,0.0286427308493,-0.071481425895,0.062944799431,0.0106490205691,-0.0926494462765,-0.0187064061555,-0.0601753597951,-0.0384061447331,-0.0893989985325,0.00322297990045,0.0346146531495,0.0734873154305,0.0286705890811,-0.0740237623615,0.0663020256814,0.0825248251515,0.0680589569249,0.037049827632,0.0723475233413,-0.0686183799406,-0.0276377227187,-0.0580342049629,0.0564718092267,0.00131903530411,0.0692818037361,-0.0421131717687,0.0409746053064,0.0213029819495,-0.0534125292246,-0.0545228281356,-0.0038863646084,-0.105188633181,-0.0981181425257,0.0140472570136,0.0670337905048,0.00438052850612,-0.080526511461,-0.0448871537819,-0.0116809293909,-0.102929162087,-0.095330770269,0.117831935398,-0.0137278074376,-0.0929655408995,-0.0813762192518,-0.0879884964176,-0.0142830978254,0.0461246935074,0.00581637840722,-0.0882235021027,0.0238381038199,-0.098889387853,-0.0336310233063,-0.0986916241284,0.058126530079,-0.0846515523407,0.0839033210282,-0.0410262009575,0.00772641044937,0.0903227746176,0.0786016287715,0.0257659933001,0.00275072935413,0.00644903837929,0.0363823142023,0.015630169141,0.0835246264628,0.0171295230623,0.0431094879519,-0.100725890966,-0.0358454642159,-0.0290439756101,-0.0720681039294,-0.0848075980445,-0.0674612744768,-0.0129524813616,-0.0100265487966,0.0438391002996,-0.0388308289707,0.0873363497395,0.0537716476617,0.0888750047186,0.0670977276656,0.0436324371324,-0.0133537941369,0.0402657598189,0.0549874759493,0.00280905964667,-0.029915475989,-0.0648922107026,-0.0731056221362,0.0631967582576,0.100486923603,-0.0489668888236,0.104376920334,0.0489379932013,0.0212679838165,-0.092344761157,0.0840611587608,0.0365626135468,-0.0468617606939,0.0849566588937,0.00720068055085,0.0237324791361,0.0124396366543,0.071881972892,0.030764422347,0.0541013197678,-0.0232051139843,0.0135648726933,0.0808164503079,-0.0329581199668,-0.0150546379189,0.0747164110756,0.0546484985455,0.0309221721442,-0.0223539138574,-0.00587760208004,-0.0554135231075,-0.0890558665598,-0.0263029399784,0.0910132402472,-0.0745774208047,0.0261899862176,-0.07253427333,-0.0038033682483,0.00297556595001,-0.0789857813434,0.0358619591778,0.0268633826196,-0.0641620303595,0.0841988190697,0.0824720512495,0.0756201419801,-0.0786754842548,0.0244183332788,0.0652043494462,-0.0481171623357,-0.0405947319913,0.0434601902276,0.0233216846679,-0.0150290111284,-0.00761574576233,-0.090150758852,0.0736925210692,-0.010560815171,-0.0634565890091,0.0270008064018,-0.0731919891052,0.0621466514349,0.0318700236823,0.0327261768933,-0.0532699120616,0.0402560636022,0.034022371916,-0.111530109964,-0.0539574031772,0.101417756642,-0.0527235602496,-0.0279342444168,-0.000865647955894,-0.0575824519047,0.0333355233757,0.0540165405425,-0.00519721961434,-0.012596309093,0.0671453316988,-0.0619015313427,-0.0789964698068,0.0555151125248,-0.0624942884218,0.0238130720335,-0.0533545399979,0.0467306004211,0.0678541131343,-0.0458570907832,-0.0753119693092,0.0225537090175,0.0488699754747,0.0949585674708,0.0112961580357,-0.0369057356302,-0.0658364541744,-0.0411022666053,0.0660746195476,-0.0240849039108,0.0349720526263,0.0461452903445,0.0321635162592,-0.07815230911,0.0782811104035,-0.0920178525609,-0.0207114149475,0.0838931073461,0.0854555991014,0.0386602536267,0.0626786073055,0.0757817502272,-0.00760138904747,0.0248864104984,-0.00462640804777,-0.00242645236368,0.0303348317792,0.0327245467691,-0.0578901506766,-0.0700403717722,0.00799243244904,-0.0525687196945,-0.00448628075527,-0.041249448315,-0.0261741104069,-0.0359217291814,0.0725566708593,-0.0153889786671,0.032953079863,0.0849864750296,-0.0859820025041,-0.0850125895722,-0.021319225297,0.0347270604157,0.0620424982915,0.00119485204958,-0.0757083739128,-0.0555502658604,-0.0958553413932,0.027318749511,0.048095450853,0.00608827016645,0.0935701983751,-0.0843769690214,0.0336971154806,0.0950299650214,-0.0555526735401,0.0777571744987,0.0125695767624,0.0492537996407,-0.0417050031962,-0.02330419021,-0.0205682701083,0.0823012718606,-0.0350750532209,0.0797565124794,-0.055699908604,-0.0341140737873,0.0261293578791,-0.0926933578668,-0.0458841494265,0.0713945649131,0.0875380213727,-0.0752399259806,0.0693282474639,-0.0877696918016,-0.0464593372105,0.0814672331012,0.0451722328752,-0.0607781232631,-0.0732621831679,0.0843642748495,0.0187753701694,0.0624567079102,-0.00957678844754,0.059880701691,-0.0551488684848,0.0507734147713,0.0522202383063,0.0830868914976,0.0939144616873,0.0418768724285,-0.0809742223416,0.0168515084875,0.0306282512618,0.0653902677815,0.0212808236165,-0.0602382876096,0.0980576681341,-0.031778696804,0.0055220001485,0.0230780239702,-0.0721648015405,0.094709031256,0.10417580905,0.0871037864526,0.0187613560304,-0.0615355826281,-0.104899945146,0.0110205071454,0.027033373526,-0.0493204535702,-0.011961889225,0.00202809776883,-0.00406682191685,0.0106924534333,-0.0408245628079,0.0313650416983,-0.0722945292248,0.0313176005934,0.0642984827486,-0.104401874211,-0.0864801706693,-0.00753439943416,0.0129160126378,-0.041501036172,0.0235505830243,-0.0729652442835,0.0505208720414,-0.00896870464311,-0.069806495626,-0.0171281162082,-0.0297403487199,0.070528995183,-0.0205200462915,0.0904926453933,-0.0805229793706,-0.0884460201179,-0.0774868770578,-0.111619762839,-0.0591373137063,-0.0621121678547,0.0471985170809,-0.0584972230612,-0.0699732749428,-0.0843713817968,0.00452569763475,0.0250334540536,-0.09495562652,-0.0404982787389,0.013895880852,0.0046716686672,0.0161312102996,-0.063667899431,-0.0260507435495,-0.0631030860948,0.08901662751,-0.0533364183693,0.0519676056253,0.0556969220717,-0.07611533484,0.0765767991808,0.0236182542098,0.0132779542806,-0.0902380718491,-0.0449479879532,-0.0211884781025,-0.114616183432,-0.0979280066381,-0.0506208314458,0.0175126653661,-0.00143224044992,0.0110286810422,0.0595952755823,-0.0150915537337,-0.012555433544,0.0532783724513,0.0779083880811,0.0533645766189,-0.0514810955646,0.0639041792064,-0.0668972406475,0.033614242106,-0.0356198160392,-0.0402541027755,-0.0470934911511,0.0852812926192,-0.0506387970535,-0.0541189413587,0.0106289854483,0.0478507314101,0.0527247220718,0.0118341894962,0.0500322410142,-0.00339510979743,-0.0758701089441,-0.067229461324,-0.0415204497998,-0.0865243865632,-0.0154674946684,0.0821756750331,-0.093351644761,0.0813171981624,-0.00769649068193,0.0389710692766,-0.0308640887089,-0.102786828958,0.00479865707614,0.00311000228726,0.0953933456126,-0.0402288138806,-0.0729964506072,0.0753449292629,-0.104339277372,0.0333134635596,0.0494777732524,0.0095173613108,0.0750493577465,0.0615545025883,-0.102143686528,0.024998661796,-0.0177564827645,-0.0664645475576,0.0941128648336,0.0725763237799,-0.0389826554646,-0.0607158294985,-0.0535420408883,0.0709999385694,0.078893020785,-0.035435872484,0.0294833326935,-0.0326845112649,-0.0538084434443,-0.000262811608695,-0.00249936407592,-0.0205745157701,0.0273029730916,0.0797381336027,0.0134297259626,-0.0593480154425,0.00831789675593,0.0643518575993,-0.105398460051,0.00105163688687,-0.00338042742013,0.0261034670168,-0.018338073591,-0.0590504707142,0.115553171919,-0.0856052507561,0.0212457580129,0.0546439892401,-0.0312974705082,-0.0317555913294,-0.0925110079837,0.0908418047993,0.0556507352534,0.0524811975452,0.0116883268758,-0.0202979955177,-0.0708104486233,-0.0723650504751,-0.0651287854948,-0.0323112796047,-0.0619753465426,0.0744574206144,0.000424800084929,-0.0304417420754,0.0788795109649,-0.0991659597578,-0.0184337029704,0.0538778388748,-0.00445474939947,-0.0216337214523,0.0401081212814,0.0417427747292,-0.0630949550352,0.0824936836718,0.00334249351577,0.0829216077744,0.0454719693823,-0.0761971524381,-0.0621077042138,-0.00858034033974,0.0842764883107,-0.0816361323102,-0.02563387177,-0.0216675057672,0.1019090142,-0.0223773072236,0.0605859048971,0.0307556999069,-0.0710275478823,0.0280253428379,-0.0404962750082,-0.0263727460506,-0.0661191720186,0.0397888621877,-0.0206035157935,-0.0568005226592,0.0469451157199,0.0677245828423,-0.00360802626063,-0.0315363978337,0.0476663039026,0.0351916859299,-0.0638048669067,0.087450454802,-0.0494055747588,-0.0202784267944,0.0412086394674,-0.0808413759946,-0.0142689803435,-0.034741357937,-0.0294781315513,-0.0207605701958,0.0798759729592,-0.0348303539173,0.00521079679313,0.0741144242559,0.0506148559181,-0.0780307238497,0.0877583725981,0.00595142586286,-0.00453028208076,-0.0296235776853,-0.0699368901371,-0.0932175146752,0.0972634677608,-0.00771042936537,0.0581890734656,-0.024870154803,-0.0590942443572,-0.0659649503997,0.094352066188,0.0891440614995,0.0424486475189,-0.0773115398578,-0.0829543799196,0.0949305595845,0.00151348944003,0.000797030567049,-0.0352917728819,-0.0870308779163,0.0583494249424,0.0544257662875,0.0950940828693,0.0689425101222,0.0759243837145,-0.0078723375529,0.094024516487,-0.0967238021136,0.0277756935884,0.0880823602258,0.0613685625591,-0.0815793581189,0.0597841442838,0.0727388236152,-0.0858020052265,0.0780944638139,0.0659634746904,-0.0419519715593,0.0503584170013,0.031993232715,-0.0753422046284,-0.0274961178362,0.0111475691952,-0.0438111842746,-0.0152091358434,-0.00129435361941,-0.0190991758492,0.0986325599798,-0.0119613145396,0.0418232138196,0.0774715587457,-0.029334821694,0.033253936357,-0.0594209302042,0.0778993634504,0.0241430895828,-0.0436687594592,0.0779537316055,0.087887029499,0.0748936077832,0.0895192945876,0.0384243926831,-0.0322990774377,-0.00104289087718,0.00262551226404,-0.0934449284111,0.054035614591,-0.000193110177283,-0.08736797366,0.0711302150704,0.0275906979431,-0.0175486077077,0.0133937092973,0.0599682516593,-0.00529757058496,-0.0371802334051,-0.068261689401,-0.106157694104,0.00892590053197,0.00191555121306,-0.0689085107882,0.100920148854,0.0696233475591,-0.0103966951437,0.0278449969005,0.00523972024716,-0.00163038027172,-0.0677790440073,0.064685532545,-0.0411743660986,0.0432039240976,-0.111870360173,-0.0751631414358,0.00536630660171,0.0824591355324,0.0902482468795,-0.034386899417,0.0653107867692,-0.0927348112184,-0.0088410403656,-0.084138470488,-0.0361643399113,0.0207960870591,-0.05988349198,-0.0251712661586,0.0719302497723,0.0401159816132,-0.0956450988209,-0.0604787645743,-0.0605975521734,-0.0709819292946,0.0925065153278,0.04693383801,-0.0815392954901,0.0356292846715,0.0238308557301,-0.0928369026417,-0.0733127134742,-0.0767106600153,-0.0401781808148,0.0211101737427,0.0563328780566,0.0293519637477,-0.0591942626335,0.0475441222996,0.0313634019258,-0.0413835257302,-0.0907325358562,0.0676181542833,-0.0759087170553,-0.0969866612252,-0.0765046152794,0.0590081556875,0.0681479373744,0.0291645216626,0.0624845999612,-0.00757098430734,0.0152878284209,-0.0711597140063,0.0586716965262,-0.0184067437377,0.00450307074055,-0.0346612319098,-0.0363219083216,-0.0502874508293,-0.0434798765466,-0.0410841660072,0.0929461311769,-0.0279632252888,-0.0370695475506,-0.0913243692202,-0.0536991985392,0.0641254846199,0.0413807678675,-0.0575214827566,0.0437003977958,-0.0811153927487,-0.0112947351268,0.0328613595501,-0.0125654498082,-0.0654158858184,0.0233404408514,-0.0534052870202,0.0334200448914,-0.00214188376235,-0.0194808411651,0.0203760132247,0.00471183782223,0.001009262282,-0.0136991117688,-0.0189681263153,-0.0733811297987,-0.0155679561903,-0.0727649787923,-0.0855396891206,-0.00659464177234,-0.0609181899991,-0.0186792812241,0.0468377605046,-0.0845991055041,-0.0607011361657,-0.0135790871359,-0.0463329584855,-0.084318442107,-0.04933473056,-0.0223378018357,-0.0521992899852,-0.0479388482112,0.0630013982554,0.0617199684569,-0.0838099361102,-0.0846889478965,0.0158858811459,0.0124921337928,-0.0120743818072,0.0113304833475,0.0626123360807,-0.0506526682731,0.0138000770794,0.0430912738271,-0.0525476320343,-0.0179731824551,0.0369566401049,-0.0737720292999,0.0543452339473,0.0101592771792,-0.0439974601558,0.0723065484555,-0.054303577095,0.103188098144,-0.0527678051847,-0.0512440983823,-0.0667181343258,0.0400500554682,0.0583407987983,-0.0759489893717,0.0410411340146,-0.0290608411878,-0.0914753597098,0.00673798187997,0.00042588943204,-0.0383526493269,-0.0460004116822,0.02712407849,-0.0414454852145,-0.0494993032372,-0.0865282717389,-0.00263687493808,0.0451850099299,0.041754705532,0.072750425351,0.0409141680612,0.0388074938121,0.0738041849333,-0.00343613858706,0.0642362197184,-0.0825241215284,-0.0548611554529,0.0691548875749,-0.0833117251482,0.0292787582719,-0.00472214824813,0.0558877589199,-0.0537245333996,0.0495891400665,0.0796340769843,-0.0261341597511,0.0627837561453,0.0672711417958,-0.0877060543839,-0.00630919035231,0.0665122919278,-0.0104691232802,0.0672804843257,0.0289143890655,0.0794311942099,0.0447424812127,0.00449109941663,-0.0865272752648,0.0733965910246,0.0709496673638,-0.0671970682235,0.0104614665361,-0.0887889604685,-0.0610200391316,-0.00920777566153,-0.0602127983864,0.0736190754164,-0.0134837833828,0.0886145863104,0.0545004988917,0.0171898848051,-0.0385460858452,-0.0318430585963,-0.0918268702372,0.0184717981427,-0.0717745759407,0.0247542547155,-0.0297965234559,0.0770514708746,0.0219249074968,0.0805555044713,0.0280526934581,-0.0211552452126,-0.0306593524873,-0.0781814034224,0.0378235997669,0.026178159283,-0.0177171650772,0.0830482411349,0.00929794567303,0.0765525672123,-0.0142454898998,0.108887697545,0.0449525057882,0.0755097522236,0.0126607653531,0.0119079567145,0.0724806839448,-0.0914377695618,0.0210713069349,-0.0367849880099,-0.0465489156013,0.00201207715312,0.0145202728137,0.0140901948665,-0.065833839006,0.0807104138744,-0.0976645752175,0.0049598203306,0.0577203374082,0.0549414186602,-0.0506802948556,0.0450786962158,-0.0316532606784,-0.0193556710824,0.0565782237857,-0.0400745958364,0.0348406533781,0.0473234174372,0.0181121419509,-0.0928241222948,-0.0121154212301,-0.0364182809345,-0.00451020923499,-0.0357298293313,-0.0386228851522,-0.0680390640737,-0.0627613346741,-0.073312217319,0.0126919814184,-0.0473610847371,-0.0418484074878,-0.0564908809276,0.0665640054576,-0.0440443196913,-0.0874791426656,-0.0682447141176,-0.0357387738495,0.0456763753694,0.0357650107916,0.115355723523,-0.0215506369545,-0.0224032652389,0.0222698016877,-0.0245521217186,0.0569851963541,-0.0387426118842,-0.0607610987733,-0.0696527814442,-0.0190883508814,-0.0658134246708,0.0639084918484,-0.00490289855793,0.058540042324,-0.0799085325567,0.0383996932594,0.0105846503265,0.0203086161563,-0.0495555895608,0.0324583659219,-0.00570996780524,-0.0158229947914,-0.0790913091858,-0.0558683427998,-0.0302186016142,0.0567836972702,-0.0180230111204,0.0544417691631,0.00608707818972,-0.0672049863514,-0.0475073120596,0.0994864590499,-0.00797700583404,-0.0327725351479,0.0590746842662,-0.0605548764415,0.0886859524129,0.0452815936844,-0.0123104365307,0.0313551639863,-0.0120104049728,-0.0479564613408,-0.0984632562449,0.011082211577,0.0419755009951,-0.0591711008178,0.0316790554043,0.0325403207773,0.0218034248273,-0.0682753149953,0.10273344219,-0.0278373847994,-0.105729674546,-0.0865291388916,0.0502806018592,-0.0879161283096,0.0532820760146,-0.056927646494,-0.0556114876335,-0.000877271241699,-0.111764629078,0.0806147229341,0.034677580832,-0.0730937481704,0.0355972253304,0.0917020737364,0.00557391789479,-0.118838984584,0.0664043185116,0.100289616491,0.0252329715233,-0.0440799750236,0.000793202164298,0.00568630424048,0.0764516377202,0.0893380931971,-0.0203133933695,0.0618468527051,0.00987117483675,0.0153160441031,0.0574929559623,-0.0856560385016,-0.0686199238125,-0.039274488962,-0.0413012372737,0.0212446174458,0.0153960740838,-0.0515275582759,0.0589792311442,0.0608214745995,-0.0307248148268,-0.0979967116312,0.0936576697491,0.0494128403508,0.059586951457,-0.0736158565862,0.0678698223119,-0.0999535200197,0.0432472578101,0.0840723581145,0.0357344115379,-0.0844999601103,0.0420302938297,-0.0232261776372,0.00468681828402,-0.0144365047932,-0.0987912277028,0.0815928409263,0.0168239896084,0.0893789284487,0.0214971071791,0.0568843119355,-0.0815045793894,0.0752357621249,0.0119754645289,0.0190860729227,-0.053630723821,0.0705666602426,0.0804727228645,0.0836226974918,-0.037324842673,-0.0721863288625,0.0771184449441,0.0423042307275,-0.0931543987799,-0.00457253231187,-0.0575026360659,0.0217155012012,-0.0703616908036,-0.0159706429103,0.0311131695255,0.0292763255433,-0.0901880793715,-0.00749732279324,0.0809592360196,0.0612872417033,0.039150789794,-0.0930422863465,0.00698425939354,0.0638636782033,0.0382821055995,0.0726228272743,-0.00554725898335,0.0550756908658,0.0884392760583,-0.0703657818872,0.08714695471,-0.0799674251899,0.0821883443527,-0.0422167300494,-0.00811609946142,0.0517394673886,-0.00464508516507,0.0277674513793,-0.0274414707129,-0.0515436089694,0.0920077128367,0.0572625746727,-0.0162030103792,-0.0947263280478,0.0558278095143,-0.0050842773805,0.00899649309991,0.0926902515295,0.014296195143,0.0410957700035,-0.0921216458635,-0.0831100114802,0.0327705707447,-0.0750865662409,-0.0434181181663,0.0511790984215,0.0522140142425,-0.0400090602979,0.0939715474957,0.0517333141629,-0.0386621496636,0.0785407117152,-0.0151925567466,0.0857570757285,0.0835462226398,0.0755535574086,-0.0825105217987,-0.0322183275913,0.0771898840655,0.0826620489663,0.00803772097565,-0.0553067342006,0.0895935250248,0.0892438715215,-0.0215495588108,0.0700868599896,-0.0113204293641,-0.0255696363497,-0.0401959910788,-0.0131434021694,-0.0074140467804,0.0258930787222,-0.0982206493014,0.0442909306091,0.0735854045141,0.0272367909098,-0.0857811266662,-2.28963721978e-05,0.0778579618164,-0.0378397627429,0.0829937367539,-0.0300633781724,-0.0161423467102,0.0632406979259,0.0592497634566,-0.0340226014399,-0.0967033537989,0.0867126553563,0.0371138019206,0.0463376324481,0.0547480221911,0.0132816502555,0.0651496074893,-0.0239384338709,-0.0643739164069,-0.0423038553418,0.0304711460166,0.0907263178662,0.0680499411223,0.025006337543,-0.0887614309906,0.0751874187912,-0.0873229963091,0.0304928754322,-0.0690067978072,-0.0301337575715,0.000617697691182,0.0414752270722,0.0278587648977,0.0158413503931,-0.0436890480716,0.102605798526,-0.0761657689034,-0.0569662738031,-0.0572633968173,-0.061380049273,-0.0640098855303,-0.0462253240927,-0.0491168705747,-0.0759919652883,-0.102426685058,0.0940716866847,-0.070528838281,-0.0600898388256,-0.024542455676,0.0816472240884,0.000574632936584,0.0119069991578,0.0469776049957,-0.0180238309037,-0.0797364986966,0.0431179477891,-0.0247006121016,0.060874435469,-0.0521176363481,0.0912779923949,0.00110217969518,-0.0992674910876,0.0603584545066,0.0597536788196,0.000667320312913,-0.0608770431055,0.0399265630255,-0.0422490499755,0.0367905957992,-0.0440876665523,0.0144413293319,0.035580117964,-0.0766800938517,-0.0931451455062,0.0736657723227,0.0639862007868,-0.0601257052705,-0.0707006577332,-0.0709555480446,-0.0400725119111,-0.0992850235128,0.0770293397575,-0.012602759849,0.0412489872201,0.038395849533,-0.0452076383482,0.0368616220404,-0.0543428510739,0.0493938780764,0.0933206147917,0.0222211452805,-0.0637055176231,-0.0152024550153,0.0647741537219,-0.0296019391564,0.0712593656297,-0.00326090205996,-0.0809113657809,-0.0712274428537,-9.887576441e-05,-0.0681522729556,-0.0627892466959,0.0015747597674,-0.0176159536229,0.0191044434308,-0.0144701253486,0.0577856136851,0.014636478038,-0.103286922816,-0.0566573569262,-0.0608232128546,0.102102960944,-0.0817680088799,-0.0262254801466,0.066817226481,-0.0551869211437,0.0306799605873,-0.0559063978636,0.0541851960759,-0.0429008916437,-0.0417836678073,-0.0349395015022,-0.0955082588938,-0.00310852874234,-0.0483209491811,-0.0109962950733,0.0804918469987,0.0350640519775,0.0741518612642,-0.0672703721859,0.0758618987111,0.111984566236,0.0852966870321,-0.0208460916103,-0.0443342525171,0.0498882072553,0.00340077877823,0.0289659201027,0.0443010648926,-0.0495696801459,0.000652590008428,0.0595152395994,0.0937878534228,-0.00540422198915,0.00295027562866,-0.00337069737424,0.0326984043239,-0.00379394042944,0.0806265649584,-0.0226764722035,-0.0802654468386,-0.0090023580288,-0.0176375187199,0.00260481411307,-0.0308339376716,0.0885216749149,0.0427521854424,-0.064995541856,0.0933557258516,-0.0725893050765,0.0487919868287,-0.0016679782827,-0.0285048405397,-0.0144849737528,-0.0397771037814,0.0498156564764,-0.11693832858,0.038935826792,0.02090841421,-0.0194969393278,0.0731312939217,0.0360389877887,0.0524812513583,-0.0781322113836,0.0350873675913,0.0502276185712,0.100051545784,-0.0524684042056,0.0378892733675,-0.00632298902499,-0.0904464687029,-0.0272004923105,-0.0060246492712,-0.023866290662,-0.046945106561,0.0830150207876,0.0234569868647,0.0761139142184,-0.055237522398,0.0928893149552,0.0818894646023,0.0738119018064,0.0667032613473,-0.00812279222249,0.0235416893649,0.0209309839726,0.04285680821,-0.0538594983656,0.0795345521594,0.0177755122352,-0.0979194881534,-0.0937384503388,0.0271833043023,0.0876677576474,-0.0686677941348,0.0450655487448,0.0190336455118,0.0942390218008,-0.0263160005876,0.028600154788,-0.0418764899826,0.00305610458569,-0.0694264545795,-0.0717104286674,-0.0925449815424,0.0606082769746,0.0276240447412,-0.0737142657115,-0.0652632770233,0.026010019656,-0.0657134648216,-0.0486349065457,0.0670651240905,0.0236243076508,0.0290732279876,0.0585552228832,0.0419443633474,-0.0814536895224,-0.0658729501614,-0.0320882839585,0.0947376949546,-0.075286647059,0.0884321908662,0.0901971101597,-0.00148604100301,0.0652337829289,0.0440978734328,0.0505251299181,0.0158139234527,0.0517093776813,-0.0172110691975,0.0620515626857,0.0131047519804,-0.0835889652341,0.031110087374,0.00514609912643,-0.0627857781676,-0.0871934881384,0.102849278156,0.0261428182358,-0.0576635417445,0.0878677979122,-0.0395838724823,0.0141131630218,-0.090716473276,0.0808366136132,0.0219629925346,-0.0349559166403,0.0880367902202,-0.0562264346418,-0.0820549015481,-0.0652278125943,-0.0394125015523,-0.0205254939912,0.0510685400443,0.00535310049057,0.0227232982366,-0.00878609805214,-0.0680619926416,-0.0075899639439,-0.093229283267,-0.0030867057382,-0.048559233813,-0.0227030629839,0.0693312527993,0.0964672316777,0.0711407224853,-0.0368793220638,0.00348905157353,0.0211252090448,0.0665068249854,0.0678926118692,0.0674517815964,-0.0726605659482,0.0364676442823,-0.0174617517592,-0.0863092587498,0.0697140967428,-0.0867557743484,0.00742352520244,0.0686066567903,-0.0914453121429,-0.0704054941414,0.0733629979069,-0.0174441374236,-0.0327685340278,0.087318989693,-0.0880473818266,-0.0806137510981,-0.00248793701285,0.0856434440695,-0.0540602935334,-0.0742532796484,0.102373921232,-0.00988882957878,-0.100454398784,0.0174030343647,0.0776228288664,0.0385762150551,-0.0488754955475,0.0843769579412,-0.00301305449768,-0.0380225475922,0.00104431418197,-0.0654386759648,0.0923932969462,0.0392083838084,0.0957838946643,-0.034655587176,0.0326722694128,-0.0411772036525,-0.00399768237847,0.0333468175609,-0.0523938458034,0.0543475059934,-0.103066643403,0.0849031646877,0.00625324747222,-0.0236499720726,-0.0276993899647,0.0313981489532,0.0710662903965,-0.00759086021372,-0.0865833076034,0.0386834380123,0.0331808952182,0.0761587848606,0.0717500819097,0.0836427002083,-0.0385812916261,0.0467504470767,0.0808330945427,0.0403781318841,0.0721100655607,0.0611457518032,0.052868038929,-0.0950575945748,0.094775451153,0.0306454965931,0.0526212545461,-0.0759869468218,0.0621752992766,-0.0279828237113,-0.0635125790116,-0.0745886428733,-0.110589934037,-0.0677891743311,-0.0442338546975,-0.000952638743625,0.0505174620929,-0.00991056633414,0.00584790757841,0.0460326524261,0.0694571280782,0.0201669648524,0.0600499013529,-0.0538452160076,0.0122910292444,0.0286353840246,-0.00332882434811,0.0679622898906,0.0264418036764,0.0869566515624,0.0519746329116,0.032412036172,-0.0367856717505,-0.109144536714,0.0189454989603,-0.0266610553859,-0.0853043666961,0.032110591687,-0.0404768614418,0.0149657878319,-0.0272904672789,0.0384666935405,0.100643298998,0.0715598226784,0.101841971623,-0.00867636706205,0.0559752431519,-0.083407691815,-0.0549982337244,0.0927452660526,0.0948072003793,0.0211060291772,0.000702291884298,0.0521719845289,0.0795547602328,-0.0763755278227,-0.100173708844,0.0837880253377,-0.0273528493867,0.0839637865307,-0.0235957689454,-0.0347001146308,-0.032389713523,0.0369995861412,0.095155061171,0.0906494109798,0.0340232002456,0.0217863558082,-0.0390393822269,0.0513947443092,-0.0612194508169,0.0776200146421,-0.106317948085,-0.00453896570908,-0.0505796507955,0.06075140408,0.00838600609667,0.0567778708821,-0.110008987855,-0.0666577199775,0.110836298115,0.0516834312024,-0.0130268863664,0.00275963310507,-0.0871350498444,-0.0230067452412,-0.00294933296629,-0.0510738218323,0.0134446350981,0.0219189647429,-0.0723508282277,0.0135775260753,-0.105007030751,-0.0152117902224,0.0878568963535,0.104057260988,0.0974769207248,-0.0444039404646,0.0528661540673,0.0490056831728,-0.0699743885598,-0.0690095027448,0.00909697673509,0.0260664230106,0.0914838347436,-0.0119367732897,0.0471065458715,-0.0810135570786,-0.0428349304906,-0.0919469108948,0.0386125426342,-0.0192687594899,0.0748848352769,-0.0344414529695,-0.0307295611111,-0.0712032028434,-0.0394244957027,-0.0902713758688,-0.0211402133502,0.0516802452706,-0.0621272788372,0.0589748448646,0.0543717153796,-0.0307709076908,-0.0322772760473,0.000164093238812,0.0723171889729,-0.06670692331,-0.0589617164731,-0.0733850736995,0.0568901772382,-0.00677499816795,-0.0147240237932,0.0920950351025,0.0647153822439,0.0968896325089,-0.0485410942512,0.0894516540078,-0.00897199787395,0.0121282908468,0.0442375344372,-0.0897036806997,0.0869002111329,-0.0686245563586,-0.0847497386946,-0.0696653587474,-0.0568335960634,-0.0282528929085,0.00914871562131,0.00394311210109,0.045514000495,-0.0606525774706,0.0145176049427,0.0246738230307,-0.0329088703943,0.0579020551707,0.0957755989648,0.0116706508212,0.0879645330948,-0.0823385435959,0.00913480791427,0.0406210295243,-0.0390471800178,0.025750354932,0.0373583605856,-0.0967999939479,-0.0718152537165,-0.0694766551867,-0.044622351184,-0.00270059694344,0.00279989597197,-0.0831564015918,-0.0819912315966,-0.0600017236722,-0.0144914011232,-0.07570683037,-0.094948341948,0.00511428424284,-0.058453017212,0.0550005470724,-0.032368561796,0.00152327829149,0.0967029175388,0.0211733887112,-0.00601438702006,0.0227120481486,-0.0265234293838,-0.0659045555594,0.0271931678237,-0.0985992126184,0.0493874448647,0.0494276954034,0.0519132275121,-0.0795416101606,-0.0583204885916,0.0721478290055,0.0207337473716,0.0426116560481,-0.00461100102703,-0.0572889012015,-0.0843048180327,-0.0971748309008,-0.0261726658436,-0.0752883935404,0.0602934886117,-0.00468660655119,-0.0188190586793,0.0446215298022,-0.0515643741173,0.0352453330558,-0.0786847975744,-0.0436021289869,-0.0649642795052,-0.0860817227736,-0.0794073501726,0.0103757620756,-0.035303792742,-0.0425008430652,-0.00683721970287,-0.0292642409751,0.0834589273069,0.0652373015802,-0.0164326981515,0.0106314225133,-0.0567170258952,0.0912739309821,0.0217568806565,0.0679877293041,0.0818009243101,0.0190592886854,-0.0907950573435,-0.0692889844665,-0.0500794538643,0.0617489613581,-0.0246369492658,0.00168424942771,-0.0231127276881,-0.0672362743386,-0.0421564664804,0.0808396686894,-0.0374030177153,-0.0514468753807,-0.0398438050684,0.0569058479518,-0.0227506886578,0.0208925486579,-0.0410986401736,0.00444259538811,0.0508026628627,0.0448724970957,0.0544565536936,-0.0365146074428,-0.0860743305045,0.0318820723765,-0.0723809181102,-0.0469388106042,0.0823886203319,0.0475506035295,-0.00850831868257,0.0194600175753,0.0278134501621,0.0727374867704,-0.0819449198475,-0.0775515659787,-0.0478793487792,-0.0988060976652,-0.0567309905192,0.0264645331407,-0.0592162990256,-0.0731874298953,0.0684824790894,0.0111177889396,-0.0419870225562,-0.0708459947926,0.0462855468852,0.0146930485632,-0.0138439317177,0.0242182608066,-0.062690419449,0.0504484008211,-0.0308969938074,0.0165996558857,0.0197080699594,-0.0275050584548,-0.00241100505761,-0.0502734565522,-0.0054325301038,