-0.0193608453533,-0.00673085984011,0.0215026537602,-0.00504946237907,-0.110272608678,-0.118528902049,0.0574628790935,-0.122183943429,-0.0256482739679,-0.0718451845715,-0.156945970396,-0.0296806059297,-0.00861895866428,-0.102346681285,-0.16103186681,0.0497072929312,-0.159486357408,0.0077904910652,-0.0680992910034,0.122763415058,0.0453237310374,-0.0193024414009,-0.0680220274091,-0.130502756316,0.0214209977113,0.0901053000112,0.0414836395172,-0.0489930836398,0.00367545027732,-0.0307898759076,-0.0724335301794,0.0136355960589,0.039675655043,0.0534440873157,-0.0293118266928,-0.0369577975511,-0.010359554739,-0.0383091953372,0.0535511825048,-0.067608916778,0.0875736014263,-0.0182798651207,0.004581473655,-0.104157946822,0.0597022095397,0.0991151361985,0.0397495328602,0.0526604123891,0.0680374216021,-0.0276077208118,-0.0555527000318,-0.0315068046949,0.0411285219436,0.0254536960622,-0.030616487588,-0.0907689183057,-0.0132947096067,-0.0923964954949,0.10795483372,-0.0410965026863,-0.0911478511841,-0.036944590211,-0.0808633332451,0.0730456732812,-0.130942609202,0.0432187585238,0.0507777965562,0.0116364176621,-0.0997147226803,-0.0124602400264,-0.0153403146744,-0.0979140933527,-0.0197475531295,0.0666807525751,-0.0853614135438,-0.0539270470994,-0.12165362196,0.0520051414574,-0.0499291742161,0.0671585436394,0.0132636212543,-0.095514463284,-0.0880774126985,0.0251250058605,-0.0722936640909,0.0695363662363,0.00484022762185,0.0748346941865,0.0225334706805,-0.0996930224609,0.0862686948707,-0.0926863314556,-0.0622701261424,-0.0383122373766,-0.0159972990418,0.0778960318715,-0.0375894681729,0.0672471087141,0.0669373534769,-0.0680905729499,-0.0559942911808,0.058536802788,-0.048285596917,-0.086981847185,0.0850690261797,-0.105497614356,-0.0280675116464,0.0288745200869,-0.0949003710625,0.00322390174234,0.0566568487848,0.0519546835001,-0.098335076385,-0.0264985354506,0.0386020447182,-0.073372309522,-0.0918831852291,-0.0033619504962,-0.119961244897,0.0102961592293,0.00793137913961,-0.0536097345833,-0.0493247654629,-0.0370751774885,-0.0101081859461,0.0101486547755,0.0271160661043,0.0124879173532,-0.0301742332533,-0.0369092561156,-0.112333406194,-0.0953085941224,-0.0301359645529,-0.0726764695459,-0.0895793532232,-0.0435365337972,-0.108599466433,-0.0120152327492,-0.0819189312209,0.0863090554683,-0.100471653259,0.0504030174657,0.0984093885451,-0.132246418121,-0.0938806577202,-0.0586319102976,0.0879938875252,0.0292646277207,0.0373045019086,-0.050094908927,-0.107443957257,0.100354428641,-0.0714304359032,0.0424672194746,-0.0836141826721,-0.0160985502429,0.0465617706407,0.0450542946028,-0.0696646661735,-0.1061694061,0.0100318482767,-0.0183576510777,-0.0692581433163,-0.072112806406,-0.0953992865906,-0.0867740692007,-0.100358339697,-0.060703041376,-0.0238857899617,0.0859324902214,-0.00561557313618,-0.0639640154035,-0.0649390668252,-0.0678489277709,0.00106746194299,-0.0048166526178,0.00783896273959,-0.116147314556,0.120321382086,0.0436826415773,0.0201427025592,-0.0121145469031,-0.071191273542,-0.0372217770393,-0.102930077053,0.136541531616,0.0412006184176,-0.0162922725921,-0.142847985854,-0.0178048015643,0.0744023936663,-0.141886421623,0.0364553074168,-0.0899998833623,-0.0565023833361,-0.151048735781,0.0265397871063,-0.0890732423272,-0.0269133399899,0.0128058829022,-0.101842673311,0.0659075881,-0.0451950350334,0.0222251506658,-0.0755578775768,-0.0468127617723,-0.0244130656204,-0.0230783211573,-0.0339142175124,-0.00751640864972,7.16407873444e-05,-0.0636228502466,-0.0393091562282,-0.108290018037,-0.0115819377299,0.0305925800644,0.0200818581437,-0.0303655169404,-0.00758260933024,0.041925730184,-0.112022541545,-0.0415102023423,0.0595184405449,-0.0156440890151,-0.0728225866535,-0.0525787800509,-0.0243016990323,-0.0285617620781,0.0120938694124,0.00554148158082,0.0921102491247,-0.10108518607,-0.0242173275097,0.090119665542,-0.101751732145,-0.0380390794293,0.0561163296384,-0.0261396544269,-0.104403267054,-0.062778123376,-0.00885061745039,-0.0856174450506,-0.0926813313767,-0.0644829463599,-0.0336449472213,-0.0317037424274,-0.0947703442079,0.0819822415169,-0.031446422619,0.0722654883925,0.0191542886494,-0.0833497528906,0.0299754357804,0.0190924545754,-0.0425402554686,-0.134132436648,-0.0628604890822,-0.0204435831593,-0.0224147330644,-0.0265713798911,-0.053459104985,-0.0979145813584,-0.0945522270697,-0.157364938004,-0.0224657319998,-0.107261950802,0.0267495658951,-0.0277445189331,-0.0154315741375,0.0685882556886,-0.147620442081,-0.0921199375251,0.0123677042209,-0.025120376395,-0.0948436084034,-0.0566250598533,-0.0779958284695,-0.0216075807671,-0.00931991433181,0.0858300120786,0.0364560132516,0.0394186752073,-0.0773806101103,0.0126825041572,0.0368288038233,-0.00580680065968,0.0662754045034,0.0197687569643,0.0675780712124,-0.0252727038946,0.00765766195752,0.0110137442721,-0.0340997414766,0.039462789039,0.0467030271105,-0.013435203672,0.0973954088843,0.00263926301023,0.0608612819198,-0.0623992580416,-0.0558138096322,-0.0830363450284,-0.0116478232823,-0.0934032149004,0.0254373760916,0.0595776681651,-0.036659831785,-0.0922565178546,-0.0202109797332,-0.00983768917832,-0.0960966900795,-0.0423625502963,0.014924124415,-0.0537958359257,-0.0906132911377,-0.0750218918311,-0.0191187343536,-0.102724030046,-0.0659357145064,0.117720578151,-0.0762829440196,0.0653984284559,-0.137406845568,-0.0881135248704,0.00116768248671,0.0631944037442,-0.0539244092888,-0.109509831307,0.0104408384257,-0.0381265812695,-0.136764914111,-0.0669101836119,-0.0458989303412,0.0262583081471,-0.0333072473688,-0.136967714617,0.0745230248044,-0.0823313049335,0.0208487888355,0.0769682116212,0.0610396498732,-0.00461952554692,-0.0690909094905,-0.0156920976168,0.0777538767498,-0.0368198125247,-0.073370636149,-0.0778362696422,0.0445713612458,0.0816885603848,-0.0959963786518,0.00849623488946,-0.0726097639181,-0.0267028278412,0.043892181522,0.0616232863066,0.0387803331206,-0.0300901465021,-0.0441529118101,-0.0929203406368,0.00864342722035,-0.0878268765771,0.0332535187848,-0.0495292548147,0.0661900509167,-0.0765294151399,0.0395821435978,0.00694423371829,-0.0599693755229,-0.0855973003506,0.00363111712526,-0.0856944152271,0.0198416227037,-0.103240195819,-0.0152864139618,0.0302203138128,-0.0445152886727,-0.0859929735735,-0.130776000685,-0.132314128841,0.0726950416493,0.04859725092,-0.0565283948752,0.00569367874628,0.0066818372842,-0.134398428176,-0.0249928323672,-0.000147469120709,-0.111667560534,-0.0878702096888,-0.0838742723404,-0.10916058979,-0.0249231366481,-0.00922908203705,0.050276839932,-0.0713060555883,-0.0129552752127,0.0275538284819,0.0503572462389,-0.0414858891045,0.0223933011078,0.0963501961243,0.0610785471453,0.0453304011757,-0.0269884933775,-0.124758069777,0.00815612022258,0.0957722555519,0.126223136233,-0.0704954846353,-0.0952957730882,-0.118938879068,0.0114699216907,-0.0524966168574,-0.0846863384051,-0.0302171772167,0.0307046564528,-0.0227311595735,-0.0503549219126,-0.0521402814214,0.0414625515281,-0.111302543826,-0.0200199254764,-0.00389999646327,-0.0101966117627,0.0648156995445,0.0870926039568,-0.0514801410063,-0.0911328206428,0.00794113623074,0.014714504417,0.0750542562927,-0.0701055122207,-0.0806274488565,0.113932323592,-0.0795603884708,-0.155297241851,-0.124343251199,-0.043573246273,0.0834070893383,-0.0778198512331,0.0423070254548,0.000363312024453,-0.199119514537,-0.00683476207269,0.109784149645,0.117532299719,-0.0259710096205,0.0384623763889,-0.0349207772325,-0.228171280009,-0.0899117620634,0.0452749033398,-0.0594137096083,0.0445339013704,0.0126358850917,-0.0146907961403,-0.0513656493235,-0.0981245338344,0.0813377999054,0.0210675593912,-0.0158131638412,0.0142541671078,-0.0343246819021,0.0186472460481,0.0320852616772,-0.103159051987,0.0554635406233,0.0405421741365,-0.102344174905,-0.0887679095398,-0.0495184024716,-0.0161413474471,-0.0421064061112,-0.105673375918,0.0516668753671,-0.116600646997,-0.0732409909419,0.0957274263759,-0.0822105659275,-0.0771211684117,-0.0835266497547,-0.0454511941244,0.0180297999211,0.0601638216567,0.0446313868114,0.0715881448388,-0.112558568279,0.021921398031,-0.0619215080864,-0.13965135402,-0.0931763706568,0.0696596949238,-0.0490196188516,-0.0522229647234,-0.00405142948024,-0.00867149959329,-0.126481287567,0.00341633931758,0.0507327623446,0.0669922568984,-0.00254387735643,-0.0769489327859,-0.0194734730887,-0.135415066265,0.0584473734557,-0.052786449054,-0.0364782378851,-0.0277177710691,-0.00108178302333,-0.00759769046947,-0.0201244933571,-0.029758343269,-0.114711235836,-0.0634809965756,0.0146802862797,0.0580509200876,0.0425951604895,0.0325101226464,0.00660345002545,-0.128110532419,-0.171845324201,0.0171097152057,-0.0310737250843,-0.0177346041332,0.0339766092285,0.148695409668,-0.0339754197962,-0.183575592074,-0.117843920391,-0.0018588646355,-0.033461624069,0.0260672952153,0.065069487124,-0.0785953803179,-0.121140187341,-0.0200555395295,0.0516003653672,-0.00163999158346,-0.0566262095615,-0.0195254984532,0.0509234617306,0.0151895548937,0.0624333462957,-0.0601536471467,0.0541575609979,0.0630709510549,-0.0318082248911,-0.00798906126997,0.132859979473,-0.0642931324127,-0.0487783968406,0.00168335656177,0.0441906843024,0.0115817384406,0.0712613269713,0.152053227543,0.0704538570171,-0.0707674408921,-0.0684485967031,0.00606671640347,-0.120671152309,-0.0010019224898,0.117664413101,-0.0270822278549,0.0152489922413,-0.0289426553911,-0.0436612994955,-0.188697503119,0.0862873960864,0.155758965373,-0.0871333823776,0.0222605699634,0.0365262860449,-0.0913358206392,-0.112992889355,-0.00594409177049,0.0360691588443,-0.0258291347193,0.000862457613658,-0.0750833677442,-0.109915078128,-0.212203130364,0.0210597546193,0.0031492420301,0.0278873726305,-0.0148832984928,0.0528935070851,-0.053421101271,-0.0643973467558,-0.0242197341037,-0.0839885282832,0.0300890547071,0.0426167099039,0.0877740980818,-0.0892369017316,0.081695401094,-0.0524922684803,-0.056049753002,0.0491915478569,-0.0560761556254,0.0403746758513,0.0475957973175,-0.0246245123249,-0.109084645213,-0.167090006604,-0.0860813697254,-0.0769938171719,-0.0709935156081,0.0795879242546,0.0477580182669,-0.11748152284,-0.0324594707141,-0.0714417307944,-0.0522560839325,-0.115978665002,-0.023633457064,-0.034988082235,-0.122335068257,-0.0444444972052,0.0346827628203,-0.107823338061,0.0235721298579,-0.047768116303,-0.00487129729331,0.0550542200456,-0.178273919515,0.0309619853507,0.0465633419363,0.0340689749355,0.00406705945636,-0.0211524055779,-0.0760972680708,-0.136469125266,-0.11137313833,0.0412325508229,-0.115347826752,-0.029740346324,0.00142165184818,-0.1028427941,0.0266915880864,0.0375414656862,0.0621466378892,-0.0926700687154,0.0857053925084,-0.0984044903524,-0.0724130984808,-0.000798555656407,-0.0517452964527,0.108260931654,-0.0963889129127,0.0470486134119,-0.0161545700467,-0.0514690413335,0.0152572579264,-0.0865017930336,0.0859025003957,-0.0642066869035,0.121747125515,-0.0651656252098,-0.0616880001411,-0.0799099212728,0.0371528884196,-0.00193499949438,0.0544500001652,0.01153987164,-0.0320525240019,0.0263258519097,0.0157498598534,-0.0105748541388,0.0718087428887,0.0695614417046,-0.066148121516,0.0533083655086,0.0787491719669,-0.0972214774633,-0.0310787260808,0.0448350483775,0.0731554683415,0.0082644752423,0.0704222862463,0.0241513394192,0.0668162655821,-0.000743257166811,-0.117709978244,0.0667693385143,-0.153713061034,-0.0431833229168,0.144580842377,0.0234376151451,0.0223814829854,-0.010242516385,0.0122691976576,-0.10234989123,-0.0164811357375,-0.00144960032479,-0.118766517445,-0.0635951160288,-0.149975279211,-0.0548266251542,-0.0464967929498,-0.0072024296769,0.167687399127,-0.0728319905956,-0.0858519210512,-0.100084992182,0.0831276952269,-0.132299337942,-0.0317674786954,0.139571731374,0.0386981258433,0.0334075114058,-0.203612735776,-0.07170644272,-0.0282218347542,-0.00342643826112,-0.121010104402,-0.0201211610387,0.0579169062413,0.0452158548209,0.017475994016,0.0611194241014,-0.079389416219,-0.023330834403,-0.0762995011929,-0.0483505070675,-0.000160739558282,-0.0358008162347,0.0320964906264,-0.0932655935642,-0.0283704441925,-0.0984193461117,0.0374476779575,-0.00121952053446,0.0457416739655,-0.0324729820861,-0.0794956185655,-0.0119436590709,-0.105799233017,0.0550826179683,-0.0406483320073,-0.0295784044942,0.0933061675898,-0.0337711272852,-0.13710431361,-0.031703157326,-0.0562445120493,0.0981222271193,-0.023528017355,0.0956921691082,-0.0736173437412,-0.0863567254422,-0.0385726135936,0.0711166861375,-0.0454285327287,-0.0700192818326,-0.0354368456301,0.0576173953711,-0.00875119738435,-0.0958550657098,-0.0219127847603,-0.00387523209711,0.0169074563194,0.017270786103,0.0279445457216,-0.143608760718,-0.0902560106899,-0.10657927985,0.00160522343133,-0.0645585613007,0.00901676107665,0.113829286644,-0.0460163575626,0.0179661990552,-0.0831009288728,0.0953583930499,-0.151745095397,0.0281244396238,-0.0406987875041,0.0433012888051,-0.0943978628634,-0.145647716449,0.0213866835079,-0.116862347441,0.0724908408817,0.0505573629047,0.0334978639417,-0.0201920870786,-0.0429394989308,0.126849267173,-0.14477187941,-0.0364823783114,0.00789226695978,-0.00522178293483,-0.0440214232452,-0.0905194046239,-0.0726383022968,-0.0640813920289,0.0508022143576,-0.0550593508828,-0.00734082450885,-0.0670850409242,0.099290187773,-0.0363533200033,0.0698171178682,-0.10203699596,-0.0368602131822,-0.0131673210245,-0.0299632871444,0.0989386241458,-0.141530121172,-0.0529070801236,-0.146598346389,-0.12751278932,-0.00418300776941,-0.0170438610002,0.0113151731357,-0.0892393793845,0.117534112789,-0.0179461937437,-0.119883819915,-0.0809282082708,0.116249102582,0.0109589915332,-0.113910168126,0.101145913288,0.00212382985912,-0.146590311151,-0.0989324250915,0.0722110297781,-0.067672072724,-0.122735583963,0.174552706662,-0.149939730931,-0.0027240708698,-0.0609884238179,0.105848066634,-0.0286771311078,-0.110558739843,-0.0586352614261,-0.0503688131843,-0.0852722740383,0.0867883069395,0.0691044336342,-0.113840163062,-0.045321395119,0.00289854058379,-0.0949535308252,-0.00904852949262,-0.0763302425271,0.0564722604641,-0.0414926950542,0.0494499783791,-0.05893624831,0.0775271829206,-0.0643919251371,-0.00722920447572,0.0240745210821,0.0371884626056,0.00349643637975,0.0481738231321,-0.0205236060556,-0.071506427729,-0.0855051140379,0.0286385844066,-0.144987100157,0.0760636430714,0.0176345986356,-0.00902575431315,-0.0723245941101,0.0609871011264,-0.07157443931,0.0373481370021,-0.0400313478902,-0.0312842251585,0.0507920812409,0.0358297303501,0.0765067782844,-0.0577066099066,-0.00484577102202,0.0255713619573,-0.131582818252,0.000249303455306,-0.139511494109,-0.0879157465266,0.0565230906803,0.0559724154217,-0.0539758848937,-0.0088992290731,0.0277125212917,0.0229523468584,0.0398218340015,-0.112355103942,-0.0669219392911,0.0672681179397,-0.0634810017068,-0.0441245278117,-0.0887413426694,0.0834141026043,0.0399642455776,-0.00263695773374,-0.0582412691734,-0.056943296705,-0.123665899679,-0.175355820149,0.00888170979517,0.0949315876065,0.0290333404933,0.000180394447687,0.0259866150236,0.0334583161079,-0.0976084176319,0.0986546143447,-0.00574091483216,0.0434888127199,-0.0912356819003,-0.12294700286,0.0501869635394,-0.098332806915,0.0747743928712,0.114934091718,0.0178846858455,-0.0100808253461,-0.0298427457862,0.103641736708,-0.0339316330726,0.0208186167327,-0.0400616610961,-0.0794693614534,0.0540258444142,0.0595227350037,-0.0156759317074,0.0994214092271,-0.0747034937425,-0.0471318244286,-0.0165341655269,0.038484993745,0.0436087797493,0.120107549634,0.189341547201,-0.199779772552,-0.0580421702396,-0.125206454005,-0.0530356104683,-0.0086580384818,0.0542748534902,0.203194509833,-0.0834422386748,-0.0485479483475,-0.144503850861,-0.0119911773834,0.0691690462996,0.0157165885629,0.172934632506,-0.15361089265,-0.010226065342,-0.0798675709453,-0.117884417476,0.0384856044007,-0.0245915498095,0.0538751342805,-0.0341896900285,-0.114293896825,-0.100707554936,-0.0478254298803,0.0415196360685,0.068979153792,-0.0255057979954,-0.0888334982579,0.0407808832299,-0.0645549930129,0.0459042178652,-0.119161670002,-0.00329693463757,-0.0591812298818,0.0264232192039,0.0302337038207,-0.0963083360332,-0.0148594970472,-0.00312986166441,-0.035886055654,-0.0277968805692,-0.0835686922154,0.0663855147278,0.102587962999,0.0613667978345,-0.0897150323675,0.000880289876886,-0.166820213467,-0.0998037607596,-0.0669162340958,0.0536576004816,0.026803184139,-0.0906584226323,0.0588009611917,-0.161134993953,-0.0424504847821,-0.0150378027309,0.0476154012342,-0.0990049536171,-0.0518083924082,-0.102496340807,-0.103337554215,0.0591521477066,0.0309852977104,-0.073852851518,0.0323539861515,-0.153647375624,0.00224596379355,-0.0382854879431,-0.0639117883264,-0.0586212358277,0.0339989529851,-0.106978656441,-0.0584711053308,-0.0917860966994,0.0340670951643,-0.0475694068628,-0.0829867474861,-0.086833484825,0.00857289431418,-0.0172797902365,-0.0681646808924,-0.110064781043,0.0868449840135,-0.0761273544763,-0.0234609554801,0.11592547208,-0.134247279563,-0.0450928554572,0.0329429505942,-0.0926857935605,-0.0100012021673,-0.09374088571,0.0246290116212,-0.122381156743,-0.0332501622874,-0.0730870651362,0.0204328620896,0.0944466093146,0.0395116571634,0.108976995571,0.025308178389,-0.0674581520938,-0.0468138807629,-0.00777890567089,-0.0262033073728,-0.0358164698041,-0.0550471569951,-0.00808241381578,-0.0153255516855,0.100302631358,-0.0443557557718,-0.0205843486546,0.0599978674064,-0.0181553449768,-0.0899629062685,0.0877180154927,-0.0628243200658,0.0345679963832,-0.0219893334121,-0.0792254557257,-0.0869800985666,-0.044092564538,0.000504890944808,-0.021366587214,0.0275461316662,-0.146823009411,0.0687990074448,-0.0502308857779,0.0901744802366,0.0881903627075,0.0127344280618,-0.0538829979579,-0.117269325699,-0.0651092933128,-0.06467932884,0.079361995009,0.0365991395372,-0.0760535221135,0.00294237548907,-0.141241569293,0.0233398159195,-0.0119661984535,-0.066506356222,0.0431531874769,-0.0386241740384,-0.0552877008169,0.0253074563817,0.0552245874871,-0.186112859023,0.0273237714524,0.0171713259993,-0.106166593202,-0.0891967596101,-0.0633433877934,-0.0362412441429,0.00939287652789,-0.0595352011862,-0.0565928553661,0.0721622280409,0.0337626371783,-0.0773655702378,-0.073333993288,-0.0249695297302,-0.088760014472,-0.0899728297366,0.0272830432217,-0.030667856115,-0.0359205189586,-0.0834880769642,0.0747071053397,-0.0955536134143,0.0566178025371,-0.0377390164624,-0.000563128544872,-0.0935197060718,-0.0594867045599,0.0422115449499,-0.12726907995,-0.0630503631454,-0.0749671639484,0.0130799428219,0.0796699048619,0.042708310215,0.0446863641612,-0.127797207584,-0.0326453685089,-0.107112305089,0.0568657200978,-0.0204879406748,-0.108571630457,-0.0436144108756,0.0108660240518,-0.0210778742678,-0.135345255638,-0.0191027225788,-0.0695364187212,-0.0306020755722,-0.060406287277,-0.0894305438406,-0.129798178514,-0.00540897749048,-0.13176320264,-0.109106113591,-0.0180806312524,0.0287987367194,0.0667331081227,-0.0546729145226,0.0331925790976,-0.125585983038,0.0662912600827,0.0342151738083,0.0396606353744,0.030712257281,-0.0390296580024,0.000793862015169,-0.0878668071886,-0.0174685460832,-0.0779283343382,-0.00319893948805,0.09272654921,-0.081794105072,0.0432725927557,-0.0397520716007,0.0567412643724,-0.0828365946654,-0.0189223785895,0.0184080784396,0.0509059486804,-0.0635884584951,-0.0737286891206,-0.066661921714,-0.0471450745089,0.092146100864,0.0747794209773,0.0185392746513,-0.002055294077,-0.0783796198378,-0.0836792295899,-0.0636091423921,-0.101215802268,-0.0876337028045,0.0306251623766,-0.0852664025537,-0.0764433995089,-0.113497060705,0.00851262264504,-0.0701849379982,-0.0414361870905,-0.110060755066,0.0333876391703,-0.0971897861028,-0.079452766271,0.0482238409503,-0.00424424505419,-0.0618666481894,0.00450385148775,-0.0563932911022,-0.0796258722796,-0.140885992612,-0.0616593406362,-0.0647136883498,-0.0627594925837,-0.0619990583469,0.0354147139336,0.0271540885732,-0.116802468653,0.0659018681207,-0.013578952894,-0.0924267648478,-0.090991923241,-0.0332502405233,-0.0401362310914,-0.121729402994,-0.0113515463583,-0.0736019775031,-0.00782487430993,0.0192971588487,0.0304740149852,0.0240425791192,0.0565713064507,-0.0242745026173,-0.0405989099953,0.0474351595771,-0.0155208761682,0.00788756246008,-0.000227585922327,-0.000843697480042,-0.0319705753567,0.0840961781543,-0.0419827041816,0.0575755686997,0.0344962178926,0.0334095248728,0.0112433641821,-0.0614147213341,0.0174047553355,-0.0646181955235,-0.016163015065,-0.0464140406812,0.0272747573578,-0.0940517256739,-0.01395027675,-0.0858941180304,0.0904461224542,0.0182406808882,0.0607728943452,0.00407721081324,-0.0633667639602,0.041799211431,-0.00996453188379,-0.0666394039172,-0.0129439432816,-0.0222780050468,0.0253926177648,0.0539006187729,-0.0432887313497,-0.114851652067,0.0683788661727,-0.016690108838,-0.122877703946,-0.0479383598213,-0.037020678561,0.00568342404491,-0.0736762126834,-0.0103947116761,0.0335385300465,0.0348356616559,-0.0213868880237,-0.0968471930174,0.0529936044689,-0.0555676301167,0.0879274840166,-0.0022236348852,-0.104410891977,-0.130263200314,-0.00231496432744,-0.0238564778933,-0.0830675016084,0.0289971819856,-0.105643181593,-0.0564006075282,-0.0511781381708,0.0732735420984,0.0145902015802,0.0580426442639,0.152338799892,-0.0761828770661,-0.0631310347699,-0.0795217002188,0.0920016982948,0.015842646995,0.0432374089641,0.00311935224983,0.0146850921637,0.0628984466111,0.0117321538422,0.103425538716,-0.0502968414405,-0.0580262692041,0.0841230379673,-0.0651776303668,0.111275090282,0.00800998191164,0.043895795698,0.0263140975336,0.0341638229295,-0.070100932552,0.0975225020502,-0.00387055193574,-0.0282228293921,-0.0994450593887,0.0429824921208,-0.0201061784432,-0.13225821675,0.0169078901546,0.08712496923,-0.0592484533134,-0.0643046302715,-0.0953291224679,-0.0287287982055,-0.192588639238,0.056290475672,0.122688741616,0.0434489082516,-0.122935523539,0.0353774656948,-0.00380086791161,-0.0805541702003,0.0342318249447,-0.0500520543553,-0.0120993587159,-0.0965378406037,-0.0831929291753,0.070745353166,-0.220979603481,0.0563259337776,0.0776706406873,-0.073804663357,-0.137964016408,0.00666276650627,0.0110045494982,-0.201742846332,0.0256613929631,0.066382375579,0.0558522864752,0.0669694236313,0.0179840563733,-0.0410695679986,0.0485517312968,-0.108574734434,-0.0504033508971,-0.103568690241,0.0842788075661,-0.0472524023159,-0.0307677706303,-0.00463881668268,-0.0388741848254,-0.10498878404,-0.0716156997218,-0.0909856382994,-0.0956592967138,0.0492229633036,0.0969057371861,0.013517697348,-0.0927711173287,0.0352153743421,0.0553109482181,-0.107548007335,-0.0622835712714,0.100670874468,-0.0667649308841,-0.0208346332682,-0.0266488422663,-0.0979310859271,-0.0257130260409,-0.116326864164,0.017788583166,-0.125848763242,-0.144946500221,-0.0439809753514,0.0835187501558,-0.0426182343876,0.0135985543239,0.0817354028502,-0.040315178973,-0.0930144426403,-0.0634850958409,0.05592158713,0.0488786840468,0.0296978576813,-0.137319439967,-0.100219104807,-0.00630207124311,-0.0900364159964,-0.0182541398936,-0.014617757136,-0.0706231907615,-0.0834394077864,-0.0671741819429,0.0519021536292,-0.135233819882,-0.0773667962167,0.0495291179525,0.0895133842434,-0.107754077946,0.0109519788214,0.0544196926442,0.0265855676529,-0.0905881572792,-0.0286424221348,0.0781584661232,-0.0901546878457,-0.0862182117857,0.0886453161173,0.00568446616305,-0.0450466337891,0.0484307679555,-0.0626752706828,0.027039944489,-0.0905534291744,-0.0173336682387,-0.0976738211371,0.0790136341693,-0.0809791957142,0.0946087494076,-0.0615124260294,-0.0273163442172,-0.055584068932,0.0480893321071,-0.0551897706339,-0.0591122598549,0.00852222373389,0.104358807134,-0.0275812827178,-0.0800240375885,0.0548120490127,-0.0894369275219,0.0351705922518,-0.110822596268,0.0948566936196,-0.0570681561234,-0.00760500225681,-0.00879342889172,-0.0978748040629,-0.11289640215,-0.116518141099,0.0913099152728,-0.0568749879365,-0.0276617071653,0.10554592638,0.0289882123999,-0.0125020573735,-0.0352699839028,0.115903867586,0.100266047352,-0.0860327282627,-0.0460833013595,-0.0864491321793,-0.0323293083401,-0.0102541369019,0.123773102901,-0.0805275751095,-0.0102094266054,-0.00486757468086,-0.155361978033,0.00548049074079,-0.0634307749551,0.0316686485927,0.0565565497667,0.00362353751333,0.0280926323813,0.0905783966756,-0.0466509482563,0.0134782573634,-0.0536256921942,-0.0477809555093,0.0292516605331,-0.0334771384717,0.0881331668807,-0.0536265358095,0.0108565948033,-0.0429279649007,-0.000525461948826,-0.0206592391945,-0.0469204909196,-0.1008689432,0.0328783960533,-0.0598604305999,-0.116683293133,-0.0842555021635,0.078460038604,-0.0646318951614,0.0443335463334,-0.0475912855794,-0.054726500147,-0.037623098538,-0.0695536889304,0.00662805819697,0.0114743968497,0.0875232969743,-0.0129564549683,-0.0914336580349,-0.125820897604,-0.0857964441516,0.0212745267659,-0.11056025226,0.0235289158937,-0.1187674175,0.042054647568,-0.0281408019892,0.0326235090143,-0.0921977178155,-0.0638854034903,-0.0906515105178,-0.103471908057,-0.132111531363,0.0330105345982,0.041181859439,0.0595116202677,-0.035961589995,0.0311183214584,-0.0754852147813,-0.139756310566,0.0478566762408,0.0519284236123,0.0525737697089,0.0251148594634,-0.0474737516948,-0.12009118355,-0.158894024549,0.161905613274,0.0303206587828,0.0523810027412,-0.0640412381916,0.0374253601513,-0.163510838016,-0.0434298482057,0.137114125425,0.0730268107193,-0.0745831342981,0.0186023640678,0.0405358276832,-0.116017239545,0.00337233887257,0.0262229670491,-0.0704012270257,-0.0501866807793,-0.0140421408294,-0.0941519179496,-0.0441297693798,-0.043046143131,-0.0181482692101,0.034666942791,-0.0436570163708,-0.0573665991637,-0.0983624767142,-0.0767355244771,-0.00565079089479,-0.0390638439619,-0.110053198126,0.020156323729,-0.0287650366247,-0.0580676623641,0.0765915343392,0.0727428490163,-0.0924445816875,0.0555496748694,-0.0541110757504,0.0937730404704,-0.0640419970421,0.0576379282818,0.0939136631655,-0.182831599513,-0.0814991338631,0.045356551578,-0.0139295398326,0.0256665129387,0.0865200190117,0.074098369226,-0.0404507840928,-0.0922287202938,0.048030936768,-0.0673593697696,-0.100842721187,0.0408909057366,-0.0234116809319,-0.239149109747,-0.139817738036,-0.045070619133,0.0179421309477,-0.0294085819933,-0.00105769434222,0.0795520103729,-0.222442751758,-0.105412909407,-0.0340671551047,0.0580313519061,0.0643476379991,-0.0814076908542,0.0446157904359,-0.0654687266547,0.0219299354223,-0.0153100030935,0.0587058322444,-0.035715073359,0.0608560416166,-0.0583158889419,0.0635275386948,0.0627253236145,-0.0350488080321,-0.0136249999429,0.0230495010343,-0.0511813819278,-0.0401395719263,-0.0255828077343,0.0225007891135,-0.106314673496,-0.079561816526,0.0457855054544,-0.1158015457,0.0366751178998,0.0536223697685,-0.000944058710419,-0.0217448055542,-0.044551235089,-0.0797395038126,-0.138265339793,-0.147843886283,0.068861359733,0.0260592931759,0.0104550631691,-0.043500069782,0.0333732844964,-0.00925023561439,-0.107338584688,0.128342009756,-0.00701418438389,-0.101142750654,-0.0693476745831,-0.0112133410589,-0.057951500962,0.023249903201,0.0382816874523,-0.117677939568,-0.0488513959359,0.00796961791258,-0.0282539271439,-0.114710401659,-0.0880858574868,0.0497205143442,0.054881548081,-0.168121659825,-0.0294168813432,-0.114614208724,0.0793541700999,-0.00659453460993,-0.108177226923,0.0711874853532,-0.0108963611498,-0.104017399732,-0.0169617999912,0.000914646620263,-0.112148784548,0.0308322360051,0.0732547999866,-0.108496721349,0.0596716293033,0.0390029812366,0.0153824243909,0.0722822009252,-0.00420620640719,0.0113760460455,-0.0233263806361,0.0804459211103,-0.0350044368049,-0.00913261964294,-0.00567948407258,0.015090068223,-0.0695705201952,0.00691545617677,-0.0476533699211,0.00105220220525,-0.0921509264867,0.0273273874602,-0.0202305812181,-0.058035806515,-0.0688047337966,0.0634230782054,0.0994427194364,-0.0916621744326,-0.00447268879261,-0.0823345190226,0.024300942152,0.0529297158098,0.0393525661688,0.082900178113,-0.0100791039205,-0.0989426301718,-0.0263202069642,0.0131260401563,0.0211620466501,-0.0994245025628,0.0142251920878,-0.145677210218,-0.0587744613228,-0.0138788224954,-0.0115460431534,0.105047173724,0.0327969201478,-0.00642276330101,-0.120748933478,-0.0573865465086,-0.156275453708,0.0471948550162,0.0429294375456,-0.0623672775575,-0.0358481253177,-0.0142711565788,-0.057522984894,-0.158579456188,0.0485903298705,-0.0919299988699,-0.100644487536,-0.0961804262608,0.0138449320038,0.00501907389674,-0.0574342014334,0.088337064487,0.0272411751873,0.0466288894171,-0.00352701392564,0.0643678815863,-0.0911584042337,-0.0979466275574,-0.0454821145598,-0.0476217547333,-0.079007375361,-0.0148852676537,0.0503468870293,0.0378798591864,0.00104603862445,0.0320812515555,-0.0352430163039,0.0105807933919,0.0308985177347,-0.1024132192,-0.0709012274476,0.0407343101934,-0.0121355094105,-0.122231303752,-0.00872480199023,0.0193199834543,0.0590130127543,0.063674578623,-0.0547035761275,-0.0408725091203,-0.0981443741309,-0.104178369029,-0.00679841607995,-0.00115973467161,-0.0650960086197,0.0428185672188,-0.0641627203174,0.0572272203182,-0.0694764659588,0.00248200661449,-0.108933400298,0.0658286907083,-0.0268911298349,0.0460950376289,-0.0240040926656,0.0229792600415,-0.0943591082337,-0.0435230974579,0.0462305386878,-0.101113536831,0.0416667205924,-0.0232690279087,-0.0714892982374,-0.103503696248,-0.112131528804,-0.0370436354094,-0.136205048576,0.062389946188,-0.0307479572531,-0.0447475487576,-0.0374415535688,0.0388276030074,-0.0679066761223,-0.149814596267,-0.012994573557,0.0634978413358,0.0951671310447,-0.0607555519744,-0.0305532444539,-0.0109482610553,-0.154823710855,0.0183728136773,0.0977016031703,-0.0323053341756,0.0771739202627,0.0432870682267,0.0467756130788,-0.0691764234156,-0.0329593333974,0.0278657003822,-0.0693505436766,-0.0708091047926,-0.0785181859732,0.0532574133136,0.00455369013341,0.0482419702291,0.0602506402515,-0.0837338551878,0.0249299465337,0.039261443104,-0.0789148833754,0.0609505425116,-0.0787081887581,-0.0307307326926,-0.0969690103646,-0.0210198436782,0.108038901364,0.0150806743988,0.140130753613,-0.0718022848501,-0.0636202212493,-0.045386563996,-0.0430676797008,0.0515295188237,-0.11305617793,0.125199506808,-0.14923654901,0.00355852085299,-0.00360739140512,0.00883434367966,-0.0372051403934,-0.127399192997,0.149392883459,-0.135575792321,-0.0621987121108,-0.111554277324,-0.00144538422648,0.0558835562226,0.0233162349053,0.0744615825291,0.0486873472674,0.00176719353322,0.0918709899005,-0.0426586038109,-0.00872828681433,-0.0150089999713,0.00267323833031,-0.0716535511716,-0.0747486189201,0.0903738454063,-0.0617878785471,-0.0506061302268,0.0256136533969,0.0365783280611,-0.0541401314249,0.0584205605796,0.069898294053,-0.044070182126,0.0547270973997,-0.0376228011276,0.0130301510112,-0.0914592632934,0.053703344515,0.0433572168426,0.032428208091,-0.0756626827386,0.0683153377143,-0.144259227989,0.00462417863783,-0.0965203830879,-0.102250002291,-0.0979890515453,0.0656026482177,0.0726127220521,0.029478674665,-0.0343530641274,0.0628148282514,-0.076745593426,-0.0270344990798,-0.127115175407,-0.037921222778,-0.00162090533098,-0.0329819221912,-0.113851844489,-0.111558707672,-0.0345240401778,-0.0845184338641,-0.028554331458,-0.118325191964,0.0282081359831,0.0709032826369,-0.0376460831002,-0.0808163099771,-0.0108300670283,0.0873067695311,-0.0713817232212,-0.111937307878,-0.119093710418,0.084106366788,-0.0137769908339,-0.0130933818942,-0.0688411901878,-0.0515015592845,-0.0449942057862,-0.109530175076,0.103768073947,-0.0289153179982,-0.158621375533,0.103307074039,0.0399139829755,-0.0891764738162,0.0770022104902,0.0857338265565,0.0484039347765,-0.0170148379015,0.111018792878,-0.0101870307849,-0.109311431111,-0.0743154301969,-0.0185791535428,0.00879874697951,-0.125527935601,-0.070937064047,-0.0548040522708,0.0969255024101,-0.0942818736365,-0.0902556073506,-0.0885228510503,-0.0346268251306,-0.0226047186488,0.0318895090037,-0.00273553866345,0.010812435252,-0.0648204984661,-0.0539353982488,-0.0591463615696,-0.0282059172542,0.0518106818145,0.0621671601155,0.0660002203773,-0.055171950626,-0.00710449437542,0.144003411469,0.0173746213089,0.0253166759414,-0.061181055774,-0.102958252972,-0.0368637237555,0.0469636434664,0.0844303367626,-0.0367536870957,-0.0919433900073,0.0504467979428,-0.0359382131053,-0.168962742246,0.0405156210953,-0.00136913527242,-0.0250673359377,-0.0831660639594,-0.0170143587856,0.034009591171,-0.113183335613,0.0216430342252,0.0211023332747,-0.130551063478,-0.0743368961216,-0.0313278764462,-0.105186285966,-0.0225621718252,0.0496815073614,0.00976768508264,0.0167424512266,0.0800589316214,-0.0343038203061,0.0676854350691,-0.0938643741073,0.0504173578279,-0.0579524579461,-0.00890593989122,-0.102168582439,-0.0148299519919,-0.0379614794875,-0.031337826876,-0.107973408064,-0.0356340348838,0.051660488075,-0.0122781345724,-0.0213187518362,0.0179057611775,-0.0394679661485,-0.0763676828896,-0.037818137057,-0.0930045888405,0.0383125327767,-0.044723472162,0.0522737285905,-0.0263166600425,-0.00491254410821,-0.0248870174279,0.0785261945948,-0.0550532006558,-0.10663384656,0.00446664979259,-0.0617192677824,-0.00310672533946,-0.14733305353,0.0783033865206,0.000104756901879,-0.000410123711268,-0.0626641991347,0.0373128167329,-0.00133114990385,-0.00465121885796,-0.00809768938423,-0.117292018205,-0.0327076572075,-0.0444314603991,0.0240593217334,-0.0566710845683,0.0251347354016,-0.102914501719,-0.15407385318,-0.0341996206347,-0.0343413462193,0.000892048094789,0.027074670946,0.0107209913269,0.0174994031427,0.00749834575844,-0.0180736122298,-0.00427698946125,0.0291704503056,0.0491970502797,-0.0816472199694,-0.000980535536505,0.0329606075121,-0.133057854029,0.0554850835894,0.02443718329,-0.0234006507349,-0.0705904973352,0.0014898907329,-0.000125930546488,-0.080061924004,-0.0062707828318,0.032713489723,0.0291572641059,0.0577769582833,-0.0347819432238,-0.104536339912,-0.038607848636,-0.0130208404491,0.00479498277794,-0.0927130880137,0.0864053864299,-0.071583135555,-0.0607610626519,0.070181658983,-0.0659835092745,-0.146202065573,0.0211009437306,-0.0281670784676,-0.0588271352387,0.0878830412408,-0.0256977188063,-0.151501315786,-0.107403309238,-0.0223262940723,0.110177278504,-0.062011350783,0.0359145404486,0.0692206670449,-0.148974682552,-0.00205883158406,-0.0067158471293,0.07023023589,-0.169818083295,0.0347398964887,-0.0067004636745,-0.16632346661,-0.180334021759,0.0541740081907,0.148059902625,-0.116971341469,-0.030081214085,-0.0428281800903,-0.0282680989812,-0.16014775309,-0.103224766765,0.11956299417,-0.046548694636,0.0658336702259,-0.114628787351,-0.0250333487119,-0.0749527180111,-0.0999823270272,0.0600338101305,-0.0786324641976,-0.094549059918,0.00804627197145,-0.0606482692184,0.0158037692335,-0.0870161018284,-0.0835281194355,-0.0899838515087,-0.0992617691779,0.03643469729,0.0741332423883,-0.025916591493,0.048740858576,-0.0215655007794,-0.0731665329371,-0.0921462609606,-0.0875499606839,-0.0103457142468,0.0350686387033,-0.0387672132083,-0.0646186772276,-0.00170491386311,-0.0842146777741,-0.0471137490141,-0.0303970505176,0.014265210149,0.040522830889,0.00362717724614,0.077761803672,-0.140039578012,-0.0347488472047,0.0656157202784,0.00238414303585,-0.111259097156,-0.0216183215547,0.0703318232009,0.0107675859237,0.0449108374343,-0.0281467201222,-0.07054725841,0.0536579140514,-0.0945290007932,0.023131106156,-0.0425744785751,0.0064698702466,-0.0620682281208,-0.0976170701491,-0.0277271247679,-0.142823347302,-0.00361327866892,0.00925511718796,0.0565143017337,0.00908053952049,-0.0669632348215,-0.0180227930174,-0.0207649018251,0.081260314683,0.000944538918992,0.0400446575983,0.0317705972212,-0.144973482035,0.0147782393353,-0.113140439203,0.0243327363461,-0.0140102226728,-0.0728472393333,-0.0429755679436,-0.0219075281507,0.0530249000305,-0.127337190877,0.106612938296,0.104867902406,0.0181803388095,-0.0105728305747,0.0232940002089,0.0222593153332,-0.0766309801175,0.0081338033338,0.0748100439269,0.0774363635229,0.0265847697632,0.0561268242666,-0.0571889622834,0.0540176050412,0.0183996262779,0.0318968793284,-0.0895771489327,-0.0661948422514,0.0459091635215,0.0211159028424,0.0250199332753,0.021833429338,-0.132444742607,-0.0070484305012,-0.0788703068644,0.0586854790817,-0.0289715058686,0.043809526669,-0.0049185678322,-0.164650146999,-0.0338571284394,-0.0539149230606,-0.0479290588434,-0.136800532618,0.140480510345,-0.0208288345414,-0.132533336462,-0.0637283010516,-0.0912640549312,0.132288078797,-0.0941882765199,0.141944587792,-0.0959658018254,-0.0550359923997,-0.0885748045249,-0.0238310879979,0.00821866419993,-0.126082847149,0.0508415257774,-0.142454728854,-0.124584692837,-0.0142082776196,-0.0107136569283,0.0248675122493,0.0127741027851,0.0181138207107,-0.0953126735489,-0.0545005227453,-0.00508595002719,-0.0510953371607,-0.0978849998268,0.0161113237486,0.00555497293987,-0.0464033694818,-0.0165430112185,0.0414651240132,-0.00538165813117,0.0113786155051,-0.00273056944439,-0.0593062346174,0.0833218782315,-0.0765312703104,0.0557484858237,0.0170319206194,-0.0927090663192,0.0343194413402,-0.0218384160231,0.0546200124289,0.012206571874,0.0744332190679,-0.0795702539641,-0.126472960121,0.0642748545373,-0.150365223872,-0.0771882472215,-0.0152365350823,0.0280748521456,0.00591295391779,-0.00673424328166,-0.0837688265056,-0.0959047101871,-0.106017765772,-0.0173388769318,-0.0933225002382,-0.0796138642534,0.0469307031769,-0.0113213511046,0.024739914371,0.0315601191946,-0.030301284064,0.0642063827734,-0.00597255167081,-0.0467007867191,0.0777051255304,-0.0649825140172,-0.0636691045052,0.00377308158673,0.0328938559819,-0.163163354733,-0.0289039498004,-0.0214257668629,-0.107989561552,-0.124987974502,-0.0642805051202,0.00829742065346,-0.127273284665,0.0790631713236,-4.0394294823e-05,-0.0440163295035,-0.0248336029792,-0.0317426747315,0.0337198665713,-0.117318545413,0.0682801389268,0.0155733675149,-0.088994954895,-0.0160340458074,0.0332658058463,-0.0816997108446,-0.119416419415,0.0175882763052,0.103851969435,-0.0760180539114,-0.0163829391938,0.0595773757283,-0.0900746385599,0.101708610316,-0.0150640658484,0.0084001679383,-0.0721499648748,0.0461969724294,0.0369195462182,-0.0479379792366,0.0186047750029,-0.0677951106395,-0.01434443019,-0.0518720916099,0.0581922313743,-0.0846291398114,-0.00137831939238,0.0387733595011,0.0143308136783,-0.0797046799502,0.0359690164946,-0.0707820787566,0.0813655273512,-0.154481558959,0.033364654883,-0.119725110277,-0.0902071008599,0.0236769353341,-0.0397720254637,-0.0747274938271,-0.0312128563137,0.0386714956028,-0.116930843056,-0.156889071215,0.0793949346115,-0.0191707473615,-0.0517660267895,-0.0676367412796,0.101760192105,-0.150226024321,-0.00179282361591,0.0711161673867,0.0988201673521,0.0841290449222,-0.0818475615912,-0.0384296917879,-0.0807241800369,-0.0705716991884,0.0560010479121,-0.0860181897184,-0.0497943008655,0.0274337786404,-0.0827956898152,-0.0105760312351,-0.0576892104734,0.0283910069678,0.0362885687057,0.0394486571669,-0.0284848670095,-0.0355216937565,-0.0672988357672,-0.0442997235875,0.0703137637268,-0.117324073691,-0.0130199523654,0.0389405864043,-0.0976072354345,0.0095557789639,-0.0156160726553,0.000726432500745,0.0546987812658,-0.0921533422776,-0.0052415282305,-0.0659630420955,0.0555314461719,-0.0857704700542,-0.0780209557579,-0.0959532352153,-0.00527135386872,0.0108523495118,-0.0804350979065,-0.0181247666147,-0.0540600674446,-0.0864236800984,-0.136460606519,-0.0706284226326,-0.0883415647077,-0.0242346720995,-0.107796702323,-0.0229445993442,-0.015866430731,-0.0756269857124,0.0426923611899,-0.084633976935,-0.0690797815223,-0.108301132698,-0.128578334553,-0.141659749803,0.0152865389816,0.0804525974842,-0.0825777482861,0.0147608280597,-0.138498866087,-0.0065083080968,-0.0316222224262,0.028994026713,0.113230327338,-0.0324416613572,-0.106457839343,-0.154255327789,0.0932902943492,0.0795667212505,-0.0262026984262,0.0239370229792,-0.0127615443699,-0.0509975330141,0.0462828213715,0.0936880541586,0.0846247162047,0.00704216238382,0.0402082525062,0.0357935797525,-0.116878818872,-0.03641550114,0.0680998403742,-0.0869957343102,0.0686388987919,0.0912345593785,-0.0183813584074,0.0357970890609,0.0361575864796,-0.0301849014447,0.00990836243426,0.0597644094254,0.0299687601098,-0.0725306994881,0.0162507207882,0.0138782543835,-0.0480902912357,-0.0836656771532,-0.0249701296757,-0.106878802084,-0.0491396014413,0.0393146002962,-0.0555069987172,-0.0271756972605,-0.115667018199,0.064383803425,-0.120607582704,0.0753131545984,0.0203334116614,0.0636366197087,-0.12581566565,-0.0295377794196,-0.00273748856079,-0.146126978562,-0.0482775375678,-0.00502073509772,0.0363857830142,-0.128503712543,-0.0727409774107,-0.0771950261271,-0.0991522748715,-0.0208521995545,0.101646940164,-0.00835076334879,-0.0474197922158,-0.00505535011102,-0.0706017120136,-0.174965332462,-0.0535105130418,-0.0933361256474,0.0671396320025,0.00537802875113,0.0122542569597,0.0136172725063,-0.0603627955874,-0.0768502730108,-0.0332872270927,0.0104030367792,-0.00450425504641,-0.0416579584171,0.0453477062904,0.0860443746772,-0.0224411268304,-0.0181094611222,0.044856036308,0.0743400131158,-0.0476923462139,-0.084013116665,0.0449487644621,0.00101093170464,-0.019043511481,-0.111193812499,0.0526456584294,0.000680164296042,-0.0292457951701,0.0853160500633,0.0131495142877,0.0304061306934,-0.0696706462795,0.0187278750753,0.0429748547905,0.012690111674,0.100616599428,-0.0468088110029,-0.0684897178716,0.0162387299263,0.0590922142898,-0.0769335007507,-0.043202096186,0.0574832254474,-0.0444731406609,0.00664650756533,-0.000133776534682,0.0202366037237,-0.0819653877316,0.00368939938803,-0.0714111112014,-0.108649002914,-0.0319413854334,-0.118304928395,0.0294013529235,-0.0804835495336,-0.0562720943276,0.000210417009068,-0.060619262513,0.0209050170097,-0.0137572394723,-0.037787474808,0.133590889419,-0.026046406536,0.03771207337,0.011565610173,-0.108794347158,0.0189000074278,-0.0786261686442,0.113628118794,-0.104360226328,0.122989202523,-0.150737859808,0.0429830161495,-0.0933285407522,0.0359081610454,0.103625421997,0.0157875987448,0.00805233927216,0.0091921246055,0.0229989210171,0.0642477621109,0.0590429264784,0.0680591675689,-0.000899028068827,-0.0185878861275,0.0819069652033,-0.0913880700897,-0.102775290289,0.019805200022,-0.123198618291,0.0674784902087,-0.0639934670725,0.00379065097475,-0.0349338055935,0.0917882760657,0.0439720648016,-0.161160704797,-0.0500264756509,-0.143645353411,0.148330064274,0.0288095954824,0.018425601141,0.0703401469178,-0.185588615602,-0.0815467366211,-0.15721002325,0.0508930965455,0.0276493378327,0.0439805823604,0.0291413818206,-0.12328641399,-0.0762804417899,-0.0162361309217,0.0231360501443,-0.092338638875,0.0135477069357,0.0778650728452,-0.190802389477,0.086844961964,-0.0643511924372,-0.0471258389226,-0.100870330485,-0.0341871299942,-0.0477822897233,-0.207043395909,-0.00397446187898,-0.161476132258,-0.0376716596448,0.0825078054168,-0.0569804175736,-0.0263919952205,0.0200745933005,-0.04678963793,0.000689405936131,-0.0753913573151,-0.0204141662872,-0.116851351304,0.0563103832796,0.045665864339,-0.0788092339711,-0.0907669745772,-0.0630381577419,0.0698664795838,-0.0204392929325,0.0209150008916,0.0838806252168,-0.0365207112983,0.0261974112764,-0.0728850602655,0.0353541999592,0.0482459189528,-0.116050236963,0.000682768816328,-0.000465333740613,0.0728338641518,-0.141480814216,0.0166432503187,-0.0586744846165,-0.0607342007413,-0.0106644027226,-0.0126323843546,0.0119652858968,-0.0381683625047,0.0287399453391,-0.102983990728,0.0269586025858,0.0164984574624,-0.065157478413,0.0443745977934,-0.143895381163,-0.0321190455758,-0.112502162187,-0.0182307218645,0.0163134630221,-0.0438663322112,-0.0497452959818,-0.131560482552,-0.0117330657932,0.0310776568699,0.0159115671468,-0.083461770573,-0.0962811519937,-0.12661455114,0.0191063459722,-0.0844692163718,0.0343669258504,-0.0547779502573,-0.0176120947432,0.0810901011466,0.00868807272554,-0.11327138904,0.0827531588309,0.0417361793918,0.00557054523579,0.0291056680071,0.0153824252183,0.0233252636165,-0.0412615003371,-0.0792541968272,0.0788482218589,-0.120466861415,0.0269962920336,-0.00102645654389,-0.0331807983868,-0.0399699735003,0.0923319308919,0.039234862941,0.0121596028626,0.0666453852648,0.0144386310384,-0.016710616967,0.0936866543772,0.0390184383574,-0.0291171136057,0.0197918994658,0.00730425358864,0.0283714673498,-0.0249684487595,-0.00326068431844,0.00917378228119,0.00187066991048,-4.85526301254e-05,-0.104234601581,0.00859300000046,0.00579265402691,0.0789165556643,-0.00625787240165,-0.0633053558243,0.0601597338028,-0.0637679899833,-0.0544506213981,-0.0577410104233,-0.00087688496709,-0.110469605069,-0.0192087481601,0.0665927402909,-0.101719957309,-0.0943745438153,-0.100224888852,-0.0560433410572,-0.126263636674,0.08560002946,-0.0774668150367,-0.154875867759,0.0376493086133,0.0241950191041,-0.102051386938,-0.0423137581927,0.0365454014701,-0.0800482501297,-0.0357507910448,0.0431739296849,-0.0625570933829,-0.0789616384342,0.0372063274714,0.0105160073001,-0.075023997642,-0.0145348820215,0.0164469909961,0.0884648751384,-0.0459471100574,-0.0229859818157,-0.0843221093972,-0.0322614784338,0.00997287967449,-0.0638391078721,0.0286961318376,-0.0510827478072,-0.0421978759642,-0.101385039605,0.00263405985866,-0.00852871028774,0.0327393457301,-0.104200469535,-0.113064192227,0.0378914327952,0.0253632905947,-0.0438058589267,-0.00731742628351,-0.100123450829,-0.0643431385612,-0.0602254396927,-0.0757945580327,0.00464823873155,-0.126791747236,-0.079796788033,-0.114004981914,0.0673190404618,-0.0376841674879,0.00112510305597,-0.113849673952,0.0350807719129,-0.0150911835352,-0.0585292402622,0.00449702320435,-0.0473996805493,0.0246547020999,0.00395744172072,-0.0716482191923,-0.0270619388474,0.0555756392604,0.0358789004931,0.0117137685604,0.0381531088021,0.0253076052287,-0.0993846892757,-0.0285507436892,0.0219793822102,0.0245562455118,0.0293614711657,-0.0884464868634,0.00864029706274,-0.156043836195,-0.0752922217936,-0.120223363187,-0.0941533669336,0.140190039146,-0.0411352713148,0.054571920155,-0.16592870114,-0.0896969928791,-0.068058991517,-0.0981378923536,0.0964521296319,-0.063139930032,0.056957699379,-0.0703504827034,0.0649267537401,-0.00402144947219,-0.118251127674,0.0503170118871,0.0443691803337,-0.0140404730635,0.0360012806811,-0.0206251031485,-0.0495414358544,0.0406888269156,-0.133378302558,0.0111317395557,-0.0742965957241,0.0863354877849,0.0669514264023,0.0280757874353,-0.0414587275235,-0.108025058418,-0.0564770243754,-0.0624841394048,0.0623260867115,-0.087333620841,0.0782217613474,-0.0238830962389,-0.167868194839,0.00812889081888,-0.0638397919306,0.136702374534,-0.16220712197,-0.035923116834,0.0765285885831,-0.0673750740418,0.0539112854707,-0.206059552954,0.106573390491,-0.161867555178,0.0598762196676,-0.0377832140034,-0.194344446702,0.0761823809564,-0.195906739292,0.067742812589,-0.0248713541727,0.066782524679,0.070526149177,-0.153603400396,-0.0585845704488,-0.11850270886,0.152595416225,0.0218691032555,-0.0438773756133,-0.00544206233591,-0.0189531246316,0.0606871655723,-0.00200556065817,-0.0079098440468,-0.00522031438436,0.00203100443386,-0.0172257345797,-0.0535847458486,-0.0571820461379,-0.0623864591865,0.000881609444775,-0.0280080270134,0.0273203405327,-0.0260844133566,-0.00831315987209,0.0346719482614,0.0208706266848,-0.0896323500711,-0.0543147502062,-0.0904608628218,0.051918497177,-0.00150181733431,-0.085813608999,0.0693590271016,0.0153981838365,-0.0771988445203,-0.0346904681202,-0.132968130685,-0.0799550251434,0.00325992818231,0.0810841848767,-0.0248546199491,0.00395572802745,-0.000877475006302,-0.0239603837199,0.0355162185296,-0.0412918634743,0.00598884182106,-0.0409521260818,0.035958881425,0.00751815698456,-0.0462367027214,-0.0713054886837,0.0425874852824,-0.104385610193,-0.0833241482692,-0.0577033951559,0.0179549698213,-0.116446436949,-0.0823494748567,-0.016063402605,-0.12091152118,0.0112453987148,-0.0345091615995,0.0430140719037,-0.0855335866574,-0.00858375681465,-0.0010892939134,0.0351930445729,0.0225035629697,0.082903896387,-0.0640903900709,-0.0765140113881,0.0430327749381,0.0209159658106,-0.0654790626123,0.0883110244424,-0.0813077190948,-0.137452945759,0.0183736192509,-0.0529428413901,-0.0840623111588,-0.00295878227931,-0.0132207865336,-0.038165953918,-0.156874123842,0.015801794834,0.0648666927263,-0.0957499006547,-0.0990991841854,-0.0430475242969,0.0418181518337,-0.0241642218469,-0.0760172582968,-0.00606451051219,0.0684837893184,0.0127431153878,0.032632504462,0.0194985715806,0.0655009959404,0.00181253319869,-0.086703853646,-0.0291836397491,-0.03417251344,0.0507175903776,-0.0484876399088,0.106220363472,-0.00383276961257,-0.0929893231067,-0.0297233200296,0.0176211509511,-0.10598547484,-0.0182186241548,0.0253246983658,-0.0517104541637,-0.0911062979946,-0.0119328172133,0.0630414249885,0.0147535329007,-0.0779227015922,-0.00852886952393,-0.0425871114598,-0.0306227566851,-0.014132045526,0.00222051122465,0.038332617888,-0.128739472024,0.110464478493,-0.0624360696264,-0.113048396032,-0.0380156161225,0.0947183687004,-0.0395007826774,0.0307478563255,0.0365908883573,0.00262170042127,0.0940409090869,-0.0433310855347,-0.0646307363666,-0.0547263732328,-0.033473890489,-0.0971303064026,-0.0237620759453,-0.0794675318122,0.0288450971581,-0.0332352840451,-0.0165174708933,0.0491843203924,-0.0355413502626,-0.107560728534,0.0683748064615,-0.00052920431801,-0.022131417672,0.0846534598572,-0.0927444373965,-0.106181834462,0.0148848715265,0.0676157716805,-0.0202542880404,-0.105238505757,0.0326371986686,0.0288910204737,-0.059130423673,-0.0345012210914,0.0326180360716,-0.106006426314,-0.0598311640609,-0.0336751540328,-0.0840470056986,-0.137166486883,-0.010160611418,-0.0936107795986,-0.130211883957,-0.0260042025501,0.069420001049,0.026313360692,-0.0738377325282,-0.0187910055544,-0.0737421935955,-0.13413468448,-0.045947764349,0.0575873676136,-0.111429481497,-0.126879950162,-0.000944040604881,-0.117070851764,0.00638743249914,-0.127969877327,-0.0670662826412,-0.117846777231,-0.102337821578,0.016743277587,-0.135743270624,0.0620284002057,-0.0623796560123,0.062201703681,-0.0508800878358,-0.00115599824608,0.0346722277972,0.025253898709,-0.0765572483292,0.00841132199851,0.0288059886785,-0.029883052779,0.0277209223191,-0.0548855599818,-0.0351302577112,-0.0655117886186,0.0196164453863,0.0496903187639,0.00621619528288,0.0588197377862,0.0112977426545,-0.11249356663,0.0716804242879,0.00593697321284,0.0188675409674,-0.0226842479902,0.0696313391347,0.0138426632364,0.0446912774726,-0.108091660696,-0.021123920614,-0.032740482136,-0.0673897047162,0.0463667832878,0.070405550742,-0.0258295475824,-0.00461858171668,0.0402744176922,0.0100949534089,0.00247553809714,0.0133356702846,-0.0307818995875,-0.0727373721829,0.0559469385173,-0.064309759638,-0.134949022798,0.0866642857006,-0.0649911152519,-0.00417470900927,0.0829379430128,-0.0791116856081,0.0154475568773,-0.0994312064732,0.0262034036414,0.0040864729853,0.0428975685913,-0.0153730173872,-0.0242550174052,0.00648665860867,-0.0839398083006,0.00491027939059,0.0244354343078,0.0565582954324,-0.0350705332453,-0.0339181242029,-0.0440703846003,-0.155130791562,0.0449699286064,0.0446123698444,0.051863771116,-0.114634412328,-0.0959699036771,-0.106034962719,0.0493411729854,0.0601168722193,0.000735857855591,0.0176341366452,0.0411696087373,-0.0165409644855,0.0158632104223,-0.0368068816688,0.0184436223259,0.058318063313,-0.109158569804,0.0562265960897,0.0423902273512,-0.0740376664632,-0.035522060858,-0.0620482848901,0.0269614063271,-0.0711273330832,0.0621744037299,0.0224575291778,0.0628268715752,0.0815121242152,-0.131443320957,0.00564393872797,0.0314704354691,0.0493455698883,-0.0873679178696,0.0452757302465,0.088892268293,0.0268263892855,-0.0735821527705,-0.027149086598,-0.0688038048579,0.0509980650084,0.0556929345644,-0.0445056808594,0.0273147010002,-0.0485042684479,-0.0698511133153,0.0199265275359,-0.109334539218,-0.0458958562346,-0.0184583432905,0.00754334666458,-0.0687103257363,-0.0643107684531,-0.0449988837859,0.00975454574554,-0.0152427931037,-0.0712915464335,0.0317040252949,-0.113659367594,-0.136426172505,-0.077066009225,-0.0919636090244,-0.0586125334871,-0.0221964076924,0.0207083086248,-0.0924737569074,0.0296736702297,0.0525027697743,0.0508350270911,0.0162382754637,-0.0654646680223,-0.103800823848,-0.0597418774937,-0.0852319187601,-0.0450880718014,0.041786917889,0.066808918274,0.0174621957915,-0.0980852188028,-0.0364734145174,-0.118776348848,-0.0885850527517,-0.0530294607957,0.00833366435535,0.0871582571907,-0.0183574876931,0.0516444576371,0.0741650030206,0.0851091550793,0.0331314518384,-0.0748770646969,0.0740588920543,0.0680230553685,-0.04638227408,0.0766007124365,0.0693766917249,0.0402046903491,-0.0550676063472,0.026977606481,-0.0341956460042,-0.00891603649811,0.0684673683826,0.0562115300463,-0.145080032083,0.0744465359835,0.0651924468039,0.047687364631,-0.00322994605589,0.00757626769624,0.091925289887,-0.0198409597663,-0.0988180063344,-0.01608633903,-0.107901978578,0.0195014470708,0.101757661774,0.0291757651719,-0.0199805465077,-0.107118923085,0.0391458616966,0.00209924498271,-0.06659319282,0.0979119455456,-0.0337586036796,0.0297520017543,-0.0755428080789,0.028765565787,-0.151998583774,-0.0869509856505,0.00442148656036,-0.107570965967,0.00859393565468,0.054727374793,-0.0137769901637,0.0793001818244,-0.0826626883961,-0.0764455778952,-0.0105908957108,-0.034921903021,-0.0942533110678,-0.0353973734569,0.00647083109554,0.0683539968762,-0.0124275744198,-0.0243394841797,-0.094118037962,-0.067518862967,-0.101487886669,-0.0939977361431,0.0793959339578,-0.0104438356746,-0.0547182697417,-0.0741063003936,-0.0509345682788,0.00501761858179,-0.0632319767001,-0.0041065675867,-0.0797145966521,-0.00693440979418,0.044603319082,-0.0143693255034,-0.0204128418652,0.0767185114238,-0.0791412652809,-0.00278498415332,0.0544711692146,-0.0469334266234,-0.096387853529,-0.106243684666,-0.0883293425847,-0.019128768151,-0.055850023089,-0.149938042701,0.0462430514744,-0.0927150811004,-0.0414686594537,-0.00348202354775,-0.0781655641125,-0.0210717621498,-0.0225834149479,-0.0226890760777,0.0190934361663,0.00489677221233,0.00618101873995,-0.151694909081,-0.130983296311,-0.0260721597186,-0.0374624253843,-0.0267953604482,-0.000292138120554,-0.147502671477,-0.0692754493892,-0.00915707583953,0.0237793892916,0.0136512835639,-0.0884809606566,-0.00941632459097,-0.114804446388,-0.127482844863,0.0135536607644,-0.00425590204765,0.132768807795,-0.0468478726505,0.0437232870386,0.0711839825176,0.00647932887568,0.00303115594598,0.0834646488985,0.0128614717905,0.00286797647903,0.0846019521203,0.0448343063599,0.0407043130088,-0.00824468480333,-0.0714243130688,-0.0630476187018,-0.0781587196204,0.0633399615313,-0.0261602997421,0.10198076118,0.00811380075076,-0.0983122088157,-0.0772260999068,0.0398505025105,-0.0477911741078,-0.00470990896782,0.113757112718,-0.0503976642197,0.0776979374697,-0.0967510776827,-0.0419892857742,-0.0430546162297,0.0584596290117,-0.0310878588777,-0.0728148832123,-0.0298695669665,-0.0701775022308,-0.0640735157464,0.0391356733015,0.0233607867295,0.114954594448,-0.0728749070586,-0.024348629337,-0.0669083749707,-0.107689704402,0.00826369406541,-0.0488672441003,0.0437305419958,0.048016996338,-0.0886191805814,-0.116418814978,-0.137250792659,-0.0439363070322,-0.0367053765778,0.00567224600065,0.0163028415023,0.0117532164626,0.0118819426255,0.0736077470555,0.0325807974533,0.035824138672,-0.0222261355884,0.0360285605948,0.0501691143965,-0.056410302501,-0.0935778828323,-0.0450717751344,-0.0113932179329,0.0130398915019,0.0977784376083,0.0636427809582,0.0934274054888,0.0247861829771,-0.00180164163887,-0.059978666979,0.00793255579858,-0.0956319670643,-0.0709570237287,-0.0673127925222,-0.0541474939387,-0.0610036649727,0.049337796895,-0.0826452785168,0.0117143146193,0.0353896851863,-0.010134373548,-0.0870637649324,-0.0510866950977,-0.0434643012033,-0.0483178941378,0.0626499215212,-0.0599107070417,0.104895158908,-0.0921988064755,-0.0315325901057,0.0215440075062,-0.103271522571,0.0241004646026,-0.0528937428046,-0.0332446326727,-0.100129771813,0.0169303905465,-0.0656654924504,-0.0779730479915,-0.107247711183,-0.139223536754,-0.123169957884,-0.0447960225309,-0.0473530840954,-0.0362218058076,-0.111423899543,-0.00279524344394,-0.0155763909421,-0.0215628307944,0.0175301754887,-0.0401751911016,-0.0867836248144,-0.0278909858074,-0.0706231583231,-0.143789910628,0.0766135787274,0.0645856283078,0.0171675143679,-0.00847733486048,-0.0298982193353,-0.0527306665961,0.0401109284192,0.0570092350212,-0.0183530102182,-0.0900437892234,0.0418517050165,0.0932513039017,-0.0642305617992,-0.0137796957697,-0.065680096492,0.00212966990842,0.0486921475694,0.119683488726,-0.0737454766086,0.0897497372816,-0.0608586589508,0.0262335208979,-0.0904738687412,0.0812254820996,0.0092992713549,-0.0626835020661,-0.0672837785172,0.117689544331,-0.0670577440174,0.012168595695,0.0302735607196,0.0281442178839,-0.000176705418007,0.0778939240721,0.0245049075889,0.0124384908447,-0.0381058619332,-0.070947569763,-0.1529982926,-0.105155566829,0.0892738522212,0.0201943372066,0.00150672741907,0.0444792330132,0.0344041488822,-0.117750982688,0.0691287276574,-0.0503448650468,0.0881417007227,-0.0691017363878,-0.0626086247801,0.000885665055653,-0.00329853544303,0.0280265654394,-0.078918437544,-0.0448088603103,-0.0968369061478,0.0161870491523,-0.0993815454994,-0.0529593333979,-0.0329803928038,0.00899132319308,-0.0393457542668,0.0491394216633,-0.0912306723465,0.0151882400589,-0.0449776310493,0.0876846464047,-0.0447903924349,-0.0908937558618,0.0324233851259,0.0140281013448,-0.0979602154317,-0.0232907263318,-0.0924922734583,-0.010354709942,-0.104053065396,0.0684005078508,0.0194712432153,0.0324611907316,0.058653828288,0.0486186195941,0.0547569672659,-0.129000272832,-0.082851519014,-0.0294282874335,0.0296206708317,0.0158629438283,0.0554049644095,-0.0238319356898,0.00139854582713,-0.0918209380634,0.0440701799515,0.0118139014931,-0.0386217919014,0.0591906091671,-0.0325159055474,-0.124476123438,-0.0176531051952,0.0285547757395,-0.0509593530103,-0.064531842349,-0.0313800458356,-0.108679531463,0.0437376174025,-0.0710164561328,-0.0747707237765,0.0157331073891,-0.143023772311,-0.0727944295626,0.0141149403785,-0.0631209411628,-0.0519621909667,-0.0288268786263,-0.0564908074255,0.0133094955793,-0.12332332059,0.0516327907109,-0.111479319681,-0.0144459124172,0.0166883777201,0.00223816552959,-0.0433498600405,0.0670642534178,-0.101440221333,-0.0648052314419,0.0582698075438,-0.0309275962496,0.0361909991646,0.0635809175187,0.00516902836247,0.0396810210296,0.0138919396611,-0.0334949890995,-0.0458175144625,-0.0214148509655,-0.0647645606745,0.0171261440417,-0.0566458053131,-0.0990059689633,-0.00470918330851,0.0319672984276,0.0593341266987,-0.0594179212611,-0.0301968762781,-0.0326528575123,-0.0379190274748,0.0554715214417,-0.029448531308,-0.0718942772099,-0.0700748216836,0.0686713618742,0.017439501031,0.0400181322302,0.0335839209219,-0.0651338984697,-0.113087226242,0.0541745056582,0.029910420727,0.0446631412156,-0.00873791498,0.0209371267399,0.031573356274,-0.0520721273373,-0.0102911473067,-0.10147326577,-0.0934729920602,-0.0321283723916,-0.0532214207393,0.114123238247,-0.00769797037536,0.000756745262332,-0.0470740159223,-0.0847225776793,0.0261771644352,-0.0197254132366,0.00244994058383,-0.0477060524659,-0.0159921845977,-0.0452255961327,-0.0747100411944,0.0464462220462,0.0214003662811,-0.0407007094891,-0.0326447602926,-0.10862907008,0.00553484959623,-0.0951105519104,0.00407693376152,-0.0830634149878,-0.10734697362,0.0396751939167,-0.0151076825416,0.0794133434895,-0.0092207763706,0.0333860514347,-0.0607218379973,-0.117715560915,-0.0601443108232,-0.047133838376,0.0259930700509,-0.0606264118692,-0.042650619357,0.0632565080307,-0.0979338220177,-0.0310600279195,-0.0909498124816,0.0768062991827,-0.0427654268793,0.0631076909534,-0.0811591797975,-0.0310090263192,-0.0163673919667,-0.098518081849,-0.0703966304286,-0.0880004209336,-0.0655010296902,-0.0410134432363,-0.0140819261198,0.0205841712475,-0.0281853294515,-0.0510104764825,-0.076272860989,-0.0915043668349,-0.0787043947743,0.0403741544734,-0.0234259839356,0.00123952536081,-0.0134421774707,0.00978121511913,0.00665146199707,-0.0640874953225,-0.0851747430006,0.0362125499,-0.0541120422618,0.0321716630151,-0.0460950530017,0.00424391536023,-0.125821804909,0.0236771061847,0.0223040252361,0.025333452353,-0.091575148483,-0.104993972059,0.00845020490052,0.0860085488787,0.00249985439347,-0.000814123951249,-0.106819701219,0.00188723821022,-0.0811881511976,0.0363094950837,0.0338125199405,0.101024313156,-0.0928755998143,-0.150229021132,-0.0668540743154,-0.0851589754204,0.0570540799142,0.0398904453132,0.0891570422715,0.0603780263859,-0.129158593979,-0.0639268780915,-0.0581343918546,0.12162752238,-0.037605616018,0.0205425074955,-0.0468263102416,-0.0128746265244,-0.0982386907178,-0.0739330750553,-0.125731538065,-0.0180366607257,-0.127334035631,0.0133875764175,0.0480702390034,0.0355593040289,0.0676024860883,-0.0518751955538,0.0281837551027,-0.0385509256651,-0.0831534064849,-0.00183542105188,0.0883016866509,-0.0388814160239,-0.0469599952536,0.0285460243605,-0.0974530840005,0.0124079297629,0.0975736327868,0.0667022282124,0.030904463274,-0.101235805913,-0.0593285533854,-0.0359315917784,0.0822511319663,0.0755271109264,0.0324907080566,-0.0298001293962,-0.120670339115,0.0129879168572,-0.0407929305069,-0.0235382091636,0.042882356573,0.120912205825,-0.0380480991588,-0.061183228859,-0.0766169229607,-0.0233113457522,-0.109081529405,0.0814478093309,-0.0140617832018,0.00354321612735,0.00398251400554,0.0352329803278,0.103257215894,0.0499887271034,0.0676009121967,-0.0148944605804,-0.111059872413,0.0793798446121,-0.0920738549755,0.0511012708957,0.0739782980027,0.0166017761652,0.00909187929937,-0.10584859583,-0.00553987686203,0.0119419671371,-0.0735369580827,-0.0419995834585,-0.0795060170362,-0.0377027732948,-0.0466598121602,-0.073199894269,-0.0830655987546,-0.0260144702932,-0.018584846711,0.0519205755412,0.0482177485547,-0.0690413201886,-0.0548889570715,0.079092971883,0.0602175467535,-0.120676795883,-0.0751354316791,-0.13719461204,-0.1433159423,-0.0589328319382,-0.0761893253417,0.0460773078869,-0.116865942902,-0.00692875907086,-0.035467678045,-0.112744940356,-0.0865975797341,-0.0272921667622,-0.117519481411,-0.0506691396794,-0.151641195637,-0.00846431269678,-0.0524401140179,-0.116742291817,-0.0468394949488,0.0447151111063,-0.112053626473,-0.133234593829,0.0403008432314,0.0126013360324,0.0254431508844,-0.0544525053656,-0.0515614249139,-0.0606334958825,-0.0847710762202,0.0483216791876,-0.00984045425558,0.10238611874,0.0274641967752,-0.11205833148,0.0405398757776,-0.0487156616742,0.0232928412485,0.0698269728397,0.100302603115,-0.0234067853137,0.0296066470819,-0.0172166594959,-0.0932220852248,-0.0117555179579,0.0707659654025,0.0937276996579,0.0861833947132,0.0467448714381,-0.0846726804493,0.0323891180042,-0.00808258723548,-0.0301705975746,-0.033270189893,-0.0567631234497,-0.0300440615277,0.0635935645869,-0.0481629871243,0.0631205035915,0.0659406932214,0.0384479899708,-0.121571348474,0.081641250787,-0.0261558749904,0.121769523452,0.0360765013186,0.0444506735581,-0.0345514375317,-0.0274717590214,0.0883872898514,0.0456175261463,-0.0184816253747,-0.0210663365702,-0.00356759957036,-0.102693774528,-0.0160385955761,-0.0330646249011,-0.0755570692149,0.0286879601018,-0.0778278048549,-0.0480858891414,-0.0158937826164,-0.0501828334835,0.0108085703542,-0.0355143241041,0.0836181938197,-0.0575533511785,-0.0911676253228,-0.0809899985658,0.0379877421968,-0.0687561139618,-0.0549417444967,0.0718336649978,0.0375626698745,-0.109398099627,0.0898567926195,0.0842861693263,0.00464304168901,-0.0842124762184,-0.0721501324546,0.0680334924103,0.0015009217874,-0.0650650061147,0.0678229268408,-0.0909398118588,-0.00117866086861,-0.12442730934,-0.110939794905,0.0721148875419,-0.103299335698,0.0869790828478,0.0152225290492,0.00434704684412,0.00426255547039,0.0557221518141,0.025828544008,-0.0671903891139,0.0566036931263,-0.0942064335559,-0.0595565349077,0.0125761931922,-0.0243745187309,-0.000747382907201,0.0692360515924,-0.103716459607,-0.0111452917039,0.0209374625585,-0.0499535284973,-0.00744671445588,0.00888167654668,-0.0788024476777,0.00650383768359,-0.00654602834625,0.0553665600284,-0.0578721748552,-0.0870104342458,-0.0397348671904,-0.11454963005,-0.0750445910846,-0.0766169713555,-0.0996527988439,-0.0776528181777,-0.0818206082761,0.0194062149785,-0.110281298163,0.0465802176443,0.0296685651782,0.0453132474318,0.00682379032965,-0.0356511343834,-0.141736152531,0.0664733913142,-0.109197382601,0.0158797717596,0.11000628609,0.0903564115463,-0.00472209433193,-0.0968166433393,0.082354182832,0.035947724816,0.0702525427127,0.0894386775778,0.0863322270966,-0.10604718182,-0.0954950789014,-0.0392785836312,-0.0326410085362,0.0551155861513,0.00756697462718,0.00433925606766,-0.00166790239689,-0.186802717578,-0.0630301966455,-0.100126941222,-0.0504393038697,0.0339514155931,0.103567192525,0.0589222326949,-0.0286189964755,-0.0370363119349,-0.0650793778607,-0.0838086071396,0.0275373832989,0.0353757264251,0.0353916539236,-0.0124472432582,-0.0432260598943,0.0788752868666,0.0509461157084,-0.038666625033,-0.112225239961,0.0184348858162,0.0415580979882,-0.00580887997675,-0.110384695395,0.0157507814629,-0.101024752707,0.0083660014671,-0.0317611474981,0.17607837504,-0.0660967695678,0.000353417597685,-0.0220851903982,-0.16651300389,0.0172443525041,-0.0960895055024,0.161723211947,-0.122997175151,-0.0933150807545,-0.0896915834501,-0.104722653549,0.0510580663947,-0.0312646823715,0.16077207007,-0.0260913107697,-0.0912699924487,-0.000798530993227,-0.0785799057295,-0.104899804752,-0.134930799164,0.162758336858,0.0861172377427,-0.0861870153471,-0.0255045949196,-0.0487152708319,-0.104286863582,-0.0386758482116,-0.0245601926209,-0.014091690556,-0.0357463593807,-0.043582833682,-0.0327843520134,0.0822389556018,-0.0175219194733,-0.070377196549,0.0503941000743,-0.0935096170712,0.0194626395142,-0.0534556696037,-0.0499609470712,0.0427898867249,-0.00136431073362,-0.10378613427,-0.0902662178211,-0.00879568150266,0.0794652321583,-0.0244519245831,-0.0729827115598,-0.11402632062,0.0323437243494,-0.047378603969,-0.0305901820576,0.00794264652521,-0.00596782689552,0.0527648796526,-0.0916530821292,0.0105954540345,-0.0984437789035,0.0277212574613,0.0768117145043,-0.118091248631,-0.075863100471,-0.122948085448,-0.0274843267048,-0.0090789140705,-0.0632686037675,-0.0313719003212,0.0101608999576,0.0172169641078,-0.0560959467463,0.0609970748265,0.00289034011842,-0.132143558256,0.027694712103,-0.0112677698663,0.0192334615683,0.021475412888,-0.0758438171169,0.0882604649901,0.0295009523424,-0.0139958746102,-0.0307668571008,-0.111819606165,-0.0766716097705,-0.0150842565633,-0.045475109994,0.0168924311048,0.103110214737,-0.0688075512707,-0.119411913761,-0.149530085561,-0.0418435249867,-0.0702436827136,0.0165289681211,-0.0785340446049,0.0884209925336,-0.046636729628,-0.0541513420686,0.0117216105031,0.0612351289002,-0.0383523194497,0.0469432556697,-0.0564788891243,-0.0777644394584,-0.106606793529,0.0191923005686,-0.0909491796854,0.0465610709369,-0.0468116709279,-0.0928167938751,0.0302854439175,0.0195796599662,-0.0174082311315,-0.07697928245,-0.0809226097048,0.038372217223,0.000787098638835,0.0118197512877,0.104808214264,-0.0399927845702,-0.0481170385465,-0.0383507450895,-0.148007562936,-0.153480064084,-0.0681345077895,0.100732442746,0.039692913079,-0.0339387778484,0.0832424141393,-0.121612890798,-0.107364895072,0.00728552620502,0.0357469282046,-0.00659857499642,-0.0621925805247,0.0301537993824,-0.0920578793935,-0.0438660994751,-0.0308356321012,-0.0439739952627,-0.0926476269364,-0.057281398931,-0.0828328334692,-0.0201859166819,-0.115510190327,-0.00505093781311,-0.0290285990277,0.0830920325656,-0.0724800193256,-0.038516032639,-0.062062042449,0.0365079040731,-0.0634032465781,-0.0106755125732,0.0291954507835,0.039307042523,-0.0288681831847,-0.0551037761147,0.0666259878134,0.0179524129767,0.0234705455797,-0.061520623431,0.0811291419125,-0.0391312700007,-0.0294485274834,0.000632599701512,-0.0276205936698,-0.0120609573233,-0.0447582577209,-0.0417393656522,-0.105348364523,-0.0812866205258,-0.0218623989753,-0.00445114237324,-0.0817396660215,-0.0516798934913,0.0378434613124,-0.0407630259222,0.0539219156783,-0.0141381937832,0.0508951481602,-0.114769244524,-0.0221949549023,-0.0660191479415,-0.0662419425935,-0.003414640377,0.0592464362941,-0.055687099502,-0.0428128559388,0.00343560566926,-0.0198392339839,-0.115686705045,-0.0567316927507,-0.0127397187286,-0.051061077868,-0.00299659920801,0.0533737779227,-0.0644095377923,-0.0431905949334,-0.0330343338418,-0.119772350773,-0.0192970144908,-0.122378397066,-0.0526084084689,-0.150557966198,-0.0840993596337,-0.0125573532528,0.0610112219415,-0.0299304160799,-0.101316264647,0.0795701328681,-0.0466143276394,-0.0238134721188,0.104227996668,-0.0270828958511,-0.0614279501913,-0.118411098001,0.0760957404063,0.0454175246068,0.0508433664802,0.0116957995954,0.0379097885635,0.0655191059133,-0.0508297676839,-0.0349027160274,-0.117436334425,-0.0663130412191,0.0346692976864,0.0640288075135,-0.0792032711742,-0.0449595828122,-0.0579105129658,-0.000860691435665,-0.0452737622897,-0.0188126334196,0.0432207524016,0.0653050666795,0.09371419704,-0.0399749743942,-0.0426181621808,0.0923330551918,0.042969361727,-0.107007688558,-0.00165580168418,0.0241507628158,-0.0877212058029,0.0431491105964,0.0133912998561,-0.171526883041,-0.148450803158,-0.068847360083,0.062667882279,-0.172571638838,0.112524169075,0.0855078149518,-0.0744104965559,-0.0963171680882,-0.10846184498,0.137894865704,-0.0228811174209,0.103084922086,0.097321530675,-0.165741388884,-0.0685128673933,-0.02923921017,0.0839458737783,-0.0498833350777,0.00998447686721,0.0787219125376,-0.0546981424363,-0.112790830763,-0.0626906972049,0.122371061375,0.100795685708,0.0417068589473,-0.0329206490972,-0.0778969222161,0.00742667878992,-0.0970579644792,-0.0279135114728,0.0637472765367,0.0600936758926,-0.100507391447,-0.0586882502108,0.0657738105506,-0.0315647887434,0.03609656141,-0.0914100582993,-0.010808087144,-0.132382191307,-0.0172776713033,0.0409056283107,0.0322066720091,-0.0732582362117,0.0505584459004,0.000843012753,-0.00470883708013,0.0963108622475,-0.0525698221906,0.07378946346,-0.0535318753931,0.0632880848928,0.0183917840666,-0.100523407928,0.0579701378045,0.0533685219743,-0.095994697547,-0.0868181753321,0.0351310959281,0.0114040524809,-0.0313206894748,-0.00360694762875,-0.119440884335,-0.0466373626836,-0.162640608883,0.00516849083352,-0.0463597045077,-0.00708081194184,0.00187935559249,-0.101745147047,-0.143740747265,-0.092952617869,0.0105410727482,-0.056594574239,-0.00809613888132,-0.0241892163566,0.0579943030297,-0.0543771368218,0.0409076097671,-0.0050625108864,0.0683459486089,-0.0334375352372,-0.111654338828,-0.0678894134355,-0.147419289714,-0.102091976737,0.0319483622964,-0.0471325566412,0.0387402890201,-0.0344584277893,-0.000101403587302,-0.0887357582657,-0.0933606267631,0.0544642461974,-0.0678009917317,0.0506448039945,-0.0450079848458,0.00905551951531,-0.0228006178468,-0.0129351045412,0.0224512671257,0.110939489474,-0.0679949057596,-0.0913091102289,-0.0350846374158,-0.0238975896158,0.0218905472526,-0.0547354977694,-0.112774707439,-0.00824580337036,-0.011799915812,-0.0711811969449,0.086417317503,0.0436105240041,0.0242900049704,-0.111643026033,0.0629639765024,-0.0307812093696,0.0820288692648,0.0600225046096,-0.0632283912983,-0.12811789226,-0.0221723518664,-0.0200830405913,0.035020739578,-0.0190430012474,0.0523565883085,-0.0684593474035,-0.0987866520205,-0.117915145769,0.0194152163733,-0.0597094423648,0.014465660995,0.152226424226,-0.0966000817388,-0.144929132616,-0.0507749510399,0.07126272144,0.00586200003777,0.0708574935148,0.140989523555,-0.0855027718672,-0.131512266536,-0.0228562216399,0.0616893271563,-0.113162903763,-0.0940360555123,0.00705303953817,-0.109367388639,0.00718700543114,0.0927296480527,-0.0798074792636,-0.0827382088757,0.030071050639,0.0135446743304,0.0581012272684,0.0902246474015,0.0892080882443,0.0879793873407,-0.0660101145995,-0.0325660093223,-0.0543151465251,-0.0267536428331,0.0344876500671,-0.0866498164385,-0.0795315592084,-0.0152232288296,0.0219589623362,-0.0550680961876,0.0267211049996,-0.0714991206483,0.00681814465387,-0.0610705076716,-0.0763575504871,-0.0381010912368,-0.109308488293,0.00860578809091,0.0220133523998,0.00966248288031,0.0446063788532,-0.0283769152589,-0.0131796493667,-0.102653117527,-0.0710701736173,0.0897484000238,0.0963997051545,-0.084787896574,-0.00364092064689,0.0311448213058,-0.137903374123,-0.101737233921,-0.0112942517715,0.040488656256,-0.0273712774016,-0.0806584236084,-0.0642413587373,0.00826476298094,-0.0781487201485,-0.0934680062765,-0.0638629304142,-0.0776891398349,-0.0567712951989,0.0507089682683,-0.017852566595,0.0532096476808,-0.108242530353,0.0678479652111,0.0751102956364,0.0828078311483,-0.109926749777,-0.127001380761,0.0382511788388,-0.0566931714129,0.0574426704397,-0.0600600575753,-0.0894927702677,-0.099283501654,-0.0333118162335,-0.00899433005705,-0.0829965331309,-0.044235070989,0.10797418815,-0.0771793601907,-0.0956587768447,-0.136513974456,-0.100158381034,-0.0172880418437,-0.00991335517327,0.0302019274093,-0.0162108734842,0.0424621732159,-0.0621970483944,-0.052292912445,-0.0926200750004,0.0228397423818,-0.0288397073823,0.0364684775106,-0.072787469035,0.00194220021239,-0.0767756545913,0.0688642961499,-0.104433350622,-0.0488531402285,-0.0409593056918,0.0434830865943,-0.0467715501419,-0.0251613600436,-0.0377638431435,-0.0697407161393,0.0237408385502,-0.06409440999,0.0112103398399,0.0140158108482,-0.0693266034454,-0.00795559364333,0.00215772895412,-0.0245185516459,0.0137726334926,-0.0796047301676,-0.00275738134672,0.118712162229,0.047180646909,-0.176482449135,-0.0582354062538,-0.100618089577,0.0278725057589,0.0440520108742,0.0765913379311,0.0372449742659,-0.165625864199,-0.17132079822,0.0338758565041,-0.0120341035075,0.0787869359778,-0.00511916470656,0.0827091376904,-0.0829288573705,0.00887965530728,-0.0177609605977,-0.0788532409175,-0.0659437463949,0.0679779052737,0.0652202916475,-0.0861124431119,-0.00559629874578,0.0247368639384,-0.0242007548442,-0.0122598263714,-0.0884592117475,0.0590379518113,-0.0296039552053,-0.0361984053094,0.0344190246883,-0.0919406213747,-0.0114713074365,-0.0602907758386,-0.104380093512,-0.0527116784068,-0.061571787713,0.0148714353753,-0.0169191289557,-0.112139198172,-0.100993180211,0.0603955065672,0.0781958090298,0.0419200494478,-0.0524584568642,-0.0984418405412,-0.0776887803242,-0.00117040313191,-0.0983911351721,0.0399685746887,0.0683855064783,-0.000745882638036,0.00192026864847,-0.134492792481,-0.113648267377,-0.0744146644967,0.00638663002894,-0.00603787265686,0.0249907209755,-0.0320944321528,-0.111617790064,-0.00116321552445,0.0486391055633,-0.088857804485,-0.00139604707599,0.0371975777701,-0.0379932019238,-0.120811148092,-0.0362905276996,0.11736967825,-0.0703083248878,-0.0666104793012,-0.104837917683,-0.141970896983,-0.0425544569481,0.117289109908,-0.0109083577916,0.0179228425676,-0.0134246397452,-0.133681332041,-0.169306942018,0.0568334875509,0.0867917109109,0.033987679496,-0.0462415171654,0.051523936299,-0.0813894498726,-0.0232445032491,-0.086863353558,0.0248669605589,0.0779943802957,0.0713760020621,-0.0763070847392,-0.00906467782681,-0.0910031437903,0.00500422448786,-0.0569896210313,0.0383950519735,0.0860894317655,0.0210051863874,0.0557856393646,0.0642221460326,-0.0706878066721,0.0240358187473,-0.152067991125,0.0241729870091,0.0742703643049,0.0843999373984,0.0530357089518,0.0205832097234,-0.172355179473,-0.13357950782,0.0117259177248,0.0407197581327,0.0265431698603,-0.0135636261316,0.049384294862,-0.209378128954,-0.126340841339,0.0342784155959,-0.0456402026665,0.0657412468437,0.154762417781,0.0342609449306,-0.0481335815146,-0.0719044318698,-0.0225031998857,-0.107370120884,0.101096655536,0.123077714091,0.0540622003156,-0.165992687702,-0.153277964025,0.0123392938589,0.00382986332847,0.0550217874588,0.0957260181788,-0.00322789211413,-0.156877727003,-0.0243299637351,-0.0897817395952,-0.0928870079561,-0.0918222207377,0.0146776186979,-0.057772568161,0.0914854686027,0.00326192924074,0.0449643033504,-0.0596710370127,-0.035217962399,0.0199714050782,0.00235522566739,0.0643218718479,0.0420820226871,0.0387810651197,-0.107417383665,-0.119646354761,0.00426592399985,0.0446549922307,-0.030260964586,-0.0325519318052,-0.107744071404,0.0226470010662,0.0195770491546,-0.104113497526,-0.0906592432597,-0.078315371473,0.0824385386307,-0.0995610799398,-0.10535766891,-0.0758338828363,-0.0521634748468,0.010992740715,0.0202664987136,0.0732040606182,0.00142903479766,-0.0132191965151,0.0291425550985,-0.145163006831,0.0145199295013,0.0243509255926,-0.0911491895459,-0.0259169818073,-0.0857459112051,0.00980993649934,-0.115443935831,-0.0294346140811,0.0392908379814,0.0237259935925,0.0166977226766,-0.0152267698502,0.0279466745476,0.0217118969554,-0.0619934851826,-0.0112373753182,-0.042579617819,0.0470983929633,-0.111935380214,0.0773111373227,-0.0116010736219,0.0130706857563,-0.0174540647218,-0.0959936223829,0.0511921284851,-0.0764751138078,0.0584241883821,-0.116654335341,0.0410367847629,0.00427708341105,-0.00910296479274,-0.0292319469309,-0.086520955355,-0.0233261484681,-0.0695790503757,-0.0489332596953,-0.0609336348978,-0.0625608583982,0.094280638895,-0.0606182625319,0.0893997710534,0.00139287968682,-0.0808191041557,-0.0461230560547,0.0299298993874,-0.0772187651113,-0.00503999415717,-0.0985455746131,-0.0811136312472,-0.0163242832339,-0.0896926673759,0.0167344462613,0.0104652876846,0.0342488387104,0.0224169743203,0.0395842149398,-0.129306855413,-0.0616938548502,0.132237605175,-0.0334048852695,0.0447702888965,-0.0521789291759,0.110196118575,-0.114255646494,-5.83528148413e-05,0.13870535288,-0.121774801308,0.0568462400843,-0.0162744426443,0.092114373744,-0.0536320019597,0.0669778205412,0.117616533083,-0.0219381759447,-0.087956533126,-0.0852030755406,0.0220211389983,-0.161057849259,-0.0296364478522,0.0800431568355,-0.0338234730214,0.0634974325104,-0.126328777215,0.0937368615482,-0.098936305321,0.0666715227769,-0.0695939396537,-0.0513620357877,-0.114200899103,0.0585829347084,0.0419085053081,-0.0392725880098,0.0140326013463,0.0394522376837,-0.0745146878374,-0.0685182557836,0.0923824813258,-0.122984740731,-0.0202757271573,0.0693456262879,-0.0594126419929,-0.0954587546765,-0.0280203096482,0.0627369201712,-0.118859827717,0.0229117713723,0.0212527693065,-0.00484122841931,-0.0909705970423,-0.0984297402788,-0.0178722791798,-0.106805428197,0.0915887365714,-0.0976854991062,-0.0903882746377,0.013477662077,-0.14249042836,-0.0249257772485,-0.0910184396766,-0.0240049359868,-0.077722654176,-0.145923529393,-0.0355476192211,-0.0497316869644,0.0583980922217,-0.0791970122131,0.0150260512234,-0.114479374392,-0.0309735358064,-0.134448376822,0.051223879708,-0.0493958378885,-0.00993887654344,0.0010751021304,-0.0302525384501,-0.135346828151,-0.0559196527758,-0.056118893365,-0.0121090454073,-0.0914978542541,-0.137520412983,-0.119101581702,-0.025574068674,-0.0138817393542,-0.0231433961526,0.0236795371179,0.0363622229579,-0.114000263342,0.0162271727061,0.000218463359805,-0.0408982179057,-0.0417254248068,0.00485746626452,-0.0193434962909,-0.00979391861494,0.0554349510826,-0.12214372545,-0.0560701971495,-0.0387066981473,0.0239069200939,0.00812803285367,0.000477606950132,-0.0719198977427,-0.0606665754415,-0.0775321260741,0.0133098686111,-0.0353739363022,0.00179990157633,0.0260199759286,0.053586410348,0.0738592184482,0.0535057442239,-0.0842165757996,0.076747762511,-0.0874773744719,-0.0630679163049,-0.000352230257202,0.0689486048584,-0.0471865981904,-0.0390934301457,-0.0684680166046,-0.0832327581803,-0.0374824578607,0.0297758625939,0.0309670117931,-0.0531052200995,-0.13573853905,-0.0196540945805,-0.00781368164522,-0.0935788391253,-0.050457369576,0.027302559592,-0.0533417255663,-0.113427815059,-0.121780142367,0.0141683808584,-0.0270744877567,-0.0208138080376,0.0669403805045,0.0623656095301,0.0103523266362,-0.0425584970678,-0.154812648738,-0.0253031949047,-0.0447487006108,-0.0204024255066,0.0952749252514,-0.0912995144356,-0.130119289353,-0.141880266341,0.0578307938536,0.0141463678857,-0.0209086831133,-0.0900887398224,0.0819947899019,-0.0137447575139,-0.0654307715163,-0.088813794626,0.0648513137256,-0.113374454846,-0.0671632692074,-0.065986379592,-0.0354966649177,-0.0701968270211,-0.0601862649944,0.0740921253801,-0.116716550885,-0.011667067564,0.0863114680073,0.0109532665718,0.0193014561473,-0.0922142475988,0.0495692385653,-0.0904365036846,-0.0314974851303,-0.0563787267551,-0.00695972459431,-0.0216794895685,-0.00259769715209,-0.0494173957516,-0.011129671917,-0.119199469849,0.020946842549,0.0502093068419,0.0214112522837,-0.114226243759,-0.00980846054294,0.0486309926912,0.0251579879641,0.00399641654593,0.0120148003526,0.0102507293885,-0.0687281716476,0.020047699384,-0.0941020236649,0.0107564911007,-0.0678417908724,-0.131288787562,0.0235248223746,0.0121241483257,0.0167329948581,-0.0779066167336,-0.0622649311951,-0.107022489122,-0.0462202129759,0.0318020509569,0.00764533106414,0.0354275950006,-0.169074494851,-0.0344356960904,0.0444688140269,-0.012811044957,-0.0957271142914,0.0521440053491,-0.0052132138535,-0.136943289607,-0.0620064367846,-0.0974622382041,-0.0918432884894,0.0958005540407,-0.096941519631,-0.0882732570293,-0.0696281356699,-0.0893689690925,-0.0375393150384,0.0919681513865,-0.0130205069424,-0.0135675833195,0.0312277520782,-0.0667879086371,-0.0551290264607,-0.0386428700503,-0.0666483046308,0.0756661190463,-0.0836134116132,-0.0839881431858,-0.0678575224935,-0.0217246024964,0.0841620099891,-0.00724454303489,0.00986681918114,-0.00471877834588,0.0907778507803,-0.035220781458,0.0720505719199,-0.0240043912655,0.0784828082557,0.0477074114115,0.00769753261624,0.0795824057152,0.052679608419,-0.037054958107,0.0806261683426,-0.0912195173356,-0.0290140850254,-0.0283581509231,-0.0916339907069,-0.0744611900505,0.0614618823188,-0.0212066356101,-0.0786516502015,-0.114687869742,-0.0473813881997,-0.0603720618996,-0.0414955739244,-0.120162637414,-0.0909101129319,0.0159038738728,-0.000642049873246,-0.111721272086,-0.0553626516974,0.0768846250367,-0.0124400899537,-0.124881002918,-0.0537626530243,0.0255120071858,0.0090676990553,-0.0546656924812,-0.00683729722259,0.0575866408771,0.0347615312042,-0.0383799929209,-0.00858343261708,0.0252610720238,-0.00680276026069,0.0556731494809,-0.105047697771,-0.0708983058249,-0.0920497439952,0.00183901408433,-0.0975191775725,0.0396809070414,0.013669572337,0.0213053991,-0.045706670776,-0.0131585824393,-0.0214144285302,-0.0911483455575,0.0382519649346,-0.0871157280558,-0.0484442566966,-0.0842953414176,-0.00442163809043,-0.105619000286,-0.108755821197,-0.112007817867,0.0338366349874,-0.110873772857,0.0419842442358,0.0276618881675,0.0296271960338,-0.0362187808173,-0.0664713275792,-0.0448908493465,-0.0441702528642,-0.00902594562329,-0.0932615265831,-0.0877281686423,0.0191860404651,0.0457207031837,-0.0547923150386,-0.0576466744623,-0.0260595386444,-0.122894899868,-0.0758984065273,0.0192927039853,-0.110045982291,0.0370695293557,-0.0411472879359,-0.00692918107688,0.0315963891691,-0.0639261322909,-0.11653516122,0.0409920278089,0.0270226291654,-0.129009575875,0.0297167949261,0.0193850027792,0.00780587442519,0.0608815450704,-0.0214402411365,-0.0735923492765,-0.0902014274674,-0.0946294369666,-0.0712645561073,-0.116570634762,0.112696608599,0.0816559582517,0.113862873292,-0.0959222532727,0.0557187863701,-0.0829906104675,-0.0919516180808,-0.00566154364637,0.0762980256976,-0.0589348650515,0.0739787349702,-0.0109856552624,0.0364639600887,-0.120828659603,0.116073282919,-0.0396185579456,0.0722340551842,-0.016563476467,-0.0848870851254,0.0838360937281,0.0117011057212,-0.0375500764004,-0.0627394990952,-0.083885710465,-0.0376406740474,-0.00703748830714,-0.0126821636445,-0.027546377828,-0.115559012523,-0.11005686195,-0.0999568748171,-0.0571704508883,-0.0264586139029,0.0604903495476,0.148643012769,-0.0789466115621,-0.156401502898,-0.0924962850331,0.0543554987575,0.0603032060771,-0.0278102269386,0.0363243639121,-0.0518096564598,-0.0487379918997,2.97966326127e-05,0.106198711048,-0.0971068722916,0.0194664607414,0.00340718686585,-0.165669382457,-0.133341957202,-0.0509889178291,0.0429275354431,-0.0145391914265,-0.0963541259739,0.108018735358,-0.0894262033833,0.00862723076183,0.000868087314407,0.0342395205648,-0.0138327109476,-0.028452487049,0.0453414488501,0.0110020701511,-0.0433603880689,0.0503268268383,0.0534776650148,-0.10047812181,-0.0683549489801,-0.0515068458308,-0.0740651056807,0.0359038354521,0.0715162500628,0.0638762672336,-0.0688959375038,-0.117767294598,-0.0377733649731,0.0718829788989,-0.0709894382519,0.011068177439,-0.0111147228395,0.0656362096835,-0.121957576738,-0.11477634945,-0.0344676296294,0.0818141881869,-0.0208269690664,-0.020150849151,0.0138440324818,-0.0366263390501,0.0198459619641,-0.102086804479,0.00531251725129,-0.00332016933215,-0.0711173972426,-0.0692654219688,-0.0877132048768,-0.143890176703,-0.00564152214621,-0.061134742784,0.00913393198447,0.0613653018392,0.0287602472717,-0.150283767458,-0.0302479072017,-0.0840875313499,0.0115138080723,0.0397232904948,0.0694349569544,-0.0348328551727,-0.0761816564791,-0.0966152988576,-0.0960661109246,-0.144110904696,0.0613054937255,0.0375882175078,-0.0247271615959,-0.145618723298,-0.019631509465,-0.00943150330379,0.0049491788734,-0.0439500121379,0.0813330392356,-0.0932154138378,-0.0419374882192,-0.0536897711558,0.0812883934552,-0.0198001315259,-0.0899380369592,0.105667218243,-0.085583784367,0.0210071155828,0.00820589180059,0.148991726916,-0.00425741955591,-0.0246251160871,-0.0671953943267,0.0190854282593,-0.0288311773244,0.0524656803181,0.0652563174008,-0.0353159301695,0.0757397913903,-0.11833725878,0.0555532631554,0.107652372891,0.0228514076487,-0.100321536399,-0.0279934398765,-0.0310054907297,-0.00687133556584,-0.102754285332,0.0792278899123,-0.0161731747937,-0.0715473896322,-0.0240387024567,-0.0247166629341,-0.0282483912436,-0.0987341884638,0.00438139837612,0.0698531984669,-0.146432125156,0.0194333484617,-0.0851351358054,-0.140828503917,-0.0864008306373,0.0841329204396,-0.0720886166383,-0.16987360423,-0.0841654763642,0.0105828394723,-0.113069999256,-0.0599411367163,0.131938015763,0.0399331807597,-0.135263478825,0.0551190996341,-0.0964829808374,-0.0856340285122,-0.0567249487134,-0.0154218498171,0.105999000822,-0.0625696913249,-0.0504712240617,0.00672333171739,0.0293071963189,0.0888400739319,-0.0419177145199,-0.0947672718181,0.0936017226343,-0.10005629512,0.0511684630857,-0.00706428374447,-0.0139998829395,-0.0977988177251,0.00908168746693,0.0401689530057,-0.0910331589314,-0.096066091859,0.10128025969,0.0349039474944,-0.0427870985723,-0.11751601926,0.101669356837,0.0525641904151,-0.0937640906706,-0.000260580547396,-0.0392989947732,-0.0749620595729,-0.0983383664901,0.0715020812081,-0.086930961736,0.0628785103892,0.0111730759312,-0.0926012775474,-0.00384041781157,-0.0758263343543,-0.0765908892023,-0.0732260318641,0.0115887615766,-0.0662589018653,-0.0662095360517,-0.0638854483221,0.0459132326489,0.0657482525568,-0.0541996704313,-0.011427652526,0.00965498701123,0.00473067604503,-0.0531122981308,-0.0571979673105,-0.0424727730231,-0.0601142097975,0.0289235376967,-0.0419206933506,0.00689183808765,-0.1446106355,-0.00750759425315,0.00793297432923,0.0134957874034,-0.111790514308,0.0945499782321,0.0264896213855,0.0347348551202,-0.0184492732905,-0.131445028791,-0.10236368586,-0.164639953627,0.0646739324838,0.0929933487886,-0.0874633580055,-0.0702119069884,-0.0541153616559,0.0591889677245,-0.165888327738,-0.0359304191475,0.0424104670216,-0.0730192570898,0.0559324560053,-0.0108490876287,0.0395731857322,-0.0264380038029,-0.0291148023932,-0.000592371807617,-0.0506178653847,0.0039162651761,0.0699901513672,-0.0732647054,0.0983641647461,-0.0756976726795,-0.0554742330945,0.0554377594345,-0.0203418137594,-0.0482342442758,0.0661880034555,0.000967755047715,-0.131450011138,-0.0893336034179,0.034415132771,-0.0948169357188,0.0480784807298,-0.112705003012,0.0211840582653,-0.141813345747,-0.105677629849,0.0672773920832,-0.0929302746168,-0.0193522658412,0.0493220872303,0.134966596788,-0.0824470124222,-0.0322372637434,-0.016506001498,-0.0267373763322,0.0324519148237,-0.0750715239043,0.0542975307003,-0.145706090265,-0.16081734898,0.0551657737188,-0.159103652401,0.0905200389941,0.0297716504284,0.0232223349338,-0.0607443019631,-0.0850448297689,0.0161614246357,-0.169157011379,0.000247698984266,-0.138313646506,0.0488247776627,-0.0872535719527,0.0289491605936,-0.103242551486,0.038824773843,-0.00425791153215,0.0554543999481,0.0311285294378,0.0422532987698,0.0105489830315,0.0474335112153,-0.019643085847,0.0176341030399,-0.0594670945577,-0.0203481205929,-0.0519365316722,-0.064266230018,0.00177291942057,0.0473356158105,-0.0443987337551,0.00993629916584,-0.104605949498,0.0958365247581,0.0835374111087,-0.0601565531913,-0.0555940541441,-0.116236084968,0.0454665695979,-0.141880795936,0.00318441500511,0.0855069163808,-0.0282601208902,0.0272796640395,-0.0119935978077,0.0066524396584,-0.134730870827,0.0822693916305,0.0681734633783,0.0284146532144,-0.0450004074187,-0.132170310308,0.065041019661,-0.032507483514,-0.14318392667,-0.0451793472539,0.0329368200237,-0.062465802576,-0.0459728578569,0.0273545413726,-0.00489889045567,-0.101833850802,-0.104661564371,-0.156838352305,0.0414930094839,0.0106689608632,0.0511767662432,-0.080023153591,-0.0325023026428,-0.107232567957,-0.118200574692,-0.0872105827309,-0.096270035878,0.0202846265071,-0.0514395576324,0.0121392605688,-0.101288520903,-0.015775151614,-0.0613955647954,-0.101430095063,-0.0264560388083,-0.0484748933238,-0.000799107281241,-0.0375878679236,-0.113786038411,0.0289624124695,-0.0786855246429,0.0185075889924,0.0449359014697,-0.0685325245532,0.0733914415778,0.0390957852653,-0.0448208465169,0.0326527805455,0.022416149402,0.0422767927073,0.0814915548607,-0.00472463266054,0.0759356630364,0.0384848586802,0.0675234230812,-0.0553659752895,0.0240720222708,0.00449910694543,0.00755299730665,0.0757410640713,-0.0943070045319,0.00655986042383,0.0391943716429,-0.137795988674,0.0120483129811,0.0291354057292,0.00730460569907,0.0585157707517,0.0731338293793,-0.0722729099712,0.0257978025057,-0.0341794204999,0.0103677497892,-0.0364306243483,-0.0695985730391,-0.00749827722638,-0.0422757274635,-0.0778405413593,0.0165640275977,-0.00958350268615,-0.0777039014199,-0.0659349771315,0.0820126008339,-0.0518596231904,-0.123909722037,-0.0506091918801,0.0316979183658,0.0897149372934,-0.028255781034,0.0632450257835,0.0162979636516,0.0117496741027,-0.0815642453515,-0.00171035144299,-0.077221048591,-0.00262014704563,0.0772063076261,-0.0444139341408,-0.0574111181671,-0.00326434524451,-0.0838735393236,-0.10629729793,0.0500433728068,-0.074585918401,-0.0971474372416,-0.117532764774,-0.0163408825056,0.0545642632592,-0.119960194308,-0.024058295005,-0.0239863288046,0.0729492117073,-0.0373851172949,-0.0805688005259,0.0712138040911,0.0299549409257,0.0537689716286,-0.0599522743857,-0.10938593858,0.0305952430605,-0.00120192757077,-0.0272522208717,-0.105010520691,-0.0601164088038,-0.0313150610185,0.0240270548427,0.00180741564408,0.0012724541475,-0.00709234543679,0.0448959353565,-0.00836966495113,-0.11956852052,-0.0169874452849,-0.0148531501695,-0.171865163443,-0.138379573546,0.0338423599098,-0.0130155738373,0.0138460747455,-0.0589711529718,0.0292182403279,0.0252378043134,-0.103896793844,-0.0875397868921,-0.0411543727657,0.0294333189875,0.0119085300622,-0.00804414202354,-0.156722790877,-0.0945805437646,-0.0833104885121,0.135348340425,0.10459682786,-0.0241006523957,-0.0678209189358,-0.126595759947,0.0106367925194,0.0356263066405,0.15897035693,0.0603044236904,-0.0118003588805,-0.053096889192,-0.0521225738523,-0.0634219979658,0.0288974938853,-0.000257979282328,0.0714447181098,-0.0780368976967,0.0657911736356,-0.0421781141466,-0.031043820603,-0.0532435690704,0.0836583635413,0.0821809323321,0.0106740147076,-0.037073691165,0.103313571477,0.0768948409918,0.0947479853922,-0.138605328209,-0.0788940683648,-0.0541082657928,0.030734030292,0.140972766026,0.0438652614178,0.109916607254,-0.0445406953622,-0.126970857635,-0.076103350406,0.0270769019632,0.187781138761,-0.0253844405958,0.0616910291206,-0.0641289977487,-0.134100590753,0.0136812178991,-0.0840489065855,0.19624997571,-0.0516780852103,0.0724513665227,-0.233598824185,-0.051680459888,-0.0874689238497,-0.125075187309,0.1783809987,0.0938440924886,0.0978036007842,-0.259219776588,-0.0345922374665,-0.124601424951,-0.0251259628546,0.0390526450526,-0.006248465945,0.00189847073529,-0.151490416659,-0.0631733912485,-0.0824940423857,-0.0041058257778,0.0415716536945,-0.0859466401955,0.0772422068075,0.0263278672483,0.0274029582332,0.0775300116936,0.00984540517416,-0.0582041422054,0.0506636693427,-0.0683941296791,-0.0281009262564,0.0974541069099,-0.00376173937305,-0.0231081066606,-0.054140370614,-0.083465025305,-0.0576717562114,-0.0308007549475,-0.0589551949286,-0.0274740128836,0.00586865944674,-0.0406214680084,-0.103534866281,-0.0403345849406,-0.00613642756051,0.0409288123818,-0.103736266758,0.009334342569,-0.0206300385998,-0.11113223709,-0.0910574334329,0.107546871032,-0.013096046403,-0.0358341312107,-0.00952172934888,-0.0867139875078,0.000215029882435,-0.103209546824,0.112396738673,0.0379594385732,-0.0260869082569,-0.0493337049326,-0.0045546308794,-0.0188657746558,0.0147800248744,-0.0240488081455,0.0690944500038,-0.103535052924,0.0588102341441,0.112218070156,-0.0215160338954,-0.080226719125,0.00530141083653,0.0794869786118,-0.0576154066365,-0.0996381114646,0.115914826349,-0.120695611536,0.00395324661838,-0.10715118496,0.157446733271,-0.0222905169025,0.062171929501,0.0426749219047,-0.138418569401,-0.087420166341,-0.0253701158471,0.0442495125376,-0.00115751450632,-0.103510494685,0.0756549991019,-0.142238226853,-0.0615572401724,-0.101171585322,0.119579476804,0.0376828348051,-0.106635643749,-0.0609067058039,-0.0329538849571,0.073608618562,-0.0889696934287,-0.0263942766939,0.0346108486241,-0.0221158599308,-0.0378701124157,0.0874568890465,0.0233323812578,0.0851320786375,-0.032062584144,-0.120186458956,-0.00174221215804,0.0222970366971,0.125532171603,-0.0378478151385,-0.0274273896634,-0.0915269886456,-0.0148187278786,-0.0328461404206,-0.129516969015,0.144732235099,0.0396567394366,0.00277934711192,-0.174147188387,-0.111008333532,0.0400240576338,-0.118893365074,0.0847006015756,0.0541686620164,0.0970408981194,-0.155124682612,-0.138159601754,-0.0228956433747,-0.180664101097,0.144522496551,0.12355517169,0.11254866861,-0.14597128588,-0.12831680958,0.0289783366068,-0.0690910440661,0.129577418493,-0.0326918174629,-0.0184263657791,-0.223815236548,-0.0316949179025,0.0673732045728,0.0626911511822,0.0588465622448,-0.0969176272137,0.0200305539811,-0.0315529246968,-0.0513360614275,-0.0358977169637,-0.00875989714795,-0.0419257299505,0.0337471428373,-0.060017937099,0.0133956368061,0.0574563487023,-0.0890206226824,-0.0587821282905,-0.125194305417,0.0502177044963,-0.0295804685077,0.0359298604697,-0.0545548530521,-0.122174433648,-0.00141265536906,-0.105915536436,-0.0117552570066,-0.126735176985,0.0402831324339,0.054240139168,-0.126878028033,-0.0436059910247,-0.0250025306633,-0.0487003757825,-0.0394945827292,0.0586319407985,-0.0465550984413,-0.147061979888,0.021419449636,-0.152276212097,-0.146014912955,-0.118404065914,-0.0060082852041,-0.0648649042136,-0.0874850889042,-0.099124498746,-0.157571064277,0.027740094975,-0.137539810736,-0.124880040831,-0.0591441488753,-0.0149020128431,0.0793884485841,0.0357801638226,-0.0187025615602,-0.146784495268,-0.0113295068548,-0.00116234224382,0.0715689926079,0.0179461663162,0.0174674411602,-0.0851088558725,-0.112937984345,-0.0708146787011,0.0247749543242,-0.0305258955537,0.0476723715768,0.0293803829173,0.0815692124836,-0.10831158408,-0.0210858725245,-0.0867193961679,-0.0177008784882,0.0959811219565,-0.0779259879246,0.0650401308038,-0.14832409604,0.0346610773277,-0.0998291879862,-0.0266777914587,0.084794120943,0.0169446181482,-0.00232577760286,-0.104728098564,-0.0629938951172,0.0884484063671,-0.0185022054663,-0.0241340859607,0.0327158777668,0.0612628328546,0.035943993717,-0.0212214117582,-0.044834775694,-0.097333861677,-0.0231856161712,0.0387177630902,-0.00179669159942,0.0767539455433,-0.0153648904723,-0.0988281330316,-0.0441201044113,0.00973862092124,0.0689086655708,-0.0314882011334,0.122380421902,-0.0345709483462,0.0532088437633,-0.00870088254478,-0.00583405296306,0.0966059629632,-0.118241617818,0.0850791713653,-0.0759933775108,-0.0992132156543,-0.157550496435,-0.109930346821,-0.0234337943568,0.0717654550039,0.087548852252,-0.0197534724468,0.0665852345719,-0.155422011393,-0.115110533929,0.0587685545022,0.0549030535148,0.0265226660035,-0.0748242717474,-0.0112336602336,0.0708054118636,-0.0809978670201,-0.0722719193684,-0.0693773829294,0.0172920690146,0.0539915583625,-0.0803307501444,-0.0108807872386,-0.0688737772397,-0.0987136674008,-0.0963431775397,0.059416915119,-0.0141791784837,-0.00191901084328,0.0110456105879,-0.00581878950554,0.0454319464505,0.00234437910652,-0.0974514145634,-0.103235804697,-0.0679239572468,0.0739749846298,0.0174688224749,0.0378389329917,-0.00229166928153,0.0143570369767,0.0468022525087,-0.0111731083064,0.0590594286225,-0.033154197148,-0.0837230963337,-0.108738606313,0.00859147033424,-0.10264191158,-0.0327688970522,-0.0284083795556,0.014878023718,-0.108199427293,-0.0297751121058,-0.0187679345923,0.0485173919527,0.0615295294055,-0.00583865953847,0.00177666290609,-0.104754825415,0.0013291070879,-0.0831480591054,-0.0899236998287,-0.0267899878707,0.0143629113858,0.055745661152,0.0679323336375,-0.0153745500873,-0.0199898403354,-0.0687405927588,-0.107215008658,-0.0194180575157,0.053036662993,0.00682409100356,-0.0675647374524,-0.112581271345,-0.057358932829,-0.105629115929,0.0590440554673,0.051874458261,-0.0365663957285,-0.0543546780078,-0.0567142468058,-0.046286279391,-0.0313750240814,-0.0201930849311,0.0792506224807,-0.103304180491,-0.0983114037019,0.0156641363636,-0.0650498384492,0.0588289171853,0.0553824880149,0.0426709875518,0.00754486988153,-0.0288948578172,0.08300060623,0.0319856369953,0.0506448424647,0.0247672934738,0.0364770599405,0.0784314693779,0.0394873340152,0.0488697355377,-0.00507723914552,-0.0665808234785,0.0290856945335,0.0438184273089,0.0140014386987,-0.0725823843146,-0.022230720142,0.07689992522,-0.099740917565,-0.114677295184,-0.0468049077213,-0.0266076998339,0.0732618437187,-0.0829294934401,0.122316737657,-0.0139927730517,-0.0605508141052,0.0341770017799,-0.0258752629617,0.00405507865051,0.00516834735444,-0.0506913919444,-0.118704915261,-0.156639791292,-0.0754201464348,-0.0487620246708,-0.0756193592556,-0.00212079624803,0.056066025677,0.0148440296669,-0.111607001899,-0.109331199688,0.0180290121901,0.0486567269526,-0.0958427721619,-0.0362374778174,0.0222962564847,0.049311524493,-0.073746093179,-0.0743650632318,0.0888836539106,0.066853671163,-0.088782261347,0.00354349676143,-0.0292853819642,0.0642683793457,0.0321456432554,0.0295384020515,-0.0112781043913,-0.0119877217394,-0.00538433846402,0.0429459953719,0.0654973813698,0.0511634433902,-0.0334674365506,0.0580746381702,-0.0691925191328,-0.0837784709416,0.0551675244973,-0.0561186518827,-0.0880124166553,-0.107930691697,-0.042153798545,-0.107337709462,-0.0562297646999,-0.068346428201,-0.0554989325168,-0.0121769331141,-0.0257942831331,0.0495231296599,-0.133904480071,-0.0780671507249,-0.0587789248134,-0.0620164212196,-0.0762489623707,-0.00950097422415,-0.129487924308,0.00113733120958,-0.0220078332933,-0.0525171220684,0.0481610799949,0.0535360827903,-0.0149828689795,-0.113783204689,-0.0383843561042,-0.0889959213936,-0.0163795080888,-0.0216048624844,-0.0121545634951,-0.0389279898011,-0.120453101837,-0.00435668053575,0.0228606419651,-0.0726862237137,-0.150901925164,0.0136970959729,-0.112602842004,0.00381453907115,0.114440250391,0.00374425289437,0.0628404723415,-0.117220464807,-0.0263455577546,-0.0623977420311,-0.0100960216151,0.0890029123129,0.0506632337563,-0.0227176582685,-0.100894425892,-0.0703408950271,-0.0355554407144,0.0777465179229,0.0932647041652,