-0.0694074013185,-0.0328936819318,-0.0244616625067,0.057367869892,-0.0266762267961,-0.0204246384293,0.0387401873868,-0.0495299276765,-0.128061726885,0.0313752307232,0.016192078367,-0.053055040198,-0.0445342538604,0.0728862458085,-0.17903020164,0.0102000928093,0.0171184865111,0.00838081826143,-0.157180258,-0.111398707316,-0.0811341100514,-0.0265219481189,-0.104900035523,0.1911284272,0.0578343376312,-0.0635117208025,-0.17067237622,-0.0381609228318,-0.154841876687,0.0220417973141,0.14162511091,0.0247876553022,-0.0348143679186,-0.0290249198976,-0.0689374934607,-0.026440404665,0.0624457050165,-0.0285874568333,0.0118056407002,-0.0121754359672,-0.124716496516,-0.105555065371,-0.0588288000717,0.0458420245799,-0.00442945157157,-0.00471237123882,-0.0145487948157,0.0930485383542,-0.0195228194473,0.0248376762307,-0.0773381689427,-0.209108215795,-0.126683783859,0.00392976730604,-0.0223361678562,0.0187356697555,0.183320138156,-0.0764876424946,-0.214363637883,-0.237771496948,-0.00991544935791,-0.00341234088834,0.0418726970697,0.15896724706,-0.0719742725754,-0.202321590448,-0.189595343767,0.171282758157,0.078802953666,-0.0914585827297,0.133375892497,0.107159301373,-0.287084961781,-0.248512246545,0.0425546924093,0.00697852942282,-0.0579935919382,0.090492075456,0.0378080906888,-0.149216003815,-0.137065433835,0.0945559603968,0.0822841989637,-0.112070098521,0.018166665426,-0.00584997269602,-0.0238348580132,-0.0920632540158,0.00689858028916,-0.100321891683,0.00563123102746,0.00678765916215,-0.0745046020393,0.0695937480463,0.0627318270423,-0.0056325032324,-0.114725594555,-0.00329130070954,-0.0657188076509,-0.0510196371244,0.0360963445585,-0.00939991585135,-0.0266876486267,-0.0944791923023,0.0449526761436,0.00110457873538,-0.0467855102999,0.00357089695554,0.0910728474214,-0.0510518451775,-0.010345747277,-0.0299903792007,-0.111556272223,0.00991105709578,0.116985957597,0.0194269096768,-0.0601986630036,-0.112681367518,-0.0169982035751,-0.0288127542928,-0.0592257845857,0.104776865205,0.0710262735421,-0.124143655025,-0.0904026654116,-0.0160336721712,-0.150403349113,0.0389767370069,-0.0410461430683,-0.180427896312,0.0399082249718,-0.0333132766041,0.0129092926448,0.0103609463249,-0.063156014265,-0.066801749765,-0.0809004222819,0.0547121523043,-0.132861821881,-0.0698454717183,0.0372358884945,0.0961097860134,0.0769861923476,-0.242728806849,0.0200827003775,-0.11446226612,-0.0476162900514,-0.052406490177,0.0609180774779,0.0323735198447,-0.209567952629,0.0882269562946,0.00337203918265,0.112875492061,-0.111590502001,0.138582211137,0.131839902502,-0.0482530609058,-0.0683567393056,-0.050557642417,0.0288731593801,0.0206484787571,0.13083922324,0.0667415012452,-0.0146491936574,0.0151621039807,-0.122701224725,0.0693396588401,-0.0822626904626,-0.0273553086995,-0.156664506462,0.0256076601223,-0.00391553007993,-0.0217291597665,-0.026711459874,-0.024403492191,-0.117381557467,-0.0537831617556,0.153486357713,-0.0995020402851,0.0396025252988,-0.125872165704,0.0489121284536,-0.0409240070054,-0.239756871222,0.257007755378,-0.0443505092867,0.146124472192,0.00404683868869,-0.00195181453888,-0.170279536238,-0.247857516879,0.161828004332,-0.120590129887,0.0864568054197,-0.0167618542768,0.019287986653,-0.245109066294,-0.216077920048,0.173914361317,-0.0371846894308,0.15753347616,-0.0412667482326,0.07438552108,-0.191219548995,-0.136973355132,0.0994891171507,-0.0378910133036,0.0253336104408,-0.130430737039,-0.0232626533282,0.0209340047028,-0.0123523450939,-0.0384048417667,-0.0785306458607,-0.0563220073252,0.0608541170649,-0.0497197206916,0.00904623576725,0.00939373230378,-0.0749702586275,-0.0260952849589,-0.063362078682,-0.0594908804751,-0.0614805455366,0.0350243844339,0.064974855338,-0.00702310582639,0.0525619406145,-0.0595012173459,0.0395287848535,-0.0733887226962,0.0687820044038,-0.0499722436701,-0.17678852612,0.0101390267417,-0.120662904788,-0.0143335097885,-0.000375677624139,0.0310838114424,0.0307478819772,-0.144104155805,0.00472292134569,-0.0800616744215,0.0235699944325,-0.0455218231886,-0.00850981622808,0.0216263312481,-0.106150705047,-0.0266577670305,-0.0485778843629,0.0588279818549,0.0108365947876,-0.0528631686794,-0.0569008208536,-0.0400383406239,-0.0877401471994,0.0473752699037,0.00890515055201,-0.14022646456,-0.0523488364667,0.0705592634786,-0.00916371794443,-0.0509746004246,-0.0087829600598,0.114493773386,-0.107429501231,-0.0556681897738,-0.0165118441079,-0.176161317438,-0.156520787824,0.0489556812116,0.0843953123096,-0.0847212769264,-0.0649121077393,0.0861624294038,-0.0220120171683,0.0135963797105,0.0796431232677,0.148273112565,-0.167564539911,0.0031514686923,-0.02753464785,-0.0489813981412,-0.0346555625048,0.0142404488902,0.186913997383,0.0270798895046,-0.0159099696161,-0.0762356972963,0.0393890617391,-0.0718561167963,0.0725175601402,0.141938255579,-0.05137556045,0.0147406587285,-0.0529493133338,-0.0386714800118,0.0421562789949,-0.0239320917807,-0.0420830029254,0.0725233871607,-0.0325714343918,-0.094894249005,-0.0528667904337,0.0355893552653,0.0116633980636,-0.066249047576,0.0890671619776,0.0679470254843,-0.037753584881,0.0948502360613,-0.0317657617857,-0.0616236210181,-0.221103084084,0.0337564503089,-0.0497784782412,-0.0732607514265,0.0271958343319,-0.0297223278789,-0.140038100981,-0.2680027322,0.0768956050739,-0.0224265014139,-0.125100184742,-0.00133625709749,-0.0610335822863,-0.0753737179752,-0.257750382503,0.125938662065,-0.0409473566604,-0.0441407154096,0.119764205701,-0.0393248596714,-0.163549389591,-0.15982947518,0.0294632018967,-0.114493981346,-0.10104302027,0.0827567830929,-0.0718652706032,-0.0683898011336,-0.0938845656005,0.0161325367596,-0.0572997817886,-0.0884622055333,-0.0273971578557,-0.0706052746061,0.0431894452494,0.0593368041083,-0.0212030235605,0.0561109223593,-0.00987203233075,-0.106390750933,-0.0344625963036,0.0961608729588,0.0572411996148,-0.044952632485,-0.000666528007553,-0.00702667428732,-0.11153330871,-0.0800795780864,-0.0692347238623,-0.0228644395729,-0.0834047729182,-0.00532951040221,0.0363668913888,-0.147154320395,-0.0982710425566,-0.0890234643384,0.0642131215399,-0.146012979036,-0.140470212132,-0.110689301069,-0.103075000173,0.03395947981,0.00198044261371,0.0596461836897,-0.0455432805774,-0.115873416898,-0.134836905864,-0.0790063884344,-0.164955651394,0.00904201086891,0.0311457943197,0.00727961283399,-0.0157113785864,0.0508424713349,0.0624612103849,-0.0876861152944,0.0184381430285,-0.000921701174858,0.0239530308619,-0.0645116475569,-0.00861058541505,0.110100524924,-0.083941955481,-0.114994193956,0.0864947552822,0.0162356307225,-0.187412269305,-0.108517581233,0.109400193868,-0.185274551486,-0.0828131602449,0.0753669342558,0.0179432977913,-0.149006968367,-0.0701275059971,0.0708993264074,-0.052530783718,-0.0739748199341,0.0640905189648,0.0230255610552,-0.0769558219171,0.0494906418536,-0.0829416089581,-0.102830602581,-0.0814951736563,0.0543877837502,-0.0958510952322,0.0777806288626,-0.0454045789275,-0.0989635946053,0.084243455071,0.0339484765137,0.0182472188203,0.0700698265606,0.00315398768014,-0.0113794909013,0.0238223195539,0.0789541216003,-0.0845060781569,-0.0770681612315,-0.102125745218,-0.0584917476404,-0.00127210090527,-0.154456417534,0.180315670419,0.0344799450318,-0.12027320863,-0.0267251733014,-0.0460565452911,-0.109893273796,-0.0811367417423,0.0472798428768,0.0463767638092,-0.190902386274,0.0604137068488,-0.0687731624738,0.00390866554771,-0.0824595377027,0.074702283355,0.0848937100377,-0.0241426451337,-0.0644627067877,-0.0524441764691,-0.146915994375,-0.129921757256,0.12657629224,-0.101533891568,-0.154061317037,0.00816498695023,-0.0543393226361,0.069150846103,0.096049959419,-0.0558157728251,0.0684823697781,-0.0922075134851,-0.0837076826449,0.0628237209891,-0.0139691175775,0.0283077739124,-0.027720354988,0.00334721283098,-0.0060141775144,-0.0691708046605,0.0174793783529,0.0386641479225,-0.0735919127701,0.0328568103626,0.0716568773244,-0.0584385171964,-0.0658710077407,-0.10509104518,-0.0687305508271,0.061584587165,0.0322601488383,-0.0524298992124,0.00826840689861,0.0887542782244,0.00834433536054,0.0641503734513,-0.0893516385338,-0.0552824826464,-0.038875350606,-0.0764715290389,-0.0279340864151,-0.143636083329,0.0135232266274,0.0379797312967,-0.150270779136,0.0058344934196,0.0973652772514,0.0326742231317,0.0201248321106,-0.0531228662145,-0.119442033532,-0.143360374465,0.0665286232969,0.0883912996566,0.0372088629676,0.00348453693507,-0.0775088132809,-0.0787211160495,0.0112465439263,-0.0944969223596,-0.00260449364897,0.0177480329299,0.147876507823,-0.122219054142,-0.0472407755863,-0.158517382571,-0.10763317756,0.222316169247,0.0985981788456,0.0497127303531,-0.0981335928804,-0.0705168068486,-0.0135029020647,-0.118387847338,0.148780645696,0.0526622526252,0.0379837997703,-0.0872807016547,-0.0734662541465,-0.0891362642439,0.0524708106081,0.145695624923,-0.0327413392231,-0.0419857122774,-0.10210260102,-0.0832954524459,-0.0653131685755,-0.0526457667074,0.0567492316087,-0.0255686631263,-0.133894684854,-0.00099093351455,-0.000882034781638,-0.0151255326627,-0.118940786434,-0.171545257657,-0.0364396435341,0.00102934103025,0.157395970385,-0.050862898182,-0.0321432677029,-0.0848041473648,-0.203923270323,-0.0705100861114,-0.203482704642,0.113839512534,0.124521410539,0.0377039880608,-0.105105213341,-0.305688331874,-0.0393338508784,-0.202270956975,0.257189203677,0.0695284617693,0.161274265654,-0.0782101496698,-0.224911182106,-0.0577192863147,-0.10333557494,0.21114805288,0.0227524554202,0.160370694225,-0.0300710850938,-0.183897751059,-0.00626983150925,-0.205570932421,0.17859158665,0.0825735922488,0.132804110284,0.0224699495186,-0.323386309932,0.012996833161,0.0255596411722,0.0172107253927,0.0451775975791,-0.0333251098399,0.0500206988009,-0.0293250192452,-0.083800216605,0.102422766641,0.00306209478328,-0.0706375642395,-0.102938400168,-0.0829613261936,-0.0460916044585,0.0403843194612,2.3820827695e-05,-0.0120328880348,-0.0809708244883,-0.00142619229188,-0.0220031082785,0.0110660669492,0.0331670642075,0.0978634425339,-0.039433362701,-0.0774519752227,-0.0291542568208,-0.113580338939,0.0105554585668,0.0692785241646,-0.00518671309027,-0.140456552109,-0.111059283954,-0.0134250084764,-0.0402981491777,-0.00820686909419,-0.0987992468384,0.0183377378504,-0.203213794502,-0.0192513250348,-0.0255851902824,-0.0654576772304,0.108577253597,-0.102339983929,0.0164446099421,-0.0535645050679,-0.00463422563491,0.0170183940556,-0.112270268017,-0.0886310673192,0.0500783615516,-0.0675275296744,-0.138371588471,-0.0131945581604,-0.111795207712,0.0120341588053,-0.0948215225106,0.0895565619131,-0.0562010342646,-0.0223653338512,-0.000138907207023,-0.104947355337,0.0639731370892,0.0332776610511,0.134998723467,-0.0911738527361,-0.0640017578194,-0.0639780355765,-0.100799449534,0.0992910232093,-0.0306185389964,0.131888621796,-0.0117605126295,-0.0478235938881,0.0731016270817,-0.0858856436477,0.00907312487252,0.0779649237283,0.100090067299,0.00568897287011,0.0106848067142,-0.0521792892653,-0.00850319944297,-0.0733334862966,-0.0417493347977,0.0240960132867,0.0902750909648,-0.0016140040942,-0.0432041318674,0.0659174248401,0.00938524921507,-0.04818915565,-0.0618177852824,-0.00537628757641,-0.0374783296194,-0.0214268085522,-0.0622543783808,-0.10130961865,0.046699652907,-0.181467338307,0.0271676230131,0.0526484692474,0.00605181381879,0.0445464354146,-0.0702329461839,-0.000290186717039,-0.196257380057,0.129392497285,-0.0689472147303,-0.110165802001,0.00869382107985,-0.184285466391,0.011288272806,-0.212644851226,0.0698937554166,0.0818669809386,0.0459954090186,0.0244789517446,-0.173265019457,-0.0466222621958,-0.181068477707,0.140420011667,-0.014803915116,0.0036769873014,0.0638251194866,-0.0499027779551,-0.130402026873,0.0909246301637,0.00528506379459,-0.101958846193,-0.055262635133,0.0591926120372,-0.0821058869213,-0.00346448455312,-0.0123993756422,0.00420435202709,-0.00775716790285,-0.081585709096,-0.0332941706254,0.0730562031694,-0.0128957200685,0.103041604911,0.0586588285262,-0.0616694129614,-0.0879378422055,-0.102942062799,-0.0480789288662,0.0392774011958,0.0476177857681,-0.0413368614566,0.0313625349302,-0.0525393764167,-0.0805006813408,-0.0170102767191,-0.0988526967671,-0.0348156837868,-0.145599030789,0.00266984670806,-0.0889687194881,-0.154813914738,-0.0727103097193,0.0358404948741,0.117320813128,-0.0526063125976,-0.0378017192091,-0.0809470013021,-0.112024528269,0.000950977082459,-0.119799006394,-0.026083319513,-0.0664332288738,-0.0345375878208,0.0693994888789,0.00828426727955,0.0204749964274,-0.024721813379,-0.0497919169821,-0.114778981302,-0.0369430719364,0.155289511058,-0.0391074160858,0.0655954576517,0.0544451400479,-0.125760964408,-0.158109771511,-0.21479922778,0.256195660664,-0.0431259277549,0.0466333264822,0.00421562229433,-0.158311499056,-0.090001879013,-0.160892145676,0.229894131223,0.0656407901076,-0.00474017770702,0.0622329713761,-0.0676571811497,-0.158268552812,-0.113857906289,0.0971605651909,-0.0616471333291,-0.00371771022746,0.0420472062844,-0.100614162667,-0.0998320618304,-0.130767744451,-0.0511376101297,-0.0728129471366,0.12868882397,0.0736537982822,0.118212324938,-0.0127273377997,-0.0177154427225,-0.204169817503,0.0230884227886,-0.0571631068745,-0.0431666008109,0.0605471113756,0.0712806421914,0.0274353228509,-0.216144820748,-0.00793710776076,-0.0176914100305,0.0513126867483,0.0451188145567,0.0411273810517,0.122371473784,-0.176693872851,-0.0267422817354,-0.151789244932,-0.087151569965,0.141545638143,0.0727870757545,0.169061834458,-0.343173496858,-0.0233949166849,-0.143850886349,-0.0889113978741,0.136998671258,0.0844719132388,0.187161869892,-0.337954775855,-0.0371399416279,-0.16610597766,-0.151725537074,0.156655591669,0.0164495328137,0.185905114914,-0.271630268661,-0.00859965297088,-0.219272219717,-0.0905497381055,-0.0225083430143,-0.13161667842,0.0440348145075,-0.0286977760769,-0.0664931887346,0.075194670032,-0.0664719827115,-0.138796571304,-0.0560104859284,-0.156090224867,0.0633580161588,0.0387307083863,-0.0437266610663,0.0419691275256,0.0262960365982,-0.0235611116853,-0.0503686815211,0.0500594909229,-0.0596929327109,-0.0832735034792,0.0507890636852,0.00990343073498,0.0263722789188,-0.00176230090526,0.0578856130703,-0.0209708744126,0.0138544417985,0.0588734150244,-0.0528336313845,-0.150297592085,-0.00372953300455,0.170699879992,-0.11301713203,-0.0436104365885,-0.0191897589781,-0.0477518767562,-0.0751606032664,-0.143498821923,0.123303936413,-0.0555510122059,-0.0288169987092,-0.00229250204705,0.0541013532135,-0.144494470355,-0.076981163282,-0.0392414610432,0.0127143240258,0.0400440991015,0.0452884384136,0.0644304963571,-0.15438516883,-0.118690541826,-0.0209788922734,0.0215734697684,-0.0806241237782,-0.0583308961848,0.0784420102947,-0.250075196505,-0.0568397159827,0.0044273237549,-0.108662569637,0.0737552034912,0.0870065002922,0.0168948178859,-0.132100927468,0.0116649998064,-0.104920208827,-0.0481122845418,0.0331175671926,-0.0882674472345,0.143570270619,-0.203247622096,0.00899132737606,0.0014168685869,-0.0327912232065,0.062523556682,0.0858101268157,0.101521402473,0.0281708275749,0.0305667142063,0.0317758889925,-0.00875628999141,-0.0440524326432,0.00228952030938,-0.158779688771,0.0761167300111,-0.115812226586,0.01948410858,-0.0731942281338,0.036559589935,-0.0468965723496,-0.0747488112447,0.0329041680452,-0.00751554651088,0.0293921957682,-0.00927869124969,-0.0308647430876,-0.110162797196,-0.0970615969195,0.194225299036,-0.154881892969,-0.0736159472603,0.0598825090905,-0.00287143798387,0.00308856569522,-0.261456572018,0.141643433204,-0.0720690713769,0.117337009778,-0.133242145521,-0.0436452965919,0.0509661345429,-0.193108918631,0.239333714131,-0.112956888027,0.0168098740301,-0.0830012910507,-0.00426601533643,0.00668567979469,-0.109247855023,0.0896649511393,-0.10561704949,-0.0489108746618,-0.0174118203485,0.0186563658237,0.00406619253781,0.0677583754111,-0.134912021218,0.0463353722075,-0.0481616562862,0.0084006317537,-0.0743203218517,0.0577853368753,0.00896967368287,-0.106539017589,0.074126754419,-0.00571956435862,-0.00938329279226,-0.0914455183167,-0.026031271713,-0.0880007327771,-0.124421594513,0.0688727920863,0.00828375323266,-0.0251058603048,0.0820792844671,-0.0989612970378,-0.00703931420145,-0.097817940929,0.0666853883376,-0.0278318476478,-0.0791310261835,0.0493425609727,-0.0563071217856,0.0280179764391,-0.172320989692,-0.00893204804178,0.0116161286297,-0.00061816356768,-0.0196827153989,-0.0464391152632,0.125349661523,-0.192256197934,-0.0583981331765,-0.0934928069521,-0.0598566215845,-0.0610121206099,-0.0771683862486,-0.00571610143252,-0.0554184610555,-0.013163815669,0.00405022078693,-0.130528817282,0.00768679404399,0.0533803775995,-0.080255792839,-0.00943333520586,0.0332729074811,-0.0704822101368,-0.150483593345,0.0827126484287,-0.0732944737159,-0.0423865323037,-0.101068872558,0.0467097153319,-0.0896009605097,-0.110748901293,0.215739989025,0.0823605831919,-0.0437761349131,-0.00636597463374,0.000263657065459,-0.0540581110475,-0.103798551775,0.0829345644485,0.0972019375974,-0.141830763998,-0.113637769894,0.113651653932,-0.104865232011,-0.163746804066,0.16632824067,0.0196623249637,-0.10653888105,0.0450369035121,-0.0906962651721,-0.0525948915227,-0.0882559709568,0.095928141443,-0.0444236073555,-0.0680090416516,-0.0162595289088,-0.0609829459577,0.0923732817474,0.0970737147465,-0.193385867012,0.00586102781843,-0.0686088287361,0.0101950427924,-0.0204869257127,0.086670922933,-0.0142135370752,-0.0986394411249,-0.12980207394,0.0153804563708,0.120766653561,-0.126575129687,0.0802442526658,0.203341940655,-0.191407536376,-0.0995245217408,0.0759211354249,0.0760449964799,-0.165308748126,-0.0553754637984,0.0930762605902,-0.313441584963,-0.19276533494,0.0959300493,-0.0315259509896,0.0175284044099,0.00598783838029,0.182095771088,-0.265024777784,-0.163531193542,0.115794438716,0.0956423156786,-0.158081159239,0.0347484903365,0.0633579786939,-0.218077568107,-0.187656729032,-0.057397088218,-0.0648264384672,-0.0637898453338,-0.00749256826224,-0.0680846111007,0.0448280557865,0.0455525656903,0.0449387243383,0.0159521821804,-0.0767212261667,0.00356775477946,-0.0806752633571,0.09100979499,-0.00605343964106,-0.0916414098742,0.0398282733088,-0.0219964327635,0.0554412280563,-0.0999380169874,0.0245379445216,-0.0349603113901,-0.098909295874,-0.108088119,0.0199954635631,-0.0762423040327,-0.132008019542,0.111075485201,-0.0609805213327,0.00374901922564,-0.140443849093,0.0514904211247,0.000923985608491,-0.0729705825612,0.150003676278,0.102698937852,-0.106902759629,-0.092072658697,-0.0729711915236,-0.00844426226361,-0.134048735172,0.0897477827175,0.0248788504127,-0.11655514971,0.0621021061054,0.0406935361835,-0.103216993732,0.0268169313034,0.0240940674152,-0.0833022951272,-0.103448827533,0.11776518189,0.0618076593951,-0.123320868042,-0.0125554225463,-0.168882939936,-0.017400375048,-0.0659327997506,0.0660845170173,0.0624303696601,-0.0758425452522,0.175001230898,-0.0949056320891,-0.0786309229476,-0.000980289140276,0.0635929180329,0.00655664619889,-0.124568969406,0.0467991793417,-0.178600697776,-0.10134993267,-0.0395342762052,0.11289659585,-0.085212446077,0.0108124824716,0.160454842392,-0.0945569037254,-0.0837039625278,-0.0912172699298,0.0225020009233,0.102834672334,-0.0125931671802,0.00739234736419,-0.0254679597316,-0.0560568112053,-0.0954673966636,-0.0587398690737,-0.0615020806774,0.0414759027773,-0.0021361513745,0.127929162955,0.034211509996,0.0606893774733,-0.174219335343,0.0315452622613,-0.0181469837715,-0.0886133442606,0.0034715361505,0.0619799046064,-0.00889577448291,-0.190814096474,0.0486630971006,-0.0418500739393,-0.26390663848,0.113844840657,0.0887568397546,-0.0107053331345,-0.197138181123,-0.122393978399,0.00705618390408,-0.141350713036,0.215076533693,0.10791903564,-0.0330320682436,-0.19024130963,-0.0467115712627,0.0299193880935,-0.238915942299,0.184462134368,0.0118441472005,0.0152739324088,-0.0675853895921,-0.0457019566497,0.036385836184,-0.253894786048,0.088818844763,0.0323435306236,-0.0661098162558,0.00679813147242,0.0699738427196,-0.0137160702001,0.0020907198309,-0.067002504337,0.0305509598448,-0.0747219954211,0.0180048528255,0.0834353579714,0.0767546562204,-0.0153699541165,-0.1433505899,-0.116138534469,-0.062720565765,-0.00337466094816,0.037276320701,-0.0404442639899,-0.0256326729618,-0.0617571467978,-0.051088979205,-0.151185332365,0.114789328159,0.0168175729551,0.0126944536829,-0.00895290927178,-0.134613562223,-0.114907128671,-0.120035801107,0.0250144707481,0.0238194477877,-0.123194474395,0.0668181861624,-0.0481447861881,-0.00274708442834,-0.127216567447,0.00838699612272,-0.0243007174387,-0.135803398512,0.0620660389736,-0.0771049989366,-0.0534218399152,-0.112777770805,-0.0642637290486,-0.065001754989,-0.0759004893896,0.0337303335364,-0.119126077826,0.0332427949107,-0.0310742609687,0.019887102556,-0.0156738635538,-0.130785403229,-0.0870391029151,-0.0103405689888,0.0143476889671,0.0782312191191,0.0276353007014,-0.168455797768,-0.0395175935137,-0.190660018415,0.0662558846492,0.150590422181,0.0854681234235,-0.0339097073949,-0.113579807923,-0.0489392493856,-0.174538805438,0.108719054832,0.169793749594,0.0240352549841,-0.011339251439,-0.111054819059,0.0118535214154,-0.108311717697,0.0152124849259,0.0703062501716,-4.35744549103e-05,-0.0285715882141,-0.099637522331,-0.113089774923,0.0119434420463,0.0581189744703,0.000867678100823,-0.0732200220366,-0.11281821516,0.103998413984,0.0545767319596,-0.0223371299479,-0.0087934157679,-0.123544125676,-0.034966589994,-0.0969204975591,0.00719422714526,-0.0675287784015,0.140046816193,-0.0821104082167,-0.0592419460783,-0.0797079378239,0.0479450048473,0.0291469673562,-0.043139043429,0.146497841373,0.00836504319599,-0.210135936151,-0.110491834997,-0.0427330639416,-0.0217961872688,0.0382224638584,0.122957750516,-0.00699623032445,-0.0905483107372,-0.176045437334,0.00160296331731,0.0482206916865,-0.0667509644666,0.116705450649,-0.157252950877,-0.240884732064,-0.0712814521196,-0.0217361474358,0.0312990894572,0.000458833828747,0.0773629720562,-0.0858468761709,-0.263513188322,-0.0895868299302,0.0330138521056,-0.0136505721432,-0.103945282359,0.0463522845402,0.0194414100359,-0.0701200437383,0.0338663923556,-0.0229524257959,-0.0905352212937,-0.0202650024068,-0.0812236360743,-0.0975272603129,-0.0526414154256,0.0328801537025,0.00614855799581,-0.120218236191,-0.0613201936131,-0.0174451659575,-0.0426044016683,0.0230398436473,-0.0433359768596,0.0501645627727,-0.105053293563,0.0415242910504,0.0113946236749,-0.0487832827677,0.025393081724,0.0515094418865,-0.0226432126188,0.00113123746106,-0.132341936208,-0.0713517893196,-0.0806825486437,-0.0187219525714,0.00552034482934,-0.00610958412019,-0.177454490617,-0.0284734430356,-0.0619320725578,-0.0251719020847,0.140366806799,-0.0417073495001,-0.0155060913611,-0.044201566567,-0.113076770644,-0.0304345681731,-0.0747888490127,-0.0873154462381,-0.0555107907984,-0.0752944356517,0.0482398194171,-0.0969038783804,-0.0299821845216,-0.0199096680696,-0.0501939728325,-0.0656050442116,-0.00411506473121,-0.125959191215,0.0677942613083,0.144635113359,-0.0336560281404,-0.0741925978741,-0.0900367425666,0.0566200183132,-0.0746788766572,0.0888518548044,0.0189033931096,-0.00928220283313,-0.195149831653,-0.102393971513,0.0280439661209,-0.106766640725,0.00362338079781,0.141390311193,-0.0834794813785,-0.0451212884252,0.0122771982724,0.0403840663185,-0.0264437187833,0.112184887975,0.105319307204,0.0931086832499,-0.119971788942,0.0388380306837,0.035358348954,-0.0759763494257,0.0550600600559,-0.0259543903082,-0.0129687437447,-0.041060999214,0.0565950679359,-0.0326235003681,-0.0229443761817,-0.0521001528504,-0.017369336994,0.0206082936578,0.112253676236,0.0854960896089,-0.070092727947,0.104005827598,0.0434792159316,-0.248748487736,-0.0602122786427,0.191205987441,-0.0489227455822,0.0179309370277,-0.0398066165862,0.0319120105849,-0.216621551589,-0.0656487933426,0.17486197887,-0.0735226676493,-0.0555016704906,0.102769009277,0.0411323035201,-0.277172247668,-0.0702547585862,0.0289117620916,-0.0688216548247,-0.0366411629845,-0.0247516299501,-0.00328962818541,-0.137531738274,-0.142285153045,0.0469745097565,0.0265835473422,0.00964591089262,0.0479698586043,0.0360356878025,0.00182365127614,0.0152834746947,-0.0588996131907,-0.0680696469335,-0.00666097540135,-0.0641210372062,0.00523305855298,0.0389958715953,-0.0410977458619,-0.0882485154256,-0.100803406621,-0.0532293068593,0.0412340787325,-0.0998000692407,0.00351351255156,0.000112756498646,-0.0409794649265,-0.0172187167701,0.0378188469241,-0.0658355310074,-0.0228521870237,-0.0370075136006,0.0344602014227,-0.0087494678435,-0.135113339478,-0.0495109509972,-0.105123301578,0.078879809831,0.0753350188034,-0.112785737186,-0.067185098004,-0.00280209739041,0.0852615884237,-0.0854834857265,-0.0371206182908,0.166454690154,0.0111229602988,-0.0407264485555,-0.0946570318455,-0.0096111352003,0.038429026467,-0.0468383707257,-0.0923043882978,-0.000388704947938,-0.0471253062964,-0.0468231921621,0.0646602958758,0.0734942638765,-0.0897000966839,-0.0399507623798,-0.0794966131184,-0.0331037891046,0.0612738695494,-0.0678368998457,-0.0425637488013,-0.221671154735,-0.0597716523419,0.0203768705744,0.017707806548,0.0815395086796,-0.0222164096644,0.0048003689373,-0.24347024033,-0.107125975522,0.00717992039361,0.044919294319,0.0248058718295,0.113476673483,0.0530104637797,-0.237666931626,-0.0240232120341,0.0609049000988,0.0334645581995,0.0325691608244,-0.0850541938442,0.0663518084171,-0.0036696924501,-0.0516806897884,0.0536420135975,-0.0219819431635,-0.104000871214,-0.0864503929585,-0.00746932385566,0.182845095854,0.0195071244807,-0.0908428219784,-0.0462510752081,-0.00398005155048,-0.14445430559,-0.0412490394541,0.192468707625,0.106274313155,-0.122520664413,-0.110830228332,-0.095488684564,-0.100889929787,-0.098145496419,0.278090693575,0.0609468379042,-0.0802170374069,-0.036417751718,-0.121806526556,-0.102900169809,-0.0111899155589,0.320494880007,0.047396611695,-0.0686734211659,-0.0537638351877,-0.0661002700832,-0.0626455469519,-0.0176603606911,0.311953059074,0.13930960288,-0.151128782272,-0.103757494536,-0.181804135883,-0.16507028548,-0.0245746143592,0.2640748018,0.124988204303,-0.0718240451382,-0.000472938958673,-0.0119168584254,0.0546008082071,0.00508123919888,-0.113448776912,0.0132687791962,-0.0428634855891,0.0030443514611,-0.0649536198495,0.033891606205,-0.0179893972629,-0.085506571472,-0.0481639250248,0.0465657671458,0.0559332731252,-0.035940711154,-0.0271351368044,-0.0572317214301,-0.0115578511611,-0.0838305003917,-0.070488234829,-0.0721847445894,0.0445878048193,-0.0426536579039,0.079389040844,-0.0724038955093,-0.0334822087026,-0.0203872207473,-0.0275404197412,-0.0312513942232,0.0932269984054,0.0308792920867,-0.0540292238656,-0.0574449279413,0.00371239420477,-0.0110577220133,0.0350874243441,-0.029409787871,0.0724263002243,-0.262460943069,-0.0402757342675,0.0361253665125,-0.0134089458081,0.0379378520148,-0.00795622679802,-0.0281491599852,-0.0401825025247,-0.0234963882606,-0.0785675452551,0.0412703309896,-0.0654298757224,0.074454406971,0.0493377664926,-0.0134158999802,-0.00695194047464,0.0133152711869,-0.197175506043,0.0517398755139,0.12627091883,0.0668480394445,-0.157147648032,-0.0790905597837,0.0299483548801,-0.289991311,0.0634865393615,-0.0213968446702,-0.00536268726759,-0.0897019454132,-0.0039464681654,0.0414048873064,-0.103680202205,0.0296683623721,0.02614035902,0.017909405558,-0.0399355176723,-0.0579980383097,-0.0180241154391,-0.189542302499,0.0311413392709,0.0363492092938,0.0895983723343,0.0529232775029,-0.114039052306,0.0328854988423,-0.0167179766764,-0.0476238895699,-0.100822837607,0.00209692499423,0.105262997621,0.0850089924854,0.0182298914354,0.0185411518958,-0.158942212354,-0.0129359624737,-0.119838653262,0.0823721215256,0.00216533077004,-0.0703742064345,0.0449490171032,-0.261270166679,-0.137736579208,-0.0626882323127,0.0933416350491,0.0537490952435,-0.123087154773,0.181414729773,-0.143547744806,-0.218167724556,-0.197995097888,0.135142316278,0.0982127664566,-0.057631931191,0.228130268836,-0.154017773887,-0.139823594303,-0.15099441869,0.105881176404,0.0679322747968,0.0344350564368,0.18168758383,-0.150762963366,-0.116699234193,-0.10734831498,0.120852608994,0.104542199083,0.0289461925878,0.187680234265,0.0365471302726,0.0468068674315,0.066339409811,-0.114802826187,-0.0168753766309,-0.110416099307,-0.0648890833938,0.0923184787771,-0.00550375937654,0.0524278346606,-0.0973484351638,-0.0232905278615,-0.0208021908965,-0.0774275519878,0.0186594741958,0.0853306680629,-0.0450763652343,0.0238588191803,0.0120362652679,-0.0153774986201,0.011886325152,0.0337117324793,-0.0281382239034,0.0782728115243,-0.126072826248,-0.0493191432307,-0.0538553360631,-0.0826509470437,-0.0124616320673,-0.0567599459329,-0.0199145738208,-0.0585863857093,-0.0276170185099,0.00611132815997,-0.120623117086,0.0914812981832,0.0922544724437,0.0801643142077,-0.0687765787746,-0.199544817417,-0.0964713480103,-0.0388663607956,0.0375177588855,-0.135163325289,0.0104144173669,-0.105135615323,-0.0251429963028,-0.147252824815,0.00262530398775,0.0180040099499,-0.107429593935,0.0598582666907,0.0583277521413,-0.118516019186,-0.102883940039,-0.0527575871761,0.0485269292122,-0.0423607037702,0.0898975769504,0.0760173237018,0.00152548326815,-0.184632215814,-0.112759827844,0.0349344757946,-0.196103590448,0.0298390828299,0.0578402302297,-0.08263891202,-0.0208595236706,0.0515939488624,0.0243930025277,-0.110267823357,0.014768921767,-0.0156094274603,0.00648371836356,-0.152525031098,0.0545856383576,-0.0210970676467,-0.0831773652461,0.124101377512,-0.043650528504,-0.0205496486989,0.0542327645543,0.0630099979593,-0.0556234424833,0.0838425092142,0.0439392561789,0.03052878112,-0.0257936051571,-0.0152252990841,-0.0798038534373,-0.0060456116614,0.0884165155343,-0.0703714736886,-0.127079074975,-0.0681049224459,0.128141462727,0.0507508726913,-0.0262121590822,-0.0140090652399,-0.0652234199927,-0.0836314968278,0.0165375570415,0.174427106445,-0.0636186516166,-0.097315242069,0.0345144874831,-0.211885435946,-0.17064215412,-0.0746987618072,0.191771702001,-0.124780036629,-0.0847582585863,0.114831452876,-0.142884419111,-0.199110031998,0.0285785072627,0.0229727660799,0.000932218364151,-0.130555569811,0.0851965295738,-0.151517536132,-0.110739192335,-0.0260104162956,0.137925763882,0.0118033543741,-0.0670256873205,0.0408150757349,-0.0388955114128,-0.00756579649101,0.0722657375096,-0.068810785053,0.0157615478271,-0.0219664448608,-0.106385898689,0.0661840352777,0.00798991989314,-0.110285256891,-0.134937658699,0.00166129717546,0.0145966931055,-0.114432317824,-0.0627881825019,-0.0357938965059,-0.0580623700379,-0.0667603546836,-0.0892246269773,-0.066778912509,0.0264245457194,-0.0158943334911,-0.0178148846594,0.0471667863755,-0.0271029694433,0.0239338611084,-0.0155786193081,-0.0395752267419,-0.0152421400757,-0.068767895853,-0.139422685829,-0.084457676324,-0.0655947709185,-0.022873547183,-0.0563212310096,-0.0319736337797,0.0477321246107,-0.130652075034,-0.0422125396972,0.0197018047784,-0.0517713761877,-0.0969065081433,-0.071699233381,0.0744584730942,0.0968118257724,0.065270396233,0.0374865841404,-0.123534278184,-0.0397282715411,0.0138028242806,-0.0230565116082,0.103292918469,-0.0236421573547,-0.0773513936214,-0.126684322397,-0.0910930951086,-0.157978805154,0.00283026234998,0.0775345191762,0.106948000372,0.0319536099776,-0.10215956476,-0.181388447687,-0.126455268729,0.107851954584,0.137487267283,0.184123094707,-0.112198979115,-0.184516413554,-0.138919411778,-0.14872973314,0.0980996912099,0.113072844625,-0.0117250682059,-0.0969711779098,-0.110808331761,-0.120196290337,0.0293531188809,-0.0465535358361,0.0534528161423,0.061314668002,0.0314839705417,0.0587599766047,-0.0236313381862,-0.0222429891506,-0.0392414355918,-0.0890136230312,-0.0897331493474,0.0481757862307,-0.0601614193145,0.182177758925,-0.0215895563436,-0.174032405117,-0.126396125334,-0.0412341595458,-0.00813146045359,0.188778420343,0.257806317625,0.0394143152301,-0.0771606059165,-0.175321450265,-0.175102148646,0.0792329867713,0.132218853516,0.208983980765,0.134821611923,-0.185596712328,-0.168269378469,-0.253506983296,0.105325635357,0.11915419006,0.266265446522,0.0808765095624,-0.165841575464,-0.220075688467,-0.121533637115,-0.025953536915,0.117918727731,0.175546401567,0.0111397688161,-0.138671935317,-0.0941514374996,-0.268215767277,-0.0456739406012,-0.106456448141,-0.141129555898,0.0490567257071,-0.0357671054774,0.0592642568914,-0.0698181680552,-0.112010683629,-0.0334709970465,-0.0713029959495,-0.0788453574451,-0.0937514178641,-0.0408164752383,0.0304361697818,-0.0120542179064,-0.0210491615059,-0.157508556312,-0.122083138834,0.0532894803662,0.0503184748083,-0.0999040448637,-0.0271273299598,-0.00887165226063,-0.0397068275637,-0.0759523268587,0.100021700383,0.10816050444,0.0433034629435,-0.0772488554684,-0.129727475162,-0.163724573316,-0.115799164298,-0.0467306921668,0.0788292377146,0.142255989136,-0.0522714422978,-0.0204791094701,-0.195030795492,-0.148777113978,-0.0284612252069,0.100320131634,0.0529534988047,-0.0756160305238,0.0647155544726,-0.024765366281,-0.101260027538,0.013187683265,-0.133122234637,0.00341952638746,-0.0675537770214,-0.105527987607,-0.0483099457511,-0.0848998048851,0.0114528688649,-0.0264419565382,0.0179284838992,0.00361433236598,-0.0930827539259,-0.0657704415652,-0.0234318338329,-0.0389564737889,-0.0672244874091,-0.0196859136822,-0.0515595444838,-0.109827050042,-0.113024027018,-0.0883926236076,0.0674410030547,-0.0227912627313,0.038985350705,-0.0551816590965,0.0241520999667,-0.0951533752402,0.0232499261069,0.00392676684742,-0.102802431448,-0.0423915284621,-0.0621354488862,0.0467013995841,-0.0771637278896,0.0691480674801,0.0955325749083,-0.0608502925525,0.0158973411554,0.0709753411129,-0.088949766727,0.0645411606736,0.0384012846691,-0.10428182066,0.0524200844863,0.0204410029138,0.0653765774082,-0.0288099563956,-0.0131670391822,-0.0533960904251,-0.13369539583,0.0110607339459,-0.144389040536,0.0110208257878,0.0303180848806,-0.0368199161472,-0.00736013367589,-0.0950060971185,-0.000213954306444,-0.076919655161,-0.0477408971638,-0.0261992340095,0.129488613842,-0.0204534374723,-0.0263080516102,0.097959510865,-0.202955831836,-0.0564711868818,0.0516451857738,0.0460511359578,-0.0133202366891,-0.0711654230502,0.0687862732417,-0.17218623728,0.0303708051314,-0.0596665979465,-0.0389576559169,0.0328630245383,-0.180522349839,-0.0243480147064,-0.136820777785,-0.0480017568316,0.0245692915299,-0.0172594677648,-0.0921866056463,0.0315653703526,0.0669304972056,0.0823297765557,-0.0535738762727,0.0144475689596,0.0342179390943,-0.0100507168108,0.0103791891553,-0.0933232811522,0.0888670914287,-0.00606058026108,-0.0970584252344,0.0374834955958,0.0315868936748,-0.0430899867906,-0.0129481818967,0.0304075706253,-0.0338329243706,0.0329276501607,-0.0631113064683,-0.0800146613008,0.0286894267674,-0.0219944629986,-0.0146798778528,-0.06218179225,0.000363688528411,-0.125430088726,0.0378473838039,0.00848436581237,-0.0955216222368,0.103955349949,0.0300259137054,-0.0283173474556,-0.0665219273661,-0.0456520063674,0.0649503325499,-0.0844841581559,-0.0483562766762,-0.0897210030238,-0.0920059986643,0.00490652101529,-0.133882661974,-0.148679300305,0.058395396786,0.055967366044,-0.0109415115702,0.0635655125465,-0.00205553169857,-0.0764710293344,-0.115307742253,0.00751157223061,0.0090924050015,0.0627384390475,0.0631475125868,-0.118310949239,-0.180061775793,-0.117828763545,-0.00834422077241,0.0530410592399,-0.0172475284721,-0.00898894987558,-0.148969613223,-0.133371538218,-0.0310214776298,-0.0126999664805,0.0864267086522,-0.00791828234649,-0.0389798835348,-0.0557063556823,-0.175361462449,-0.0278917523858,0.090346894908,0.107328929788,0.0952470047162,-0.0735711176621,0.00353539176043,-0.0372066085231,-0.121614124359,-0.0326459287938,0.12396128356,0.0496735459531,-0.142999418154,0.00874911381455,0.0800589521204,0.011333935795,-0.0467718174923,-0.0470893133278,-0.0294226663098,-0.0971233798675,0.0961177817965,0.0301592965595,0.0485848443812,-0.0504039501657,-0.0881687318177,-0.131764915041,-0.0610799950484,0.139916290988,0.0803123161762,-0.0544295936987,-0.206758146182,-0.0418154507712,-0.105311751536,-0.158612098589,0.150498453506,0.145463728033,0.062927476633,-0.0775125566384,-0.084574064901,-0.00493940443215,-0.144839562824,0.0564178596814,0.216066514266,0.0793292527159,-0.0752930700559,-0.181522882828,-0.0186000872677,0.0119340415819,0.115234125224,0.144660535048,0.105635120431,-0.141467201876,-0.181099479341,-0.170048688674,-0.0671749252334,-0.0240465993478,0.0100888305898,-0.095326997218,-0.00272093285567,-0.0151844012843,-0.0804696339777,-0.022107910054,-0.022920826636,0.00172048995162,-0.0880072168697,0.067321785847,0.0597282440966,0.0284591371337,0.0293408814049,-0.0320009625143,-0.128655523028,0.0307977815231,0.0363352931371,0.0944452134559,0.0483750456584,0.023603713947,-0.107174790348,-0.138857743884,-0.0666514968099,0.0503367235333,0.0546511139411,0.0713993501599,-0.0825889764519,-0.0555320655955,-0.143440528824,-0.137419365757,0.00358867031423,0.0713684653454,-0.0597836881322,0.0682617825661,-0.0180780365834,-0.198140141525,-0.0905227474667,-0.00921683028652,-0.0169391890947,-0.0384199611853,-0.12464098032,-0.0997677942285,-0.0578199856024,-0.00133905232666,0.0368251123092,0.0270171844528,-0.106524866208,-0.0605068380563,-0.0576189966481,-0.114666526557,0.0313525453782,0.0457436869077,0.0476613622371,-0.0981452228378,-0.073344278308,0.0201098667449,-0.143064962129,-0.110390806486,0.228209054668,-0.00934710175078,-0.151814990747,0.0403726914466,-0.0462875782969,-0.0249157972357,-0.0320584580748,0.0908097760276,-0.0985189655542,-0.0222017985191,0.00216384073491,-0.0383536567153,-0.0182523620831,-0.0720019932671,0.19980252378,0.056313111292,-0.0500723304426,-0.0471411676935,-0.0360636369846,0.021582164905,-0.0335002011783,0.00503379275962,-0.0168801418841,-0.0864452135602,-0.0109196537274,0.0790613901956,-0.0631958344565,-0.0974007804132,-0.0832339409573,0.000983214385912,-0.00454075746933,-0.0649192047089,0.0772041720591,-0.0377726615281,0.0343298583947,-0.166242799575,0.0544677186139,-0.0504207979277,0.104734808544,0.0434803531267,-0.00710500696831,0.0461921313986,-0.214085195387,0.0279003156206,0.101056698067,0.0771512971894,0.03300659398,0.0438423970557,0.00539598610606,-0.32029168757,-0.11988432752,-0.0187710132091,0.0233363590262,0.00255850160856,0.0834907000132,0.116990859469,-0.234915645773,-0.0213162761042,0.0966691480433,0.0443750122924,-0.0961744400721,-0.00624388372258,-0.0284488804224,-0.256133162982,-0.154780919455,0.0324864753513,0.0435369373277,0.0213580745536,-0.00116265834951,-0.0369254745049,0.0186018880106,-0.0766505696752,0.0328280350069,-0.0586681089073,-0.105257052319,0.00841675794341,-0.0515586032875,0.00752445011606,-0.0773016432941,-0.0572280780761,-0.00908498729692,-0.0303226323982,-0.0223787045383,-0.0929655405228,-0.064265985247,-0.100713820868,-0.0594698959968,0.0281034469783,-0.0128768311768,-0.11147514705,0.0322009099226,0.0113815364847,-0.0638540198121,-0.0466054087041,-0.100635870434,-0.0862804772268,-0.0490120507596,0.0319450406142,0.0645535502004,0.0289844627663,0.0261445296517,-0.00741318006604,-0.059994029442,-0.0316898008372,-0.149477372171,0.148388285042,-0.0961768953211,-0.0346622817829,-0.0202060276159,0.0899087679814,0.00430677561114,-0.172675671303,0.0142341759317,-0.0524699788329,0.0249766150203,-0.105917905813,0.077112889789,-0.152424805743,-0.166986655952,-0.0619395819938,-0.0973424930295,-0.111556917657,0.0427276397065,0.173564592241,-0.0637614765511,-0.0696371359687,-0.144777566521,-0.0116062925723,0.00574580108002,-0.0135906075068,0.225489751744,-0.101437199671,-0.152486325052,-0.138448939449,0.0211544255597,0.0188331649859,0.00518480031269,0.0922898187968,0.0744937074437,0.0224206066033,-0.049088761184,-0.0201615945256,0.0130175850737,0.0628039878668,0.0775386340966,0.0552470436681,-0.0403124442694,0.0156380115006,-0.0568883778486,0.0025058788905,-0.0250779498018,-0.191336414845,0.0179255439243,-0.0598938803868,-0.0264503880137,0.0952222793643,-0.113017847766,-0.113827473948,-0.177716981264,0.0174370317654,-0.0570126490149,-0.0749783787226,0.068129510402,-0.0160792666985,-0.167633166126,-0.164954531432,-0.05226105973,0.00952386077614,0.00184930057132,0.0873350761211,0.0206384726345,-0.151046220734,-0.258075677307,-0.00302351483674,0.101841642923,0.00465137139784,0.0852887008479,-0.0418757732577,-0.0765221094291,-0.233619514041,0.0327638355163,0.106520542446,0.0799100979308,0.0220506668904,0.050682834416,-0.0670989231396,-0.272026205775,0.0368969381563,0.0987483523216,0.0630181220999,0.143453305533,0.0157794074582,0.0907348342545,-0.0877803822976,0.0193993624056,0.06522969126,0.00389696268343,-0.00881302469561,0.00843025819232,-0.0423264639592,0.010623790261,0.00258618673775,-0.091085977967,-0.137770205134,0.0153437116149,-0.0474780416803,-0.0719299681984,0.00546783385897,-0.0375796139148,-0.11802935293,-0.043076347026,-0.062697135148,-0.0429252159307,-0.00967562989641,0.0511994128617,0.003905762123,0.00601390666891,-0.13054615178,0.00667565261047,0.0733910767697,-0.101133365181,0.0344516115088,0.0267145909787,-0.0982869211643,-0.055703451963,-0.00108689948937,-0.039542653879,-0.080692910097,0.14797335909,-0.0247273279774,-0.121544684496,-0.0370432994202,-0.00446863735743,-0.0383750128661,0.0332922707299,-0.138214466202,-0.0332054456535,0.0491169530229,0.0267295959902,0.00317734591562,-0.126324810904,-0.0682242669228,0.0247156229117,-0.131833804564,-0.0943911265469,0.0409792531435,0.0302638518611,0.0906102682251,-0.0771255260441,-0.0939819029058,0.0275423031396,-0.0360492446498,0.0510204191766,-0.011130698909,-0.044004457954,-0.166968494342,-0.147974216303,-0.0690234941859,-0.0527819203877,-0.133133669086,-0.0414767196199,0.0147405183344,-0.105192646189,0.0229760956731,-0.0418179645214,-0.0815692174715,-0.111438711117,-0.00286432776477,0.0442247103326,-0.0859461437402,-0.111546101121,-0.102343194138,0.0873817517923,-0.0132394538931,0.0758477232925,-0.0520467757216,0.0933544106739,0.0111752574899,0.0327937044811,0.0563539111719,0.0805158799692,0.0580903037463,-0.00942302312156,-0.0472518867133,0.0287825157502,0.0587636608143,-0.142130666401,0.0669182956084,0.0628120467672,-0.0426629979746,0.00451133441544,-0.00700290883574,-0.0581569263258,-0.134198911749,0.0785948672745,-0.0798987015256,-0.17716203616,-0.0222143989331,-0.00958395561578,-0.0393821482704,-0.0764176145772,-0.0779802806339,-0.0665522394537,-0.207608007914,-0.0251864509645,0.00152643401469,0.0752767042453,-0.144176662621,-0.0134080055145,-0.107700901432,-0.089895996425,0.0586585229235,0.0831967385262,-0.0805044846238,-0.104297821688,-0.0743886939419,-0.0390907661692,-0.170588527185,-0.00672885262072,-0.0913622672331,0.00817609341964,-0.0605028691111,0.0554723735891,0.0853560837493,-0.0281800249249,0.0615061614707,0.0172582996727,-0.0996439072379,-0.0166932186032,0.0195356788985,0.00241804053466,0.0303907803659,-0.0215223509522,-0.117316674023,-0.0468187602377,0.00751414559386,-0.104242618061,-0.0546580294135,-0.0635233346858,0.0286734528531,0.0570360629024,-0.102305444503,-0.0532522585045,-0.0642905594544,0.0599124676972,-0.0101527850642,-0.0379449970753,-0.0324758805198,-0.120935641842,-0.053466786859,0.0137272495874,-0.0974030105124,-0.014316077425,-0.0981739862894,-0.00239738629584,-0.0205374270466,0.066557990126,0.0609251675514,-0.0054748745657,0.0285035691486,-0.119619866241,-0.0516377255041,0.0935803265801,-0.0255907948258,-0.123146994558,-0.0920557831048,-0.0331682596372,-0.0651580755611,-0.0719811486335,0.0456621580573,-0.113364847778,-0.085356887116,0.0415503347227,0.0182863846878,-0.0922893807526,-0.101163929971,0.182748538046,-0.171099630265,-0.0359138020773,0.104214085439,-0.0183430347481,-0.0736244575536,0.000304318210855,0.126981050278,-0.0387021592964,-0.061574349865,-0.00346743757563,-0.00624590054175,-0.0888571536753,-0.11634409474,0.177447761251,0.0278906362121,0.00443666053259,0.111672206275,0.114349924046,0.0433719770526,0.0586418072314,0.147984828325,0.0714319125071,0.0269258544331,0.109660633995,-0.0443440143281,9.00723652565e-05,-0.0564785065427,-0.139528501822,0.0413378637678,-0.0707611092726,-0.109250055875,0.00776492203864,0.0674054956607,0.00726510984394,-0.207541213457,-0.0206226515947,0.0754152542571,-0.0453902348233,-0.088384601479,0.0768729502279,0.060729798368,-0.225184057316,0.065488343771,-0.00829331610347,0.0106484114442,-0.110377543187,0.0188304463357,0.145588947641,-0.140695348523,0.0742668772748,0.0421773931119,-0.0415325007115,-0.0485515296665,0.142936324384,0.133646968809,-0.189513189215,0.000313701181202,0.0798090166079,-0.0980124770056,-0.162685015526,-0.0178350409721,-0.0264662661145,-0.335694594924,0.0853155247747,0.00158622483379,-0.0240005823438,-0.125005366289,-0.0856963008752,-0.0122983045013,0.0953422758064,0.00631075191272,-0.0998867825858,0.0475751658339,0.071313877528,0.0582130344398,-0.0227514470202,0.0129925922342,-0.0888113580397,-0.109549371811,-0.0938564583398,-0.00101861722161,-0.0140054668333,0.0374278888261,0.0423857238919,-0.0698503987726,0.0395055176365,0.00300986152985,-0.0171011745943,-0.0602622439391,-0.10368407556,0.0834733521109,-0.00394319079134,-0.130124760081,-0.00507657396056,0.0662206755418,-0.0444149860364,-0.135495871856,0.143188805352,-0.113279521263,-0.120885440568,0.0478811006064,0.00612593779059,-0.0140295110567,-0.11828670902,0.0216042448904,-0.011087863958,-0.112016064378,0.0667306776856,-0.071092653572,0.0208979283319,-0.122559645641,-0.00527330766649,-0.0122228972835,-0.0655519138682,-0.00797863108276,-0.105520774996,0.0265715242663,-0.0437075345356,-0.0888916379795,-0.0251419393072,0.0282250281264,0.0750360967861,0.00252477857943,0.120498107608,-0.241196372486,-0.165739823628,-0.0469104819283,0.215124110499,-0.0432063683164,0.0871112688125,0.0979621170393,-0.236066222073,-0.0593864146936,-0.0622104004192,0.131355400653,0.128936367082,0.0449873044697,0.0710922521562,-0.239332214069,-0.0920296462781,-0.00366916745597,0.065453581791,0.111081020579,-0.0803152330321,-0.0709199478031,-0.0424931489222,-0.00169197015194,-0.0681799799579,0.00503977348974,0.0517117314488,-0.0541446293185,-0.062516041793,0.137013374961,-0.0738777529923,0.0613532813645,-0.165576768106,-0.0185781892334,-0.0462607657172,-0.0211148558966,0.185305023833,0.0832506296105,0.0626213376061,-0.178766489546,-0.059033044439,-0.0856744343558,-0.0566467703787,0.271574538542,0.0359082255145,-0.0707708549405,-0.212558196488,-0.178434041134,0.0012518103396,-0.066168901934,0.321782728091,0.0652923745877,0.0808919192978,-0.316858591782,-0.116897824659,-0.0242403257703,-0.144402597466,0.331256367368,0.118515434539,0.10803871156,-0.360392372344,-0.00798165851058,-0.0601626286915,-0.116723572006,0.224598435024,0.0194343785702,-0.0470407610159,-0.291166605831,-0.209247130008,-0.0684250848026,0.0447234818942,-0.00878071456859,-0.113956614231,-0.00506198832193,-0.0968799788421,-0.0112682122286,-0.0121593111245,0.00724275330711,-0.165397174402,-0.0287102120418,-0.0970622911752,-0.0901222130969,0.0729308258899,-0.064412773692,-0.108180835022,-0.0507120014049,-0.0833560378107,0.0287385131042,-0.0387282158356,0.0264274978025,-0.0616723537271,-0.0829874120346,-0.0630333792675,-0.0891707091684,0.00503560840347,-0.0165735701743,-0.0538929743365,-0.0611048801839,-0.0619083673813,-0.0623139901738,-0.115603637445,-0.0111036649719,0.00564540380894,0.0163714351848,0.0293717912221,-0.0066191073137,-0.257895002589,-0.0648757283638,-0.13274079515,0.16904492466,-0.00521189131269,-0.00134205961708,0.0691882332213,-0.0776770954343,-0.0879336173285,0.0838790966434,-0.0581852660203,0.00866230507367,-0.0784426383679,-0.0182980616003,0.058702636207,-0.149613440035,-0.0746841388479,-0.159540938206,0.0954305664967,-0.026550051978,0.118748322169,-0.073446919601,-0.174644963472,0.1551337748,-0.191887744024,-0.0277810958518,-0.0667422381408,0.0720824489046,0.071482184811,-0.0633883098809,0.10788953439,-0.105291402394,0.0106702217949,-0.113890227796,0.0614456064394,0.0425053213057,-0.0555217512698,0.0201324414759,-0.176555270925,-0.0250919814024,-0.107124554338,0.0673477767663,-0.0403701357686,-0.0236083036529,0.0974366568101,-0.151908431679,-0.104880745555,0.0512746584996,-0.0557438578157,-0.113629082663,0.114804113897,-0.126499737764,0.0185451850722,0.00477825063069,0.0170689473539,-0.0169872407032,-0.0817600637342,-0.0230680979825,-0.138317473132,0.165098762424,-0.0152165224929,-0.0769095181102,-0.175453469111,0.0531815795469,0.133953089677,-0.0628493792791,0.129343712754,-0.109697193004,0.0189011236024,-0.180905754272,-0.053165808213,0.120736473873,-0.176362190349,0.227978578235,-0.0619148744229,-0.0252050461559,-0.249812296127,-0.14565359721,0.000521221962172,-0.142428737183,0.140379877503,-0.0118662183956,-0.0684752341502,-0.177648098679,-0.0797623280762,0.132245792315,-0.0987997078342,0.168596274869,-0.104854068057,-0.00772870544164,-0.0242691798688,0.0726953291538,0.0430237319982,0.0344756917546,-0.0434964591605,0.00780645483731,-0.0141690971489,0.0440070040149,0.03925538001,-0.013116014815,-0.0656922348303,-0.140750325449,0.0031675691523,0.0328688309178,-0.0136299389517,0.0626517564283,-0.0460734535684,0.0958238677999,-0.0673919672667,0.013390884351,0.026575604352,-0.0163035601773,0.0578833026625,-0.109821951654,0.0953063622044,-0.0372815759145,0.0843317712634,0.0635635958811,0.0889224380467,0.00164258636287,-0.101908149653,0.0670659460462,-0.0516905597247,-0.0191967730272,0.014306311419,0.137519487464,0.0354094951164,-0.00686378051615,0.0924798366278,-0.193440927532,0.0675644619605,-0.0454693255951,0.0359232668062,-0.108758619061,-0.0225873302268,-0.0978868058531,-0.110518682346,-0.0681595022438,0.0225433794425,-0.111291166555,-0.0153142451282,0.0538091093685,-0.136827024394,0.00697469515397,0.0173330790556,0.10544623643,-0.130515366566,-0.021449661109,0.0388670020017,-0.198311992009,0.0177006806158,0.0978309391564,0.0317046301816,-0.0190852796071,-0.111066977196,0.108871710028,-0.246702755907,-0.0534153135444,0.175179513937,0.0477946743556,-0.0506356906606,-0.0345354740908,-0.0049388524852,-0.132282853884,0.048468307774,0.181041143779,0.0229706750483,0.0262780449083,-0.129617101046,0.0195734875427,-0.0935609471004,0.0538061347221,0.12637075523,-0.0111683671268,-0.0148815687577,0.111663068716,-0.0214171123287,0.0360057427182,0.0126759766618,-0.0565218695005,-0.110454702898,0.0547722450235,0.0731239621466,-0.0185963916175,0.164163078637,-0.0309449534081,-0.127053027271,0.0103984133598,-0.0126493015509,-0.013927930788,-0.170330508485,0.337489221094,-0.0612235829322,-0.303529273718,-0.0608505987776,0.00307898672333,0.0124558926305,-0.104625599158,0.277738925614,-0.145245997653,-0.223498314324,-0.164503850863,-0.0443536635236,-0.0311976996913,-0.177535739475,0.298683115073,-0.00721720632825,-0.170440447697,-0.193951089918,-0.0582912702062,0.104164849531,-0.0587871977208,0.179535147538,-0.0444291603544,-0.216654524467,-0.02191270123,-0.126672813225,-0.0721801920029,0.0341126704165,-0.00795090631838,-0.0983345206147,-0.0130833936208,0.0489955685599,0.0644895049884,0.0538797826463,0.0700448095999,-0.0273569869025,0.0210026879806,0.0101210064568,-0.0939476477196,-0.0391465405005,0.0137173575048,-0.0175575158615,-0.158251117738,0.0644669094141,0.0311344093633,-0.0205741339635,-0.10156956095,0.0481253530497,-0.0689455846151,-0.197979160253,-0.0412201075693,-0.0122599583462,0.0311702437711,-0.0763823559679,-0.0945180413884,-0.0140038612566,-0.215736063262,0.0169005788381,0.0876545375348,-0.03711699955,-0.0815020460267,-0.0713335389552,0.0859712388676,-0.261641342605,0.00819964459018,0.176730220837,0.0931491982639,-0.0849914287661,-0.0772702223993,-0.129710243286,0.106135404369,0.00320435039453,-0.110435013773,0.0990103824552,0.00858281285153,0.00522499054779,-0.0188229740842,0.042538062772,-0.018481464368,-0.121269963287,0.0481891132762,-0.177071606405,-0.0531970675549,-0.215575148265,0.185020894774,0.0182955600875,-0.0843999797699,0.193687027829,-0.138936120098,0.0777065285939,-0.185078472318,0.033475039254,-0.0243855133255,-0.135218662878,0.285892133645,-0.055955840206,0.0776121873021,-0.181296355713,0.0851277395987,0.0751055818572,-0.112677714976,0.187335987421,-0.0763299044368,0.00660080844109,0.0366125357903,0.0349459791341,-0.0562129896477,0.0316759221009,0.00495764398639,0.137561886896,0.0542094050374,0.00245866886097,-0.00297613838397,-0.114289819107,-0.0510101174976,-0.144122598369,0.0681173936513,0.00582486025591,0.0260182522221,-0.184181200261,-0.0448766198828,0.0178821569251,-0.109130265733,0.207067071293,-0.0696967400033,0.2473534185,-0.106103857531,-0.125511360637,0.251145293355,-0.224937643157,0.0917804022942,-0.105524146852,0.205248245149,-0.234028083794,-0.110625437482,0.176753205718,-0.297339694715,0.065856415044,0.0153118272865,0.177683763098,-0.225950036511,-0.125117178267,0.115148496095,-0.2743574091,0.0193682504728,-0.103758545872,0.192707939337,-0.101894351376,-0.0693868319368,0.0760930163366,-0.224934895666,-0.0117546560198,0.0337588448043,-0.0610233307843,0.0105223708,-0.068566363692,-0.0154267208964,-0.0683251402647,-0.107601335445,-0.0373870306896,-0.0181261442818,-0.0227819663219,-0.0526486104143,-0.128942728469,0.0934352360876,-0.0892452055425,-0.0804227232481,-0.0743917077254,0.0969371274833,-0.0481736759283,-0.00584728788993,0.04012191709,-0.113167279593,-0.0771845528341,-0.126846280646,0.121495130537,-0.0538760808753,0.0163715471317,0.110361430889,-0.0822145983587,-0.0548274691039,-0.0947228743743,0.108082090756,0.0943640356049,-0.0158124098665,0.0621799388288,-0.110821822766,-0.000363571764587,-0.176442548571,0.0896105347344,-0.00183098981315,-0.154966556217,0.0326236354939,-0.0705277159061,-0.154020391753,-0.0757691088697,-0.0552074325278,-0.107222291349,0.0723397542538,-0.114446971671,-0.0361391289694,0.0170770505112,-0.0757605655656,-0.072666320811,-0.0558764214595,-0.0356587027933,0.0432380731756,0.0723848516868,-0.156839358354,0.0714894689854,0.0240745401116,-0.183119480497,0.0878761280409,0.00255293984213,0.0694423124957,-0.121998749206,0.105666180645,-0.017334518622,-0.129264783552,-0.0428905005551,0.0400637889594,0.101313199576,-0.202931382902,-0.0109215516019,0.0290288650476,-0.047439177937,-0.0532341216019,-0.131215148632,-0.0469700646913,-0.074820209708,0.0578817645553,0.0603635380851,0.020419173295,0.0867802728482,0.0322678208179,0.00973030735143,0.0484461642825,-0.136409819638,-0.090475215822,0.0750408611235,-0.155726569908,0.0318517088135,-0.0855553811955,0.0600418823032,-0.0999931310499,0.0230565508217,-0.0555446242952,-0.0552029928703,-0.0521243372107,-0.139829149386,0.19632272075,-0.0384432395357,-0.0262407773085,0.101367204811,-0.0996897614459,-0.0264205085726,-0.130906815628,0.117269958613,-0.078671698091,0.0694892683822,0.176870754157,-0.0580555337129,0.012758448592,-0.0403826677086,0.208373763029,-0.136739943734,-0.0755074062567,0.0609472459444,-0.119572551684,0.0401351623227,-0.047774062265,0.116536229808,-0.0639252060318,-0.045057699678,0.0786052728975,-0.210715443408,0.0109516482466,-0.0474167083533,-0.124684440987,0.0678777716121,0.0768260730596,-0.0220717828749,-0.0512405947038,-0.0800873056411,0.0209691927823,-0.00253588648862,-0.0978670058206,-0.0126211321771,-0.0590053945297,-0.0522343750839,-0.0601744776371,-0.0810007879212,0.0178681789831,0.0219332355727,0.0450453221922,-0.0143557306101,-0.0723220921327,0.0462670766975,-0.0405277741684,0.00712098536974,0.0396124502091,0.00593489293511,-0.0582474444897,0.0398821231545,-0.0650929057966,0.111402190868,-0.0183105716968,-0.0596652294467,-0.000131483486838,-0.0302221575831,0.0939291125745,0.00510363356004,-0.00162350514627,-0.160679150141,0.097527963,-0.092757260455,-0.0964097932803,0.0311821666966,-0.021917248937,-0.00740124150725,-0.0141640197808,0.06669231248,0.0262473474405,-0.0758269794852,-0.0978920542666,-0.00555206808949,-0.0512051422422,-0.129965841781,-0.0322077402566,0.00962906565986,-0.0623794132474,-0.124137444532,0.0343953225881,-0.188819237486,-0.114832519706,0.138789829737,-0.0238398087779,0.0492369867536,-0.0882728510732,0.0704106375649,-0.171031662784,-0.140875754917,-0.0322843305507,0.0921298758758,-0.0418488841091,-0.237517413194,0.0563248552458,-0.168676377129,-0.119252794584,0.0389416272831,0.0295154509579,0.0925991392665,-0.0699570199322,-0.0298435970319,-0.0467914692845,0.00367721596806,-0.00295506068948,0.0285845220935,0.0392526299669,0.000348305366765,-0.0752624300971,0.0764163859488,0.0638838617802,-0.0216544221743,-0.017722447402,-0.141531432213,0.0226505289199,0.0278782373653,0.123732404751,-0.0565482994743,-0.116166057153,0.0329819838768,-0.152654207389,0.14758983647,0.0536565283168,0.0749967559286,-0.07647108556,-0.0479844476451,-0.00414014177531,-0.029715392504,0.239302213172,-0.0251055641422,0.0716250459656,0.0324270947573,-0.207571869666,-0.0383572746044,-0.1928160625,0.18003623557,-0.00153412637427,0.0597734736461,0.029894441735,-0.187708734922,-0.16828023445,-0.156269211985,0.160702824646,-0.0270829931407,0.118329777115,-0.0362966241184,-0.0709400257561,-0.164125847514,-0.0721197583513,0.161398652683,-0.0097070902268,-0.048950961285,0.070938003259,-0.0567691305942,0.0950634535422,0.071040949416,-0.0441384155522,0.061003950746,-0.0727418696977,-0.0798174142655,0.0387381953879,-0.0134676273137,0.00197952879518,0.0341832054908,0.0638628783558,-0.102321609393,0.0328588218214,0.00505790349235,-0.0934580551902,0.0426414807188,0.0024775639722,-0.0529643284994,-0.110373467829,-0.0972064797956,-0.0679391572211,-0.0771617390604,0.0323382541693,-0.12749252122,0.0382285709838,-0.0495078745184,-0.132858350324,-0.0293136937503,-0.00223191750792,-0.0726710074637,-0.091128942571,-0.0858115065674,0.00291745428006,-0.0733224374362,0.0672902541034,0.0468946550666,0.097497089317,-0.13741371413,0.0678937933096,0.00770426599981,-0.0334148295767,-0.00519266972859,-0.0944981997419,-0.0887376773064,-0.0837854072827,-0.00649926913278,0.103054593727,-0.0488644117152,-0.140078574276,-0.0442919789911,-0.0370498393177,0.0366500464669,-0.102328792291,0.117646129735,-0.144440617834,-0.160852471829,-0.0847347884651,-0.0424338595492,-0.0300674821721,-0.000258914861653,0.145372346624,-0.103384614032,-0.182623617022,-0.0238371381522,-0.0361125741869,-0.0155874325492,0.0723966219685,0.0880475231747,-0.0912041407637,-0.0763655467217,-0.0370813423439,0.0311051106702,0.114621524523,0.0115222515315,0.0192430183453,0.0087009926155,0.00358861186886,-0.0476940628393,-0.0402320661904,-0.0489559198997,-0.0178099258867,-0.151135256408,-0.0676368310357,0.0643544582046,0.0895549818798,0.05687027885,-0.139000262556,0.00891083839269,-0.0826322058013,0.0661541869511,-0.0631979818859,0.0714149524308,-0.0138600254049,-0.0919192722747,-0.0962391651479,-0.156713191542,0.0548870951839,0.00859527393611,0.0541809764597,-0.0249142123475,-0.123959382102,-0.00421992634002,-0.161672705291,0.157062839456,0.00428798751148,0.073134599245,-0.1161721221,-0.185172371292,-0.121241010246,-0.0835121189627,0.0840842844456,0.0885873471333,-0.00395732229521,-0.0395662183926,-0.0574570858498,-0.147608025951,-0.127494231753,-0.0284072514109,-0.0315045224973,-0.00985236827163,-0.0326818389047,-0.0487897990502,0.0250707471172,-0.0208107890862,0.0664081006501,-0.0600494928791,0.00177361998787,-0.109509884864,-0.0602264098013,-0.0741092695463,0.0169474312642,-0.0733818370227,0.0604153076485,0.0651839859721,0.0280100172035,-0.0804606336866,0.049070379982,0.0512334535781,-0.129094469006,-0.00421601233418,-0.0489038839681,0.0495798674946,0.0112357859414,0.0375251786073,0.037915039707,-0.0639284208949,-0.0814003550869,-0.0178246769534,-0.0595586662479,-0.0333843807894,-0.0241303421501,0.0836285240505,0.0205031585075,-0.135719483777,-0.00350504394175,-0.0480253716165,0.0183114152478,0.0536059306891,0.117635184968,-0.11090496965,-0.130075676247,-0.0362660180456,-0.102020956766,0.0620197338892,-0.0300808412538,-0.0834720349368,0.0343881666876,-0.04639560995,0.00978513297218,0.0640319141024,-0.160420890693,0.0663482371998,-0.02766047074,-0.0804180381649,0.073534986404,-0.0541775394345,0.0529436698029,-0.172498150576,0.115193371435,-0.0371282860386,0.00853853756711,-0.027331224327,-0.0791918311857,0.0146467774561,-0.247902511557,0.15359874776,-0.0487130182122,0.0302603164682,0.097108753219,-0.178839238943,0.0728629733302,-0.209655721317,0.195681641424,0.00872513015382,0.0177564371339,0.0338241849876,-0.164888285716,-0.0178421157032,-0.216867062177,0.113954186998,-0.0585145820819,-0.00477133699801,0.0812213246061,-0.140052739991,0.0497143651007,0.00804763309175,0.0645209975011,0.00104917811282,-0.00370877159781,0.029786562348,0.0937232181895,-0.0698489739129,0.0433131364229,-0.163971776449,-0.132728712855,-0.113439022982,-0.130315395526,0.124690528111,-0.0327692673543,0.126306559173,-0.249348199169,0.0116361728516,-0.118289555313,-0.0570591036716,0.191418346325,-0.135862163147,0.281603526134,-0.220020026443,0.0250931345831,0.00954193248256,-0.0894865836759,0.120275301661,-0.0742425305904,0.312260756166,-0.271898977447,0.0221311518301,-0.0359681887693,0.0151556039914,0.109270353555,-0.13956136677,0.325059099758,-0.321634936102,-0.0253906771967,-0.0370287607431,-0.0918727522607,0.0421704268229,-0.0287220496435,0.139882707736,-0.254865717947,-0.0165263747141,-0.0776991981993,0.050555842299,-0.0459694312908,-0.0857221219633,-0.0284189011016,-0.0967446035908,0.0420326462763,-0.0807817071215,0.0270077052868,-0.05772728391,0.0344708963381,-0.153238354529,-2.18729154295e-05,-0.0340966870401,0.0605463241966,0.0595172568691,-0.0101925520647,0.0625432293053,-0.150341242596,-0.029007006268,-0.0197026526033,-0.0132344946249,0.0618577052896,-0.133306421286,-0.101850154869,-0.0989643927263,0.07714061079,-0.0884358771203,0.0332579980874,0.0645471238731,-0.0225330275835,-0.0116471840365,-0.0649319492985,0.12065869914,-0.0149210894561,0.0504598930734,0.025181849233,-0.199073478662,0.0382499735211,-0.237895225013,0.166760562511,-0.0809090688034,0.0901120091318,-0.138994035127,-0.122195945816,-0.0319885593858,0.0444306518854,-0.114994557937,0.01908103104,0.0962140723686,0.0373561473902,-0.0401732605,-0.0663779301278,-0.0590502302569,-0.0644745924969,-0.204381246976,0.178730515949,0.00676705587054,0.0258997401935,-0.00401188521425,0.0359041161275,-0.183516312884,-0.122102681745,0.00735445091366,-0.0294636223806,0.113049001601,0.0747036685942,-0.101757036257,-0.00112540215683,-0.0418064148113,0.0390785457466,-0.0853086711086,0.0812025258888,0.0978288680593,0.0330404636876,0.0185203405635,-0.0871489247792,0.0767221235937,0.0801774488571,0.084654646752,0.0159195775406,0.0283185801362,-0.0554713588797,0.12002693984,0.0302110478614,0.0266877781618,-0.0198409411639,-0.0831594461121,-0.0956162389212,0.0147829258277,-0.0524465129268,-0.067224692858,0.0159236626216,-0.137806275031,0.0267705201354,0.0180968004155,0.030817748907,0.17275526698,-0.118747035603,0.111671794108,-0.122564554824,-0.126166923177,0.0927558542566,0.0970065237866,0.146167705617,-0.169637370101,0.0598592195903,-0.142206773335,-0.0460250317908,-0.0648550698575,0.130618341048,0.12422720555,-0.192741251484,0.0193058793423,-0.139541224466,-0.0969083618455,0.0553027302847,0.155113765713,-0.0119371028823,-0.213643508694,-0.0980250683513,-0.0770066252364,-0.103380445491,0.0370919023564,-0.0381665716197,-0.0437600050239,0.00388480696137,0.00819272808087,-0.0196533731059,0.00912539029681,-0.0139910862264,-0.0207696638332,0.0505763008553,-0.104123593983,-0.0314842003864,0.0772027290448,0.0167683979634,-0.0125334750484,-0.0112031331622,-0.0623093514918,-0.0360125614963,-0.0756194392399,0.00994756907165,-0.0688451276351,0.00776837180109,-0.127418859959,-0.137271445611,-0.0834509507103,0.0442792573228,0.0508310988664,0.0827268470434,-0.107189655526,-0.079779548654,-0.116756307301,-0.0740619316934,-0.157777568389,-0.0311912495793,-0.0233640543489,-0.0114620925917,-0.169805520865,-0.115199818264,-0.0270888532643,-0.139049425716,-0.0766217206635,-0.103185238555,0.0134537949848,-0.0940263574998,-0.027516207458,0.0371678790968,0.0540243431302,-0.0399258738089,0.00242772474191,-0.177761527686,-0.0798572589686,-0.132370962377,-0.0632348074279,0.0464849150104,-0.0702177734586,-0.065081468834,-0.0558912624962,0.0153508757463,0.0600087754113,0.0471833490356,0.11212546411,0.109750361544,-0.132054050579,-0.0692570384723,-0.0931720835207,-0.0241242984274,0.137916643436,0.0601397745892,0.0314861390335,-0.0692011057767,-0.228974383647,-0.0650500063059,-0.0509866405522,-0.0484346729427,0.143232612279,-0.0399121524784,-0.0795406584446,-0.206288111807,-0.142624138998,0.0248737560728,-0.0326085764881,0.0527707806012,-0.0540226811289,0.0409291678632,-0.0794014153954,-0.0472830619996,-0.0428509233132,-0.0630681127137,-0.154299277529,-0.0265377432114,-0.0221368336587,0.101204910784,0.0140963099897,-0.0920071625344,-0.0188203303493,-0.186093588168,-0.157410674954,-0.0529178237675,0.0269267819604,0.0451507990644,-0.0206892445819,-0.184452974617,-0.0805297551516,-0.080174236747,0.114881118535,0.209327248893,-0.0310905112343,-0.0336828395488,-0.0794384399614,-0.0975808582473,-0.193618519205,0.108724369588,0.236622442053,0.014135602488,0.0409862991853,-0.0837868171109,-0.0786169723371,-0.176456968698,0.135874536687,0.228694211921,0.0927991577045,-0.0419650876807,-0.188701597479,-0.252168274006,-0.0302570557121,0.168362591557,0.0585292348973,0.0931605107942,-0.00637862538448,-0.0784885662593,-0.0436287200579,0.0831277453705,-0.0921928556045,-0.110901497507,-0.0575059807577,0.00427322323743,0.052786797855,-0.0735222212932,0.0845519226324,0.0514645559663,-0.0749200237621,-0.00108874393485,-0.0542511579298,-0.0391263119347,-0.0179191634439,0.0192777763032,-0.0671730118907,-0.0286976865339,-0.11095388393,0.0432398340338,0.000503136172359,0.0527500465553,-0.0922165135757,-0.0228850873039,-0.149535497316,0.0160746977956,-0.0929821037817,0.0898748405151,0.116690369019,0.0613891662638,-0.166718863584,-0.125493174122,-0.116922570873,-0.0458011948975,0.0398980165467,-0.0278550840205,0.0616075063719,-0.113007563739,-0.111520797177,0.0116444653675,0.0572811295783,-0.0081118001007,0.027742768182,-0.0139164127408,0.0118192543062,0.0474133177546,-0.132123004712,0.0653259771075,-0.0673660000134,0.0722099412898,-0.0784566283185,0.0342926252355,0.0167945756908,-0.184163700867,0.0974917475641,-0.0133672432412,0.0178340676801,-0.0710272124654,-0.108190315979,-0.0451279295094,-0.236915759043,0.059436087174,0.0620138655972,0.0849382733731,0.0572418260386,0.0352719320687,0.0262510536527,-0.358623025539,0.0781102717563,-0.0860684856595,0.0181441499924,-0.044090288953,-0.152040956518,0.0519472153369,-0.169338222568,-0.0690802043657,-0.0551808972826,-0.0700324120893,0.0317655932086,0.0807984904692,-0.0833672853199,-0.126116067749,-0.0917129212468,0.0545964936795,0.0144812547202,-0.080170009414,0.0493337085681,0.0289074542158,0.121930161925,-0.0998939752695,0.0325231683863,-0.141585984523,0.0221704893554,-0.0218804928028,-0.0924435776603,0.178418275379,-0.125444852678,0.010368866748,-0.112780754271,0.0472091037418,0.0361382361336,-0.0152723128919,0.244224013979,-0.0818819268606,-0.0455129994973,-0.0195558575747,-0.0706618355988,-0.0897423921016,0.0277130723382,0.319647892795,-0.17278385081,-0.124685614873,-0.147592639938,0.00568689153864,0.0156651678417,0.0724262139026,0.297104408468,-0.105894802995,-0.0682531650089,-0.107823129609,0.0179777535373,0.0605049452654,0.0525891089813,0.245266437811,-0.0255666971618,0.0610905185125,-0.000952205988824,-0.093640282541,0.0346337724332,0.0724022662835,-0.131411440166,-0.0227455363948,-0.0148155468699,-3.63928771221e-05,-0.034613798218,0.0444378725814,0.0399680630159,-0.0230756511557,-0.03425012251,0.0339885355421,0.0714082114258,0.0662684562288,-0.12789543589,-0.084144431097,-0.104508602829,0.0133918634245,-5.09164361645e-05,-0.00374095546236,-0.00308792091093,0.0294055578559,0.0600318579585,-0.153779592753,0.0845948411866,-0.0493950399064,0.00607577570856,-0.0322788154755,0.06866624202,0.0484596945856,-0.1880351522,0.0272416949129,-0.0612862128416,0.049397198501,-0.0872299364718,-0.0077625916596,-0.0141268615986,-0.218492861486,0.0597652484316,-0.126084211356,0.0637117615166,0.0386710907397,-0.0954391296512,-0.0624981557291,-0.0266066227934,-0.0225688280192,-0.152208863284,0.127228772247,-0.0478317361036,0.0354549793542,-0.0572967379891,0.0315792304899,-0.0867622608586,-0.184312800075,0.21106153431,-0.0200079649472,0.055048358064,-0.183429808593,0.00260605866256,-0.117925964581,-0.268944652567,0.14987673184,0.0282165139046,-0.0174976080768,-0.0253543979431,0.0293511046762,0.0425217573833,-0.0927452327296,0.169993649039,0.0674268763208,0.0120284793263,-0.107213966194,-0.155864355859,0.0727560150696,-0.00617975349978,0.134450669732,-0.0672354586813,-0.0364920756498,-0.11581400848,0.009747583293,0.0542804084374,0.0618488171895,-0.182696456713,-0.0830974410957,-0.12471784404,-0.0348777247206,0.0142503094842,-0.00994271228324,0.115900227996,-0.192831735121,-0.113088480222,-0.0749679978116,-0.0451012382296,-0.0206424305452,0.0103092734623,0.186591958118,-0.299180819195,-0.11857569843,-0.0542054755631,0.0859382572429,0.0783890702768,-0.0712739865153,0.165424194979,-0.340692982688,-0.171918255353,0.0293405773614,0.139338086911,0.0506987986038,-0.0261793619572,0.202432128549,-0.263536889782,-0.00758371955802,-0.0833764407857,0.0653350873512,-0.0546166378082,2.34608037559e-05,0.167203666223,-0.356419764195,-0.0590730621033,-0.00101028665658,0.087352839957,0.0755766918709,-0.120949323926,-0.0468494811056,0.051137403124,-0.00302782559169,-0.0787718027092,-0.117309557738,0.0627478386342,-0.0799779652806,-0.0145498268388,0.112465360683,-0.0227206433612,-0.0924123120538,0.028280894241,-0.0322288782505,0.00714562020266,-0.103039475234,0.0226283876764,0.0391474518166,0.00857304556418,0.00120503118108,0.0273816294835,-0.115631400467,-0.0623518952587,-0.0370766995316,0.0515890038647,0.0831226778146,-0.0015398849816,-0.065495456233,-0.0215642821088,-0.0430031774123,0.0683962876337,0.0498417071178,-0.00015861670864,-0.121278025376,-0.0269084829154,0.00303894910739,-0.0949297767632,0.0384516850525,0.034296128283,0.0700125584204,-0.170193752257,0.000761317211403,-0.0889715666792,0.0690489951007,-0.0273398630367,-0.00844960591321,0.0306932821226,0.00795602613415,-0.0673155283664,0.0779779941408,-0.0577660895848,-0.0995117395468,-0.112746516414,0.0628857897101,0.0223768845344,0.0468553922033,0.021308753835,0.146426828186,-0.105865197703,-0.19432612397,0.0176301070436,0.0447950285838,0.00315813240259,0.0229734876869,0.00429344674826,-0.278054505063,-0.166115941555,0.0566331821536,0.100994631358,0.0492144222619,-0.002127341846,0.131224753988,-0.218953815357,-0.163443888457,0.00900015303829,-0.0580777990994,0.0928254552584,0.0300917888201,0.0910472113065,-0.0681478050315,-0.119332821289,-0.0280232174542,0.0854989562964,0.0397947630086,-0.0876041706927,-0.0341384938644,0.00618023946348,0.128409521765,0.0198278669818,0.0262350403285,0.0148404875521,-0.144210616668,-0.184577555714,0.106639034961,-0.0214118397469,-0.023892064174,0.012139277703,-0.112332317123,-0.0274830239631,-0.219338805359,0.152401222384,0.142219714783,-0.037325854639,-0.182625637833,-0.171540337494,-0.0344105139315,-0.12275954878,0.319645691294,0.0277679696221,-0.0134765480736,-0.139831269439,-0.0950574854484,-0.0666278758599,-0.155761147581,0.13189378752,0.0727368660236,0.000801932284628,-0.162859434173,-0.167545016076,-0.116551305938,-0.178832133204,0.18134181513,0.194921524458,0.0577681382141,-0.10231144541,-0.0202553850771,0.0174418366028,0.087605373252,0.0496011537686,-0.0978180537985,-0.102254000614,0.0872900255362,0.0238058523688,-0.101887764492,-0.0252431767582,-0.123565088211,0.0379045356544,0.0218703642892,0.0374295493346,0.0330254253728,0.0366444751591,-0.0691404261582,-0.0911377732395,-0.071160421954,-0.112806463277,-0.0471458751183,0.0564429119806,-0.0603767887304,-0.0351957057282,-0.0791084345101,-0.0193032163417,0.0216752253614,-0.0417069381924,0.015735494128,-0.0364945972454,0.0120001700799,-0.0721245035431,-0.145899735634,-0.101412225071,-0.0700624878241,0.0218469382268,-0.0362950101946,-0.031174854258,-0.215879366764,-0.1401235382,-0.0353382197202,0.119779850375,-0.0764306218597,0.00279773312326,-0.0918411942967,0.031552766719,0.0761499283992,-0.017122924491,-0.114636713538,0.0356978446939,-0.0538779931832,0.00570066322149,-0.0666187417211,-0.0458187959704,0.0200750741948,-0.104073485123,0.00256300549123,-0.212523444199,0.0639977505724,-0.0871570110819,0.037486503062,-0.149880682857,-0.113737544587,0.00926069549582,-0.180174092412,-0.0715084088887,0.0282472456196,0.039040860739,-0.101905211761,0.0296458182492,-0.0431055010293,-0.23115103675,0.035210623136,-0.0968950659743,0.135376805894,-0.0716310647362,0.0136157996557,0.0400465702429,-0.13735166783,0.0374659803965,-0.032772444833,0.121859432367,0.0637462506306,0.058831220867,-0.0275222127708,0.129693005683,-0.00158094783485,-0.0534507577661,-0.0821238312438,-0.00673477139303,0.0328956945077,-0.0519144845998,0.128084562544,-0.15455026355,0.00933524194981,-0.0958244271164,0.0163250113577,0.0329382747422,0.0721957696093,0.208150979301,-0.00245318581901,0.0464501516183,-0.172306973373,-0.0556536452914,-0.0449252005817,-0.0235948691012,0.160794518341,-0.0851554757026,0.0140791317338,-0.0915011408655,-0.0758891767357,0.0834064105314,-0.0244713928119,0.0851268887354,-0.0657582517,0.0503083471884,-0.0727051445355,-0.0718420489618,0.05464534025,0.0503919566741,0.101751529177,-0.13219110067,-0.0724721805243,-0.229632858032,-0.0889120741551,-0.103010662336,0.071301392682,-0.00871359658108,-0.0856992292478,-0.095439370835,0.0561037097666,0.0233068246816,-0.0854454155796,-0.00133398188741,-0.0854231354444,0.06284522326,0.0197201890968,-0.0612587269572,-0.100389215696,0.0165856065616,-0.0686156631973,-0.102668578382,0.0456321601714,0.0399165591785,0.0681529840985,0.0391605449046,0.0187754938214,-0.0185961411128,-0.0740780083888,-0.0445119839788,-0.0899757876348,-0.00877080867874,0.0382574871164,0.0653013829059,0.0123638012149,-0.0882271377362,0.0138222753563,0.0335809318657,0.0169366230212,-0.039264797843,-0.0187141658856,-0.0943198532768,-0.0732621344662,0.0196387633789,-0.0889237914375,0.10181167953,0.0395519704386,-0.0905600225867,-0.0630753647882,-0.107912869369,-0.0237564496444,-0.11502344922,-0.050086136139,-0.131152655066,-0.0217101798495,-0.10292836531,-0.151631523266,-0.0655838230781,-0.013918590895,0.0628720267262,-0.125723078118,0.00732571996616,0.00805317081388,-0.0821483745026,-0.0585086432497,-0.00544492746694,0.146608023178,0.0221839871239,0.126374876149,0.0243554529056,-0.137653453037,-0.0852657388802,-0.0417196553513,-0.0529471692804,-0.0419549532724,0.16955468439,0.0660594916294,-0.0613125871647,-0.17107110067,0.0900712840913,0.0292391654812,-0.0899802291312,0.137794207635,-0.0142621465025,-0.120019908495,-0.015675788561,-0.0653652036782,0.0125643775261,-0.0652060102956,-0.0258596086186,-0.0502000858755,0.0926755241558,0.0207468420541,0.00258266918665,-0.130885160778,-0.0717807623245,-0.124644054835,-0.0328843923286,0.112467707897,0.0577028972855,-0.0370228459213,0.00412387654724,-0.0145449777529,-0.0162005781712,-0.0673623923428,0.216850365968,0.0557378740905,0.0261711528054,-0.200768406391,0.000185130990821,-0.106996811494,0.0081080535108,0.0717459047105,0.159678779536,-0.14457459903,-0.0938177299854,-0.0695589466858,-0.15433868685,-0.0788104667601,0.197414408778,0.0196991791624,-0.0273664944597,-0.150303497025,0.0131289372096,-0.117020909794,-0.0777741089714,0.167966366088,0.143447129036,-0.0648758613138,-0.15724426682,0.0481730108726,-0.240764269348,-0.0882437320282,-0.0043553424737,0.024686277122,0.0642483410189,-0.0855792258443,-0.014776820697,-0.0885882854107,-0.0328004539452,0.0159987924044,-0.0587688924848,-0.000172536602609,0.0440425499966,0.00172675391439,-9.06831955768e-05,-0.00573446149153,-0.0154036213134,-0.108786778791,0.0266946895774,0.0718477717676,0.0310349654424,-0.0647678495018,0.0663124851956,-0.100615366696,-0.0771962717404,-0.0208791412852,-0.036563537345,-0.042385337789,-0.0248368496627,0.0386527894455,-0.0681984950208,-0.0966729237983,0.0465932082727,0.111952149822,-0.00141422774327,-0.00995102772913,0.0454302432997,-0.0380595199376,-0.154864817899,-0.0480826724136,-0.0196038457315,-0.128223791511,0.124630290516,-0.0549639271508,-0.111577941806,0.0651521030945,0.0612639821475,-0.0250955873793,-0.0645810811766,-0.107316929048,-0.0385411247505,-0.18842074866,0.0751448561188,0.0842075742022,-0.0753459664838,0.0561614599636,0.021469457904,-0.0513142877594,-0.170105038718,-0.00866361630993,0.140127321568,-0.0574510795694,0.019343833775,-0.0125872432034,-0.0833624518357,-0.180968424005,0.044531495416,0.0203832183146,-0.0253147554062,0.0801787267787,0.000351916637843,-0.109286419903,-0.284201081833,0.0592906075613,0.0354696570873,0.0209863627846,-0.0654428219114,0.0608395441791,-0.0791939366154,-0.172705998117,-0.0712903065299,0.0519462327351,0.0512909548206,0.0251486528391,0.0610573273669,-0.0329162881719,0.104637068401,0.00344436645954,-0.113378747858,-0.0585975852927,0.00448589291494,-0.0774914388942,-0.0655331252982,0.00431095656319,-0.14266863731,-0.12550495148,0.0230686449121,-0.124094759325,-0.087223740374,0.126216963376,0.28256285599,-0.04147929687,-0.0893495023791,-0.133704349669,-0.0920474620967,-0.0452117543038,0.0721392705372,0.302206895806,-0.150410881915,-0.2390178609,-0.138978099429,-0.0991466108901,-0.0947891063726,0.0886069276984,0.211869019337,-0.0236268627831,-0.121328757791,-0.127955104244,-0.162310103346,-0.151046988083,0.00901974257685,0.178185448588,-0.0225685048511,-0.236055778728,-0.182546980745,-0.212099360814,0.012711628575,0.110066108328,-0.139194102614,-0.0219061176389,0.0235108489012,-0.0287537672593,-0.109636193286,-0.0443737948176,-0.0783195671623,-0.171093288651,-0.105651459103,-0.0230570549485,-0.015552853403,-0.0423580003112,0.0491061909602,-0.094717284907,0.00542682496117,0.0528401987709,0.0515083774941,-0.0802114386896,0.0330328363888,0.0252104342088,-0.04170119737,-0.0374226275255,-0.0409915664895,-0.0492223512185,0.0178674827607,-0.0365100816302,0.0456551821232,-0.142123065883,-0.221434993914,0.0298442056522,0.0847485496426,-0.0285644801188,0.0750710560339,0.0672058882636,-0.016262847829,-0.153323763997,0.0628249289424,0.044160359211,-0.0479301605114,0.0760221084235,-0.0439920171589,-0.0320902193009,0.00454360156618,-0.0156548855071,-0.0611709253279,-0.0746081801618,-0.147192624579,-0.0963300410809,-0.0857050105689,-0.0235791012986,0.0137977271849,-0.0356188207976,-0.0706538164526,-0.0923126349081,-0.0803294091355,-0.0243740330367,-0.105770971486,0.115677456448,-0.173024745766,-0.0431949870223,0.0586359993687,0.0743108565211,0.056506168949,-0.0408117084659,0.124360584491,-0.107666506548,-0.0595765535152,0.0158307465515,0.0808415942642,0.0909430935104,0.014889289068,-0.0422775170394,-0.0784247926685,-0.0463646655434,-0.00962371357592,-0.0935650300893,-0.0450201851761,-0.0493990172678,0.0993302649312,0.0181078700138,-0.0858333815297,-0.017112137644,0.0532650438822,-0.0401428511753,0.0249885240829,-0.00286816040578,0.101700979064,0.0441135541274,-0.0579876163463,-0.0541130955641,-0.0618515270876,0.0627097867954,0.000172380133998,-0.00436689161315,0.131286456414,-0.103259095833,0.0552172682139,-0.120106156626,0.0070838822112,-0.179567132939,0.130002601222,0.1575550055,-0.0722274652503,-0.136748918824,-0.0506292715262,0.0352314826607,-0.100131104101,0.0464924478238,0.129749928782,-0.0515600792182,-0.0145176716655,-0.0955432037982,-0.0203708235873,-0.0538408336008,0.0518816521277,0.121572593677,-0.0991649893375,-0.00436077209685,-0.0134753101223,-0.00960931003622,-0.211426546553,0.040487347365,0.0321865028855,-0.0701489024865,0.0300571194345,-0.0503903698014,-0.0209561419086,0.0362965809193,-0.062628135904,0.0539541778588,-0.00570750720418,-0.0687112467322,0.0839575808436,-0.0374251868432,0.0196898365826,0.0487157803209,-0.0118515096253,-0.0403029133487,-0.0199005178648,0.0150398282288,-0.00651169666807,0.0220587833883,-0.0779080602589,-0.028344894187,0.0647075346398,-0.0781271941297,-0.00351187789833,-0.0249475363428,0.0789181466419,-0.0285551244923,-0.116818362794,-0.0925480566518,0.0302858020035,-0.00395004082409,-0.118807088221,-0.0567285843038,-0.150703804758,0.0214299077021,0.0322394296664,-0.0650741305446,-0.0918993055953,0.0172578744812,-0.028577737333,-0.164247785704,-0.120066175063,-0.0129327001187,0.0322752006076,-0.0181810743203,-0.0996325031507,-0.0886030468534,-0.122758452445,-0.00833578772338,-0.0793663846968,-0.095457340727,-0.144509083046,-0.0238051613684,0.0283689062502,0.00330082043651,-0.0734904920961,-0.0623667664009,-0.139145920941,-0.138789875366,-0.0580972758599,-0.0105563682519,-0.0979378855359,-0.0737181690953,-0.0859764840461,-0.0833890029507,-0.0880298739396,0.0182046025729,-0.0269611103438,-0.00225262836477,0.0260619712086,0.0497996461037,0.0455371171985,-0.0714063662842,-0.0930571381171,0.075900544812,0.0667012148649,-0.0411937600501,0.060265905478,0.0561247292658,-0.0674501637823,-0.0714027906992,-0.00851562553223,0.0909607544485,0.00814992769029,-0.0775645230194,-0.0921391642073,0.0245922230063,-0.110929573128,-0.015037598724,-0.0138407114688,0.0379404774122,-0.0719632137744,-0.00320450497549,0.0441452392421,0.0340315388774,-0.110447969328,0.0840722184344,-0.00893163448796,-0.0682151606824,-0.00251196457986,0.00743168743967,0.014701917705,-0.0255108352925,-0.0553559949141,0.0316407144814,-0.080770580112,-0.0398848356777,0.0463075503718,-0.0440090872444,-0.0381954974785,0.0653496665262,-0.0204446641124,-0.0507141550309,-0.0105749550601,0.0552065552383,-0.130173831088,-0.163383025501,-0.0526208244224,-0.00177172575368,-0.107518864621,-0.0575100640821,-0.0652606215797,-0.105587425026,-0.133176388366,0.0350579237053,-0.0633461955279,-0.0287823782856,-0.0617267269767,-0.0899071994478,-0.0656158906989,-0.086743761939,-0.0601404761028,-0.0664944554699,0.0656698877959,0.056114257342,-0.0385802569175,-0.0498454238708,0.0215382190799,0.0503186257672,-0.0917867468867,-0.0130905911825,-0.00609285184803,0.0102147117693,0.0744003285356,-0.00768203863061,-0.0253971164837,0.0420729963014,0.0510716317004,-0.0847734321506,-0.061675176922,0.0611803783807,0.0547064920955,-0.00246049281907,0.0126961478392,-0.0777032876717,-0.10465478878,-0.092364999141,0.0172046145392,-0.0424004284678,-0.0160649336958,-0.0226063107319,-0.0680047489074,-0.117195662609,-0.0712095731068,0.0270000686079,0.082176937821,-0.00406743510249,0.046090607723,0.052140881294,-0.118507116157,0.0401236809601,-0.0710726573514,-0.118291913511,0.010060379254,-0.0107246777212,-0.0191626614818,-0.113614282751,0.0225428243318,-0.133897990418,0.0578841354548,0.0333799224644,-0.0363911003776,0.0574851552088,0.0620893971859,-0.0812287444386,-0.074103464452,0.0653983895821,0.00400648308212,0.0763322090637,0.0951291166017,-0.0926480865447,-0.158952305564,-0.0833164845134,-0.0496240055848,-0.0371701459549,-0.0279092081901,0.0435800026071,0.00126181320042,-0.129584748191,-0.0929072732745,0.0205706459801,-0.102124899266,0.02464832159,-0.0593524827844,-0.0559731808666,-0.140617825093,0.00130475956409,-0.065112810943,-0.0170204669093,0.0874421167826,0.00908873571374,-0.0662598783966,-0.11618432138,0.0637546966916,0.0555232458316,0.00893937958776,0.0448811853261,-0.121370911194,0.0557663758055,0.0686286214726,-0.0844139363534,0.0516423572552,0.0881877509103,-0.063521103585,-0.0733160575357,0.00338406333991,0.150388895545,-0.0909726027668,-0.0149355220295,-0.0326382584722,0.00648232480636,-0.0851865706965,-0.101358028915,0.0918403313132,-0.0597315257763,0.0279975881692,-0.0494830029904,-0.0229796909654,-0.0948933419301,-0.112618815106,0.0992155649611,0.0416724163535,-0.140917117082,0.0701780721195,-0.144881353711,-0.0750081396136,-0.166823501357,0.159175180585,-0.0622884696657,-0.0222428090071,-0.052848684987,-0.119386807642,-0.126791606222,-0.15947225096,0.00700196573962,-0.0767004963994,-0.0111322202852,0.0842986204744,0.0903980856194,0.0144673041182,-0.0129666361391,-0.0902096950246,-0.0972461123014,0.0156938681281,-0.0319126476121,0.0185918433006,-0.0960789632779,0.0614664440711,0.0569535803871,-0.00648362268987,0.0714662076585,-0.0120749164633,0.0733480012582,-0.0213796819792,-0.0890567638865,0.0331887601415,0.0178911309513,-0.0214979197293,0.0335883001375,-0.0306304036951,-0.0677913392825,-0.0517900833434,-0.0924999359138,0.0567692385674,-0.0105620228448,-0.124423692751,-0.0630338210696,-0.0600735628047,0.054787799483,-0.0225043685478,-0.143194658141,-0.0928156111103,0.0277890702146,-0.0547196290008,0.101421395125,-0.0698008980487,-0.14660238031,-0.019119505358,-0.0366453367519,-0.16260165142,-0.00819635013803,-0.026329136479,-0.0684447468015,-0.0408344769568,-0.0867500701131,-0.0195287797176,-0.127422104456,0.0212891772526,0.00372276315063,0.000191611686,-0.014821043592,0.048212630243,0.0980101279199,-0.105353495529,0.0122541352216,-0.0135468214695,0.0926924935997,-0.172719838783,0.0267160464166,-0.0185772238977,-0.128860975877,0.113639636789,0.0376775963338,0.0400382451265,-0.0933972028235,0.0756015886855,0.0591545840353,-0.0998116619394,0.086977328234,-0.0271881206395,0.0648235811926,-0.144041463329,-0.0926036747335,0.0595243965909,0.0384169777074,0.0240891147101,-0.0719722560179,0.0192011626578,-0.134898734002,-0.0486203404353,-0.0255334750568,-0.00842500117782,-0.0962283235017,-0.0795428736841,-0.0967006305782,0.0368083596146,-0.0931990546628,0.0342376011376,-0.00492066601711,-0.138146709272,-0.0271653282267,-0.0268854942833,0.0520003845831,-0.148252144731,-0.150039059539,0.0665922702766,-0.14369996086,-0.0473194703657,-0.0251502232301,0.145839716865,-0.0928018007586,-0.0944182278968,0.00813042676345,-0.210145363537,0.0843598752983,-0.0903953257659,0.228486889792,-0.100632918084,-0.134230730894,-0.0113711918363,-0.094034718968,0.0237670749078,-0.166163142971,0.0382060777864,-0.0524675754608,-0.0561970972932,-0.0653619151977,-0.182619023119,-0.0771118068276,-0.0053818833099,0.0512988491795,-0.0542265560776,0.0557974268832,-0.116415385056,-0.0965783220595,-0.0417386334267,-0.0998641735003,0.0587018715196,0.00644500540624,0.00372482079493,0.0330348758669,0.0495798080447,0.0200940247685,-0.0492288618688,-0.107446283767,-0.083114731875,0.0554241350421,-0.00923476415032,-0.02234240287,-0.00282259192715,0.0675315710639,-0.129354486882,-0.0875031231677,0.0592569616728,-0.0860427440011,0.0270472283162,-0.0469493216886,-0.0884583029981,-0.0536311829752,0.0102876706275,0.053097454225,0.00785307004648,0.00297252481155,0.00768937520225,0.0385075625616,-0.119284401161,-0.0262750749315,-0.000813039407886,-0.0663491281225,0.0947682318009,-0.124197081054,0.0463306356794,-0.178625582803,-0.0493106972542,-0.0540704374511,-0.0387360787385,-0.119161317843,-0.0927277744782,-0.0555044475801,-0.105071478721,-0.0240169832442,0.0733264094994,-0.143263152756,-0.0543656334573,-0.096982178295,0.0626229372646,-0.0168129523692,-0.164848622539,0.117305256683,-0.0142244410063,0.105499309126,0.0142157805365,-0.0428175194406,-0.126087071414,-0.149845798776,0.101565197548,-0.102548340251,-0.0407113961337,-0.0747300123202,0.0272118958212,-0.0208504498026,-0.0605578750592,-0.0203602712447,0.0684237838221,0.0804832906361,-0.124701452562,-0.0639543952849,-0.00564549552074,-0.124444949273,0.0562796741312,0.059110099235,-0.0740001288154,-0.00118355093847,-0.0434908106782,-0.0532563260632,-0.0615492004168,-0.138622915717,-0.00325884960549,-0.12776392073,0.0809034586617,0.0381767671096,-0.00895227332142,-0.00083785429049,-0.0937133521762,0.0434604082308,-0.115750671931,0.0715959157767,-0.125047118092,-0.0754918958347,0.0904786712312,-0.0616973828053,0.0286468334486,-0.0496947246622,0.0787729820615,-0.032532700614,0.0956787667074,0.0339564574602,-0.0704112677017,-0.0177362020514,-0.135265229209,0.0245245515566,-0.185283700147,-0.0182764625789,0.0589390802712,-0.121719337719,0.0731747362448,-0.0675406533848,-0.00064639778189,-0.18371236273,-0.0371219160352,-0.0254484098292,-0.180777220818,0.0594294222482,-0.165967107125,-0.00980145549241,0.00300083718738,0.0481770504905,0.0298398884376,0.000826010612789,0.0419099354886,-0.0239943932219,-0.0173712193671,-0.0697141500074,0.0467180700803,0.0457498354129,0.0286567528097,0.0148001639556,0.0541242246933,-0.0270192885383,0.00237235457427,-0.0778087201277,-0.0942547011505,0.000207456116454,-0.10860819053,-0.0288315311217,0.0206300571641,-0.0290052486986,0.0297216649505,0.0549534544028,-0.0382509237179,-0.0756163289727,-0.0576390206938,0.0361806469368,-0.0848797278438,-0.0799583618366,-0.139154831559,0.0221873468246,-0.0179547617735,-0.0949562071161,-0.101601951589,-0.053739053482,0.0475408793605,-0.00403778889559,-0.0438775825154,-0.0171470724301,0.0120687880038,-0.0580300086796,0.0569771361438,0.00457683463783,-0.0511613448045,0.0734480059024,-0.127797075599,-0.0800196002561,-0.113766853173,-0.0957263587399,-0.0854407178288,0.107817657728,-0.00953121009074,-0.101172937261,-0.144978028619,-0.107437599849,0.038040027736,0.0818831812822,0.201494397578,0.112941548707,-0.0805205258741,-0.0544409582325,-0.144580730494,0.0259619189045,-0.0445102329973,0.127488672411,-0.039659303782,0.0391813401252,-0.00419703713391,-0.0964354576992,-0.0836767107806,0.0728554162566,0.123226701617,-0.0460668865755,0.0384417591787,-0.136877844937,-0.068693520121,-0.0303837649054,0.0646263683444,0.0455827496148,-0.0592485833392,-0.0960075106707,-0.0176935002406,-0.0302159661909,0.0127591519597,-0.0727618769019,-0.0321013449925,0.0544314513016,-0.0692707449454,0.0456967136085,-0.0453862422316,-0.046167975065,-0.0617231190996,-0.181557296561,0.0173621932319,-0.0486042933985,-0.0560849478876,-0.0344556838089,0.0521034750421,0.039358567875,-0.260065942957,-0.151803287882,0.0806835959205,-0.0370518996392,0.0186545782459,-0.0447064667665,-0.0747617072036,-0.233097553534,-0.147801158913,0.0284233837219,0.0888109880054,-0.025881238647,-0.104312502151,-0.018512953988,-0.175595716055,-0.0146790310106,0.105676908076,0.110308656944,0.0544039442746,-0.0936620329004,0.0584670511331,-0.278671366437,-0.0981934312104,-0.0800805359941,0.0684525678311,0.0359974296402,-0.0217600101709,0.0317069853589,-0.0232662904205,-0.0573544447189,0.0051574606909,0.0210953687123,0.046584405998,-0.0336409038169,0.0447384561772,0.0271593755329,0.0481928834971,-0.0692482981857,0.00408104466736,0.0204660617619,-0.0612947325892,0.0132966885404,-0.071867276534,-0.00124872886944,-0.0990117217378,-0.0657940804452,-0.0567002815406,-0.00821420119863,-0.089358215241,0.035575815515,-0.0737449122445,0.0432389831158,-0.0122554431829,-0.0821596245937,-0.03025029401,0.0481139698809,0.0802845141417,-0.0997963221982,-0.0570908104339,0.000345073130922,-0.158091114753,-0.100393713841,0.0133721912316,0.115924688749,0.0684217458696,-0.118669510613,-0.102333556685,-0.0921347693553,-0.0195769027983,-0.0913864769179,-0.025776483891,-0.0105366939947,-0.0148996388436,0.00487290138056,-0.146991006969,-0.0997614049247,0.0880847581436,0.0992311934466,-0.0896241720135,-0.0915666159237,0.0193867670715,0.0119200830054,-0.0245911543947,-0.0273018514353,0.000838721953974,-0.0107077970656,0.020491926566,-0.129995364899,-0.0755941208473,-0.160547996811,0.0625266878688,0.167551286017,0.0816035986503,-0.0260609368188,-0.0354843231714,-0.0955798136109,-0.0323945283897,0.0790623857835,0.0897690469909,-0.0438215326098,-0.0745707899227,-0.075738824432,-0.108487910163,-0.0692557173795,0.144885324066,0.0108949375104,0.00499186121691,-0.0986139674094,-0.0759660745439,-0.0360375145064,0.0240016836398,-0.0521655428269,-0.029614714546,-0.0844348761741,0.0027326085652,-0.0546052682977,0.0486816681883,-0.0512046962277,-0.14411411898,-0.109190326666,-0.0194771049004,0.0159348571091,-0.0408067726734,0.0297701927267,0.0115870839918,-0.165403098868,-0.088274430261,0.00956644947262,-0.0390097883431,0.0947568687431,0.177583439487,0.123592402709,-0.283007467492,-0.111297668111,-0.0986303310557,0.0227311407324,0.0658794703744,0.138061576395,0.184123544352,-0.127322259097,-0.171516318115,-0.0141052515574,-0.0562168400634,0.0100858427696,0.0568451147132,0.113894151678,-0.2630817082,-0.218758725048,-0.128858656474,0.0311822998612,-0.0302018641546,-0.00220751565326,0.141923652229,-0.187765557862,-0.0516820844753,0.00306680039895,-0.0917386908426,-0.0122023812098,-0.0725318468921,0.0164539527723,0.0663604789202,0.0214521257005,-0.0593455951561,-0.0678660869596,0.0380527366419,0.0436770703844,-0.0214140752191,0.0104714349059,-0.080007370411,-0.0286424562293,-0.0658229718376,-0.087070694549,-0.0103758368195,-0.102643048561,0.0665329535372,-0.00306996471255,-0.103374103519,0.048498641765,-0.0568544034117,-0.0790905997798,-0.0240172180345,0.0982405647589,-0.0546705460902,-0.0426749447278,0.0225624086756,-0.0393983375245,-0.115519846024,-0.0554382650072,0.116487129209,0.0593787240936,-0.0890082762225,-0.0295893999779,-0.15362297207,-0.0587426888231,-0.157321676217,0.0877545389387,-0.139675028337,0.000126963960499,0.0142067189921,-0.0286967448457,-0.0733018702739,0.0766307331704,-0.0666737246535,0.00789742508868,-0.00308053422211,-0.143919879841,-0.09070624269,-0.0476826210416,-0.0448318362794,-0.0767131253988,-0.170598951978,0.0776206645209,-0.0280450272524,-0.132350062594,0.162784801181,0.0773671902608,-0.1512114301,-0.132875914713,0.0976343863043,0.00837380796906,0.0128096997093,0.190858090864,-0.0363009324939,-0.175262445097,-0.0492412474223,0.0479487072158,-0.103583244485,-0.0474816634023,0.145452737559,0.0542054896203,-0.0595487958324,-0.110462211334,0.0315969276289,-0.0647839726656,-0.0142404752675,0.108823495835,0.131475897121,4.16858124551e-05,0.0354346335772,-0.070738298518,0.0144792260583,-0.0156097002385,-0.0602409827253,-0.111542779836,-0.0472045578626,0.130126073676,-0.108708222235,0.0339705741402,-0.0474944693533,-0.0165337346498,-0.0146072045238,-0.0577490878128,0.17568787436,-0.11061089158,-0.0704061004029,-0.060019175935,-0.239847824153,-0.135622347681,0.0981628166583,0.168952163861,-0.222351040012,0.0459084713539,0.102241511203,-0.165853685897,-0.0069606153006,-0.0335491689277,0.0835151352471,-0.178553721579,0.111342221601,0.0937476108571,-0.204351593814,-0.161270389515,0.134070869365,0.180010228487,-0.0826315511743,0.0533403370228,0.0823889430996,-0.251277343043,-0.0834209382099,0.00971342477566,0.010318145571,0.0846553368907,0.00887667937386,0.00151084289972,0.0332273449813,-0.0570400234902,0.0202718951303,-0.0572315441811,0.0192885153855,-0.0466881464192,-0.085755592683,0.0325556012791,-0.0903843841149,-0.0593810824097,-0.0945204109124,0.0327423297041,-0.0926738836187,-0.0782048351583,-0.00126970443982,-0.00588155828747,-0.0739599897175,-0.0760649139887,-0.0639546996712,-0.103885654803,-0.0812172255645,-0.0395234462081,-0.00814434854158,-0.112830043581,-0.15049808162,0.044419538637,-0.0725875836634,-0.0383226386264,0.00850200204473,0.07036732142,-0.131096732194,-0.144318206196,0.110029388201,-0.0088044168663,0.00478745993707,0.0245674890549,0.076566049106,-0.0801890293799,-0.0672581989747,0.0294211958199,-0.0460142518141,-0.105171199547,-0.0202804713867,-0.103601212091,-0.0966606356385,-0.0606624174472,0.0302243814814,0.104102946809,0.0614043443938,-0.0918300346391,0.0284311191737,-0.103588811758,-0.154770255035,0.205596095432,0.0151161904001,0.104918608678,-0.00258274718486,-0.108706151876,0.0481685920214,-0.197135150316,0.0434959049909,0.0114100480639,-0.0691512425112,-0.135127122791,-0.0363381188776,-0.0584298632272,-0.0820743714047,0.167498916805,0.0104963856996,-0.0456589340192,-0.0476216853714,-0.118339048404,0.0549501100639,-0.124036995823,0.0506197623486,-0.0251030778543,0.0766555223138,-0.0591063198094,-0.0115787483137,-0.0673549094716,0.0246909856452,-0.131197433155,0.0432735496966,-0.118456603498,0.0436490943556,0.0103392801469,-0.0931539552084,-0.00417159658355,-0.212663738812,-0.0944769103675,-0.0477200083557,-0.0854064088027,-0.0761836445891,0.0399277230624,0.199335324181,-0.226812363128,-0.1631086516,-0.132464409745,-0.0176607520433,0.101914265103,0.0767891937542,0.0869787390132,-0.16238113913,-0.193134897108,-0.119471867921,0.131992351586,0.0216197451684,0.0240926473429,0.140754444799,-0.268759786404,-0.0918345910476,-0.0339712750478,0.0384501379122,0.121528812899,0.0520389102721,0.032808598597,-0.292504456705,-0.0900551906558,-0.00833880143853,0.0985070279632,0.00210929759741,0.0249648954255,0.00392332257009,0.0621917706845,-0.00874955086941,0.0556874204565,0.0415673419379,-0.0734229341019,0.036787195979,-0.0854057352508,-0.0869665466805,0.0340602563604,0.00785870652738,-0.0561478766137,-0.0797232520253,0.039229291134,-0.112294108546,0.0148511419445,0.0770383668325,0.0702288199391,-0.0944984860083,0.0594235590981,-0.0229677748833,-0.0918666716162,0.0829482143431,0.0467145617917,0.00834978750951,-0.040399689327,-0.0991937586211,0.00487321331899,-0.0410335064995,0.000643635436916,-0.0760616793077,0.0658754370289,-0.11546843076,-0.0170999161097,-0.0755804131017,-0.18246421099,0.0724364437944,0.0167028369715,-0.0409830015149,-0.00478710044202,-0.159958647036,0.0110861319906,-0.129509448259,-0.00177481119963,-0.0494551491755,-0.0692591698615,0.0723007518659,-0.0499336411758,-0.00607815488248,0.0521356788523,-0.0529317615615,-0.086702930322,-0.0176254706373,-0.0688856578117,-0.0718244520717,-0.0816748349514,0.067825860278,0.0690790795362,-0.151534874262,0.029911138775,0.119029485685,-0.09676378903,0.104331513743,-0.104407247284,-0.0520717910614,-0.176546463984,0.0890609893537,-0.0268329573226,-0.228514700017,-0.038348406645,-0.000237261181629,0.0756859993257,-0.142792847777,0.0400435876003,0.144402103754,-0.0557915329731,0.00671517694162,-0.0639433162687,0.0144091267587,0.0109185797108,-0.0499673359033,0.0641194726216,-0.125277804541,0.0296912582981,0.0533115238372,0.0108080058383,0.0845958596133,-0.107364715354,-0.0755473793623,0.102961608998,0.00617506223654,-0.00892879712804,0.016398409079,0.0825056642994,-0.102893382502,-0.115751994921,0.0633194134398,-0.147267743557,-0.0874973907112,-0.0210197847092,0.188610214035,0.00407322112706,-0.229867537673,0.196485438936,-0.175272419293,-0.0709212761825,-0.0288035402111,0.0303174862418,-0.080436785394,-0.199623598775,0.238681003735,-0.107034269677,0.02313746708,-0.11100908229,0.066980386911,-0.0192202337741,-0.204956755334,0.0942094579014,-0.173579080307,-0.0788370475288,-0.00542477108681,0.0382702304938,-0.0448034405144,-0.107264296687,0.0539816221049,-0.0718689776716,0.0102043947878,-0.0343172954746,0.0162868219045,-0.0617087103104,-0.014392164226,0.0373690051588,0.0528760480169,0.0669922804286,-0.0354182974727,-0.00805232318681,0.0273243578144,-0.077027420044,-0.0608576924749,0.0548050359849,-0.0488832642009,-0.0724596465886,-0.0908559227212,0.0744282009366,-0.0481351037002,0.0228252460103,-0.0593303566291,-0.0768804907486,-0.10458909886,0.0238623855251,-0.0415047370764,-0.000910734612953,-0.0631832543179,0.0717488282375,-0.000294910814333,0.0107311053005,-0.0529278253912,0.0679015624236,0.109414854251,-0.104519779494,0.063286271422,-0.0117808257086,-0.0409241504976,-0.105310459581,0.0558232324102,0.0684282097806,-0.181763774709,0.0158325315397,-0.0585426699906,-0.123926595264,-0.00414861471075,0.0257504721688,-0.0831249471523,-0.0562608028473,0.045834517534,0.0148504526139,-0.134054669945,0.0464271269764,0.0104183376133,0.0506919774433,-0.0686485057304,0.11358445993,-0.186431793827,-0.0895644192825,0.00223858609492,-0.0607371205074,-0.0407609925254,-0.0246816190205,0.133015488526,-0.0657950516559,-0.120348155719,0.0356610815424,-0.0594904388222,-0.0867890818639,-0.0573781579839,0.0304400498193,-0.10404278685,-0.068295344342,0.0657342763032,-0.118981688072,0.0701707822547,0.0161398939848,0.0845961016198,-0.00478668341918,-0.0906131509446,-0.0751851642986,-0.0666527498698,0.0753363628847,0.0231332045202,0.0106898247334,0.0919857132159,0.0131066243598,0.0318804901119,-0.0254503118276,-0.0660169864403,-0.107449343194,-0.0378655894442,-0.018372982567,0.0683598411759,0.0333461177356,0.0978932732256,-0.0403651080749,-0.0609288635295,-0.131662661583,0.0964478577064,0.0125990271502,-0.0542111669635,-0.0230026447853,-0.125064345517,-0.0402143428959,-0.270842712206,0.201460517045,0.124371962845,-0.0290043975962,0.0789648075354,-0.0323569757645,0.0589580936389,-0.257648911396,0.0335424940544,0.0738911826516,-0.033726519772,0.0488346530631,-0.0167459683768,0.0716906796536,