0.035709003452,-0.0931579912038,0.0598133992546,0.0217067103535,-0.047059596339,0.0765984893196,0.0324747408735,0.0655865622792,-0.0563949326421,0.0315837877167,-0.05137412425,-0.0129179775801,0.0587797453826,-0.0903363073665,-0.0578156127254,-0.0355813474669,-0.0611633961959,-0.0653069388607,-0.0611993873977,0.0498169918865,-0.0548104796023,0.0130989389739,-0.0696038747931,0.0146508545697,0.0251190627947,-0.046851402272,0.0810610663892,0.0562008870056,-0.0604927519655,0.057686288491,0.0287779927027,0.0695409291151,-0.0372484973956,-0.0802366219907,-0.0757739082892,0.00124090668009,0.0135551177389,0.00322509816375,-0.0351480565691,-0.0696261121966,0.0206983866992,0.0592943906184,-0.0246358670035,-0.0382911912365,0.0240487905427,0.0803283736993,0.0285099481124,0.0274670365589,-0.0692719482242,0.0137559824787,-0.0742360572524,-0.0497852096031,0.0561934287099,-0.0261491507569,0.0422877193355,0.063089946608,-0.00526405047297,-0.0508768370578,0.0229774649657,0.0191934310078,0.011740116138,-0.00750535337289,0.0376099359611,-0.0662457722112,-0.0398664738291,-0.0341787749061,-0.0242630658316,-0.0795212519563,-0.0387766264619,-0.0338533158216,-0.00973224901172,0.0222600172432,0.087131937552,0.0122298713286,-0.0381712264732,-0.0108024960054,-0.0834266009009,0.00187946449613,0.0794535150597,-0.0874089883079,0.0887613948393,-0.0143705812452,-0.0842197409498,-0.0203376734491,0.056135802361,0.0492404727114,0.0239104541586,0.0224184302366,-0.0779976888805,0.0473135979657,-0.046775984461,0.0420427039751,-0.0449182205245,0.0298383729985,-0.076120159354,-0.083462971837,-0.0827528599514,-0.0601906487249,-0.0935070399637,0.0337402051815,-0.0395009018975,-0.0269246741407,0.0544115215844,-0.00366603658375,-0.00386316721279,-0.012178080532,-0.0418742484453,0.0902466294687,-0.0377233976237,-0.0588892919464,0.0889412484801,0.0497658225985,0.0399616238607,-0.0297100016509,0.0733956595651,0.0417796522679,0.0908848933911,-0.0222475861473,-0.0430849234737,0.0130313573734,-0.0166166739706,-0.0504635080007,0.000114490024429,0.00302076373313,-0.0206052471546,-0.0692220456522,-0.000584208307245,-0.0582309034617,0.0607818055554,-0.087125679671,0.0400135001801,0.0253220082052,-0.0732741110683,0.0955210951134,0.0800786064227,0.0178604716783,-0.0473193671418,-0.0490143420622,-0.0132396638388,0.0913491869886,0.0955109609855,0.0843787102388,0.0381613494794,-0.0139221973089,0.0149703299883,-0.0717866273417,-0.0979763925281,0.0548370734092,-0.0197853220091,-0.0441081077662,-0.0706588134229,-0.0491220470941,-0.047471898038,-0.0529821619826,-0.0823024705762,0.0202383943972,-0.0342088835391,-0.0689668648973,0.0777810158968,0.0812590567485,-0.0466365394234,0.0118332958768,0.0910616412537,-0.0903063895288,-0.0369406468637,-0.0908358359689,0.0183361928569,-0.0151343460505,0.0303279935255,0.0728670175598,0.0529665369942,-0.0925553537454,0.0877429625061,-0.048297853323,0.0475237407435,-0.0761489598137,-0.00243490409744,-0.0654286489954,0.0787456405058,0.0120956558089,0.0118871258311,-0.0450600073822,0.0523289847276,-0.0246127388532,0.0897983569814,-0.0936859404284,-0.00852843828315,-0.0800744328626,0.0287176252405,0.00695367568213,-0.0835857886151,-0.092866868391,0.00969242151722,-1.7427331388e-05,0.019579829476,0.0266903280039,-0.0756435043698,-0.00328497581905,0.092766169664,0.0829146639347,-0.0502710288299,-0.0533295980585,0.0636176079079,0.0549860402017,0.00676604581253,0.00912490130991,-0.00462706956197,-0.0134900265661,-0.0965243156826,-0.085377568524,0.0684417830423,0.014005635207,-0.00695375672661,-0.00428143293257,0.042037157265,0.00669164809328,0.0959693473705,0.0797642136755,-0.0441718699391,0.0551682480683,0.0342959901624,-0.0860911085013,-0.0312063274726,0.0973006585964,-0.0782623174822,-0.0335813844914,-0.0173579520885,-0.0592531039307,-0.00479887326997,-0.0297738061318,0.0915838129351,0.0525896360645,0.011923576706,0.0594961530668,0.0767038049915,0.00456425865829,0.0943780699693,0.0986596998779,0.0265803104744,-0.00422950036017,-0.0122001941165,-0.0448192124178,-0.0429355068358,-0.0404766135481,-0.0935523712371,0.0603057633442,0.0599842451663,0.052957552793,-0.0831358086491,-0.0285132605566,-0.0264093751514,-0.00367326379579,-0.0106634811007,0.0382891766188,-0.0164822856385,0.0525018688341,0.0608547680244,0.0577883922391,0.014964848582,0.0604604574665,0.0274750080767,-0.0811369333131,0.0515457498933,0.0102892973035,0.0107149757948,0.057847540566,0.0458250188256,-0.0363928479559,-0.0946323034501,0.0892456345494,-0.0174313182692,-0.0863104600534,0.0778605156151,-0.0136032751492,0.0891507339304,0.0177202884223,-0.0148354947389,0.0145333253902,0.0505193494936,-0.00988173755211,0.0886095622711,-0.0977087074272,0.0317101391751,0.0465614027608,-0.062579735247,0.0990471212745,-0.015789786273,-0.0205136837027,0.0733823525042,-0.0304117414489,-0.066592423341,-0.0967118846216,0.0124689947713,0.0158136190538,-0.053200981938,0.00334236927011,-0.0199922067333,-0.0912942779365,-0.0173879228286,-0.0352012140512,-0.0731596003688,-0.00380596758027,-0.00799919710369,-0.0170142246218,-0.0782824692453,0.0475163505826,0.0990746214925,-0.0236956146871,-0.0997723519813,0.0454830166588,0.0519172177813,0.0986350283571,-0.0238295848811,-0.0815675552217,-0.0565753313303,-0.0483117696439,-0.0739388740164,-0.0273701709015,-0.0259624330136,-0.00282302235803,-0.0202020949954,-0.0375858263284,-0.0966023305559,-0.00106864482762,-0.00610931134461,-0.042335495127,0.0840080756678,-0.0121821427153,0.00375027461261,0.0210324653471,0.0223660248589,0.0324472837488,0.0852543026894,-0.0853691630049,0.0244794989611,-0.0452302781799,0.0181861297013,0.0718281364725,0.0805751306941,0.0253544842574,0.0333119273416,0.0775974300138,0.0492885644999,-0.0768330924241,-0.0372141864061,-0.0319567381671,-0.0400076235392,0.000155503989214,0.0867951492766,0.0361874779143,0.0210387883711,0.0366807426064,-0.0801991623232,-0.0473590197848,0.0679381616223,0.067107684358,0.0804571256793,-0.0170160294615,0.0331216810214,0.020925780159,0.0475644512241,0.094631582084,0.00110220921198,-0.0768135242325,0.0609811947631,0.0218959654217,0.0513815001128,0.00477809576485,0.0959501048216,-0.0601553711823,0.0898202076279,0.0833001223319,0.0582661905144,-0.0506475905146,0.04336829654,-0.0421119046381,0.0157241545351,0.0607905381814,-0.00965641944244,-0.0392491510198,-0.00787568466942,-0.0834247954118,0.023355091127,0.0617908267918,-0.0235603876727,0.0340296845824,-0.0261950706045,0.0291163604426,-0.0188431030544,-0.0785109125247,-0.0465976577057,0.0577189863364,-0.0524909248249,0.0571532037477,-0.0204564658578,-0.0894722381373,-0.0552536227604,0.0146298930762,-0.0592427269505,0.0661776182116,-0.0780783615438,-0.0177488809049,-0.072660168993,0.0232066379221,0.0923011261008,0.0223920522671,0.062465539261,-0.0801562853514,-0.00473926386534,-0.0700077045366,-0.039642231801,-0.0821526843742,-0.0813111176698,-0.0774713242998,-0.0434156030661,-0.0187972802963,0.028119392255,0.0691641151796,-0.0306900708608,0.0834039862569,-0.0128789187119,-0.0184604331036,-0.0633722092414,0.0628887419715,-0.0357629132403,-0.0347338247766,-0.0149476461858,0.0626107118307,-0.0515762227044,0.0783189054919,-0.0692876079028,-0.0673791985717,0.0777931221587,-0.0190522653894,0.0691580621929,0.0391013105396,0.0575416696721,-0.10043890063,-0.0517262885037,0.0854744049204,-0.0587386689275,0.051431491766,0.0130793269652,0.0410696416934,-0.0647549086354,-0.0341615383518,0.0260808924085,-0.0538455919432,0.0603194162598,-0.0421311888045,-0.0163171556151,0.0257486359803,-0.033980635944,0.0825175806816,-0.0730791056212,0.0601983278308,-0.00551908885734,-0.0834831051411,0.0287141934623,0.014937867717,0.0810666934941,-0.0361126735759,0.0146705341478,-0.0289626247662,0.087287422501,-0.063296439114,0.0110281701362,0.0280646156633,0.0884495969555,0.0153389273484,0.0553499766137,0.00954708530251,-0.0877833355326,0.026562708739,0.032332895318,0.0383120776621,0.0126352116011,-0.0846446763525,0.0278970655898,-0.070126555065,-0.0630495938721,0.0531656562158,-0.0519039949341,-0.0230192229396,0.0238974704179,-0.075165007741,0.0927924039899,-0.0447938036712,-0.0340959090283,0.0412363962328,0.0840319493352,-0.0617877418452,0.0639127049361,-0.0634062076009,-0.0771603288727,-0.0209385815486,-0.0341222644152,-0.00261692150174,0.0870024367602,0.0356388253589,-0.0445232800766,0.0569658738123,-0.0515011580881,-0.0731770927178,0.027380371647,-0.0846669258079,0.0356207125771,-0.034415363515,0.0780567106544,-0.0659867059529,0.050266787517,0.00184155416651,0.0287878299192,-0.0262033424397,0.0357157312372,-0.0926400492827,-0.0274342936515,0.0782379739576,-0.0216820498221,-0.0829928323155,0.0704874775103,0.0708942068125,0.0217140048169,-0.040942088733,-0.0435398930392,0.0111407399165,-0.0837746871161,0.0717328263816,0.0336756209921,-0.0877223867486,-0.0103796095812,-0.0479475498626,0.0823167540582,0.019624084237,-0.0544306884322,0.0837981820346,0.0128733894159,-0.0118587829403,-0.0951154930619,-0.039679088741,0.023518069011,0.0374548136276,0.0347553415197,-0.0407076058138,-0.049873049801,0.0126923875995,-0.0858239566971,0.0606536814134,0.0776944839202,-0.0976546866468,0.020193587913,-0.090830040854,-0.0735723317641,-0.0872018801658,0.047519963482,-0.0698737407744,-0.00410596408803,-0.0063255579704,-0.0237048859,-0.00825183150271,0.0205545213653,-0.0917578610238,-0.0390602419072,-0.0486417205962,0.0284308659438,-0.0543097726116,-0.0841993895342,-0.0510788538771,0.0288387777774,-0.067348057954,0.071645024825,0.0943593940376,-0.0050657815037,-0.0230392984456,0.0319055869612,0.0775131146558,0.0431346952671,0.0844907966214,0.0242484496471,0.0715698547502,-0.0777934774442,0.065769083812,-0.0890713720755,0.0798833170766,0.0534845236789,-0.0479284886148,0.0123899957185,-0.063478501377,0.0732843153782,-0.0247349904321,0.00584612376129,0.0950273264746,0.0980760821485,0.0751426324806,-0.0680920199336,0.0542254866643,0.0727447299038,0.0506558677986,0.00926422850977,0.0482171725857,-0.0547358865167,-0.0365211128133,0.0896166941719,-0.0424163375622,-0.0480833994968,-0.0251138499786,0.0881050832409,0.0562529569133,0.0653379495297,0.00181015508468,-0.0299351109728,-0.0757206498077,-0.0268317869169,-0.0400831932321,-0.054427803533,-0.030109988502,-0.0779545956728,-0.0435249413434,0.0303652181438,-0.0138055569278,0.00410435574903,0.0691781581782,0.0156295978616,-0.0958533060843,-0.00368680742262,-0.0971223691212,-0.0728138090552,-0.00896302331119,-0.0588639382233,0.0575216632592,0.0686794918998,0.0584609735656,0.0109206342057,0.0360283196126,0.0476585813815,-0.0377780265274,0.000696365838219,0.0158479583232,-0.055247258981,0.0678568516722,0.00249740019379,0.060541201697,0.0392852713799,-0.0581760772727,0.0900922661592,0.0236951024935,0.048871915574,-0.00788622336001,0.00765572033246,-4.21869171881e-05,-0.0525459848533,0.0308793402464,-0.0927899978653,-0.0250227147794,-0.0200538436896,-0.0306773381781,0.0439643451253,0.028100157704,-0.0145883961475,-0.0329694428325,0.0662690126833,0.0121826749312,-0.0793913247176,-0.0330043977811,0.00121936626893,0.0884922898244,-0.0478660238275,-0.0528468744845,0.0813051114394,-0.0359011702208,0.0829972319921,-0.0586948575594,0.0825413231745,0.0722913988335,0.00223633333796,0.0885131447172,0.0489099997206,-0.00156988533487,-0.0599278801871,0.0583053944508,-0.0911162301262,0.0358649917588,-0.0688417615385,0.0392487469008,-0.0274881555111,0.0784354811954,-0.0415649097214,0.0399071288352,-0.0892159337226,-0.0632678292512,-0.0784726556748,0.0318486145696,-0.0535694929487,0.0931256703407,-0.0374997704814,0.0457894367544,0.0805949129739,0.0762761284257,-0.0586711109452,0.0535506658442,0.00637365478367,-0.0890472749498,0.0798052315922,-0.0141643194177,0.0786844266407,0.0537088152498,-0.0232024487792,0.0948599202384,0.00563730572585,-0.0275500937652,-0.0342363052636,0.0619309776344,-0.0695970575339,-0.0747308433036,0.0726868410482,-0.0313626452001,-0.0780079126468,-0.0527714139747,0.088179316005,-0.0071509354309,-0.0571785208072,-0.0251340399489,0.0465740431091,-0.0313086597121,-0.0240718197843,-0.0521842431921,-0.0852486754069,0.00473082609445,-0.0792998274575,-0.0930671249895,0.0636768662973,0.0654884630767,-0.0894543891202,-0.0118481087332,0.0185748909229,0.0607598535754,-0.0240208430601,0.0511632336194,0.00115235328004,0.0179137838425,0.0967147904034,-0.0915035751258,0.0833914643354,-0.045053226582,-0.0077397024723,0.0565894308439,0.00682221275625,-0.0650305326336,0.0535881212353,-0.097605159585,0.0724990653827,-0.0168237690069,-0.0135213960843,-0.030976277861,0.0234980589139,0.0894892846031,0.0976609145834,7.48709284546e-05,-0.0800711246494,-0.0532875860647,-0.0376579251689,-0.0164222044975,-0.0632661326972,-0.034038245788,-0.0149554825799,-0.0549696564083,0.037876232277,0.0318040549922,0.0977909185422,0.0290711960653,0.0210416486144,0.0382982282152,-0.0450729293249,-0.00506275344877,0.050873815371,0.0580003349619,0.0115335520904,0.0645375437068,0.0368160418459,-0.0312175562561,0.0480368504705,0.0402825457711,-0.035394194836,0.0136788043193,0.0902635017245,0.0159931547559,-0.0550423258025,-0.0229678115112,0.0522675943754,0.095632283017,0.0813991867241,-0.00435410003642,-0.0714308855259,0.0180157132687,-0.0581781763813,-0.0600175716866,0.0555255850482,0.0937612737026,-0.0308547941672,-0.0564625121004,0.00090390793363,-0.0159652703262,0.0974934211463,0.0639419473539,0.0272445492426,0.0770543136288,0.0122278846716,-0.0448953158063,0.0101931165408,0.0503138343679,-0.0852661294839,-0.046501943499,0.0333513347886,0.0478589112979,-0.0284678898342,-0.0418726938474,-0.0499666959979,0.0585268043055,0.0665792496142,-0.0412997259143,-0.0592361388576,-0.0101496764714,0.0237342705832,-0.0286898214437,-0.00512988502914,0.0555723814728,-0.0729073347525,0.0712367582866,0.0384332534965,-0.0434789021866,0.015473264124,-0.0169469274831,-0.0768103427231,-0.0266991078995,0.0936929343703,0.054151809457,0.0632395441255,-0.0791462472091,-0.0700611231583,0.0957074687974,-0.0715856928739,0.0584440554659,0.0436708584516,0.0946347163555,0.0960711077802,0.0236019573039,-0.0756891537171,-0.0147895942073,0.0351868700304,-0.0529707451002,0.0408250519975,-0.0515028791809,-0.0418667943787,0.0635870658321,0.0183135087229,0.0431132781785,0.0856851578348,0.0455860392913,-0.00183038048461,-0.0380846010146,0.00483583165788,-0.00380730896942,-0.032992309707,-0.0984184606084,0.0393634607694,-0.0600488282464,-0.0124485815468,-0.0092897560885,-0.0298475798079,0.00163530502549,-0.0746006210186,0.0429943045287,-0.086998430596,-0.0790512667248,-0.0863464439539,0.0328910937978,0.0186533750673,-0.0144973862908,-0.0347575008669,-0.0316688220378,0.0611588582335,-0.0894377735475,-0.0205609729725,-0.0230945450737,0.0898092887645,0.00864372608836,0.0180130249712,-0.0729372266597,0.0189693900881,0.0875814105022,-0.0261580683524,0.0652322716115,0.0121914501315,0.000115806074995,0.0844781017777,0.006606367409,0.0555054016875,0.00091365848211,0.0324730270377,0.0229340382355,0.0229249839719,0.00791873923824,-0.0860001499409,0.0613579033564,0.0845336861747,0.0306659290583,-0.0507388079672,0.0469509923423,0.00163019593701,0.000584528964054,-0.0595174557935,-0.0133423964781,-0.0422947592339,-0.0139329706498,-0.00920418465127,-0.0409295616576,0.0390021818763,-0.0229642780095,-0.0820404932002,-0.0626482658083,0.0417321553706,-0.0552920827738,-0.0135711073799,-0.0638986658642,-0.0114523136603,0.0854268472188,-0.0589873811385,0.052245292653,0.0718086266106,-0.0402825929843,-0.0551499855058,0.0115129841262,0.0636397667443,-0.0771441311277,-0.0893741690999,-0.090410473891,0.0294395255486,-0.0366498487068,-0.0850181244512,-0.0912984303933,0.0440110056645,-0.0533956626746,-0.00924688764809,-0.0443482911754,0.035128318068,-0.0783720604992,-0.0439596294752,-0.0518512331177,-0.0131917691186,0.0495353546952,-0.027939026143,0.00150383653402,0.0522989556985,-0.0796021587837,-0.0386077931208,0.0940434912372,-0.0441355358993,-0.0143886414619,-0.0436747992098,-0.0801815731251,0.0484306419205,0.047070587162,0.0568344309078,-0.0706270103224,0.0324798981178,0.0877430629866,0.070510210588,0.0462436395976,0.0330935805563,0.0692051273134,0.092918756662,0.0563895558304,0.0712615687414,-0.0431658117419,-0.0852267318449,0.0626516929461,0.028621656653,-0.00929217285152,0.0547348510821,0.0299249880576,0.0982912063767,-0.0618359180677,0.0784288707552,-0.0259148249788,-0.0706010823359,-0.0902998759938,-0.0317382658191,0.0280595371543,-0.012313628232,-0.071227218252,-0.0966098940952,0.0173346098492,-0.0564963854206,-0.0391665613795,-0.00989814637818,0.067362594222,0.0263835937355,0.00744640221955,-0.0265999861179,-0.054907927071,0.0723076093526,0.0706805359829,0.0410658568292,0.0375007762362,-0.0863869673761,0.0160857121053,0.0200479180564,-0.0484035367138,0.0714058956668,-0.0455353336701,-0.0739673808638,0.0063696234514,0.0599767890602,0.0353431692327,-0.0177288609472,0.0598188489704,-0.0241573434432,0.00613073454355,-0.011973867637,0.0315012453459,-0.0834906781456,0.0735187081531,-0.0162471255473,-0.0393514161644,-0.0114658229229,0.0828369919435,0.0684964214223,0.0809224010926,-0.00689391553038,0.0566626627532,-0.0955624967653,-0.0891784304993,0.00320106944262,0.0413020092474,0.0462282125599,-0.05713527464,-0.0385635094343,0.00747653326666,-0.0781304814679,0.0577230336848,-0.0943518781895,0.0136506742938,0.0482063370827,-0.0890814976484,-0.0583637051389,0.0316883476766,-0.00355414585119,-0.0652437674633,-0.00334471759099,-0.0398669270529,0.0421051655966,-0.0238216050236,-0.0722135023199,0.0993602837998,0.0867341293061,0.0285001514012,0.0671486784351,0.0632682316865,0.0700834948127,-0.00898631998343,-0.0698938633762,-0.093722329786,-0.0166045812863,0.0294644885999,0.075927679677,-0.0690246593468,0.0272022036519,0.0764054163415,0.0129600528353,-0.0769689316145,0.0684057372992,0.0772652832139,-0.0911827060505,-0.0726769294433,-0.0363887338485,-0.0953488017503,0.0423017098631,0.0817638076547,0.0577046234202,-0.0488670912701,-0.0435022499544,-0.0832922951817,-0.0701917950424,-0.022328455707,0.0701656301288,-0.0879289023168,-0.0659519215651,-0.0225437480996,0.0940814932374,-0.0425428760068,-0.0267878571859,0.0893838551307,-0.0406161556763,-0.0147359335432,0.0489890212984,0.0226342498242,0.0236702855874,0.0922266007996,-0.058881433055,-0.081307208888,0.048897128047,-0.0539695471203,0.0671937823287,-0.056625034051,-0.0900538979208,-0.000102135940695,0.0733628537642,-0.0598197140405,0.0448179124215,0.0925263005652,-0.0676682331313,0.0653293215577,-0.0811928343182,0.0587829791279,-0.0156681676841,0.0375408201732,0.0418948304942,0.0724494498372,0.069202326347,0.0953701695626,0.0437303949638,0.0237452826187,0.0802135041749,-0.0219007510092,0.0669334579087,-0.014384304968,0.0695423568024,0.0596287460782,-0.0312790500649,0.0182955392404,0.0243147913818,-0.0473982368791,-0.0328527843529,-0.0607942118139,0.0332644876428,0.0582696212499,-0.0476538466344,-0.0099260230416,0.0404264749921,-0.034416678156,0.0506079760275,-0.0712199149762,-0.0264137810464,-0.00602773980036,0.0484245290135,0.0832177640203,0.0837879346932,0.0678732983579,-0.0960068254822,-0.00211222042433,0.0619897914643,0.00440455441118,-0.0267134724293,-0.0412065923586,0.0480290645991,-0.0344990718493,-0.0495837216122,-0.022155131622,0.0341608976027,-0.0234111469828,0.0632761769859,-0.0730804144131,-0.0721490811567,0.0876506541352,-0.070097024892,-0.0304999424152,-0.0567783615388,0.0039145593769,0.0734623787654,0.027259763583,-0.012195997244,0.00272706234718,0.0979558433518,-0.0525754574115,0.0974521397199,0.0801368870513,0.047089291661,0.0462393564342,-0.00448824217061,0.00019859053177,0.0712143262946,-0.0414994460326,0.015199184887,-0.0888714745818,0.00261572339907,0.0533351205925,-0.0861115916994,-0.0757960204754,-0.0231370404392,0.0633605598034,0.0528448723496,-0.0677899773659,-0.020785297312,0.0168417978989,0.0651761258292,-0.0521400280963,-0.0647983214863,0.0546340396589,-0.0899582901507,-0.035540335619,-0.0878929313327,-0.0449428143189,0.0682113140679,-0.085714331596,0.0341869116514,0.068608690686,0.0896396156709,-0.0409446879224,-0.027943345935,0.0496292355628,0.0356766602377,0.0539039451631,0.0635896598283,-0.0522591361432,-0.0365424649802,0.00242071329974,0.0434093132812,-0.0138034002787,-0.0763430745299,-0.0972715630063,0.0572898631563,0.0652043619493,0.00753716406036,-0.0705989493527,0.017676805363,0.0885264021679,-0.083919667635,-0.0639878492788,0.0558809962856,0.0951414709692,0.074413798306,-0.0818116027741,0.0218839728922,-0.0515410545167,0.0497546945038,-0.0237464370453,-0.0607163137829,0.0377824004097,-0.0739553701317,0.0688335052361,0.0932035114473,-0.0266075295297,0.0776835256944,-0.0573621456735,-0.00979513875422,-0.0439626749335,0.0682746698455,-0.0209212484511,-0.0821188227318,0.0851470285408,0.0146652233164,-0.0307624482636,0.0537445058233,-0.0598151819101,-0.0373008152852,-0.097126628571,0.0046656171416,0.0144965491044,0.099768180429,0.0866381115398,0.0416640944621,-0.0474590953119,-0.0866083549382,0.0953006832218,0.0485305090357,-0.0310257865889,-0.00335160447676,0.0464457190218,-0.0938085766844,0.0251179467039,0.0194812381107,-0.0602817716968,0.0522572696168,0.0356085579766,0.0285170658589,-0.0714717973821,-0.0677117180708,0.0197204061739,0.0812490532463,-0.00504989100533,-0.0659816348482,0.0054618321625,0.076324356377,0.0297211764874,-0.0163281306393,0.0369368799157,-0.0577867717074,-0.00108050292863,0.0650769547466,0.0260040012237,0.0603074769675,0.0125092205671,-0.00812220854828,-0.0375475279565,0.0625030466352,-0.0149801603767,-0.0841054784119,0.05927355533,0.0860915596912,0.00399355667414,0.0972150022458,-0.0600125223845,0.00505322166924,-0.0402054288021,-0.0595786435035,0.0508143077496,-0.0408583587119,-0.0933567032665,0.0526006787483,0.0927064729909,0.0480232247228,0.0231574800858,-0.0450336893975,-0.01302716154,0.0185537165226,0.0877153043804,-0.00184012222456,-0.0881979549725,0.05154633744,0.00110483081942,-0.0179810506962,-0.0428824068719,0.0873917105671,0.0742413940495,-0.0476530320822,-0.0988637863615,-0.0641721762674,0.0919240579431,0.0260314259951,-0.0842021574905,-0.0204990013312,-0.0959742621906,0.0195934821031,0.0819335181012,-0.0318895470562,-0.0987454086035,0.0787818582608,-0.0122699002837,0.0478959693634,-0.0560253570093,-0.0666433352,0.0210239115278,-0.0373100808814,-0.0234819045685,0.0740622359449,-0.0238381495672,-0.051879301037,0.0962301010113,0.0899773071304,-0.0677649478947,-0.0194178639657,0.0194174242363,0.0511374230396,0.0741463840904,-0.0374620587921,0.0233026984737,-0.0952786608776,-0.0595155755669,0.00542248202077,0.0758983392078,-0.0336563197874,-0.0743310813978,-0.037887907787,0.0672626021473,-0.0298580775384,-0.0219055465263,0.087124514627,-0.0198216406281,0.0114993570883,-0.0586345483311,0.0905144549597,0.079780745401,-0.0938273194633,0.0393925318299,-0.0109237666061,0.0938518787931,0.0947282639872,-0.0200265482882,-0.0620736664235,-0.041903082025,0.0925556397293,-0.0773189358215,0.0373568644931,-0.081799441238,-0.0480596039873,-0.0137892987345,0.0315131778662,-0.0981196581227,-0.00490518513221,0.0988320512131,0.0398926481492,-0.0726739510478,-0.0796339173409,-0.0134772596566,0.0746421162253,0.0153318557078,0.0211966762079,0.0877560117171,0.0618478975175,0.082305778407,0.0159012883551,0.0602445225307,-0.0789559071662,0.0435269570905,0.0795607605358,-0.00678288138741,-0.0371675487493,0.0431289485404,-0.0558248557423,0.0937645817388,0.0517251032025,-0.0284159071232,-0.0260231790777,0.00963237128684,-0.0639060487971,0.0712408075222,-0.0352117920816,-0.0545561784947,-0.0792250675427,-0.0172100527936,0.00816101529802,-0.0172907031371,-0.0260855955141,0.0770141785798,-0.0416600747386,-0.0357113755165,0.0259500701032,-0.0557750007949,-0.0649624443479,0.0182474668393,-0.0249051103288,0.0346487431613,0.0512426315048,0.0725038121862,-0.0876815131091,-0.0631184322978,-0.0592930902445,-0.00473013116634,0.0560993579265,0.00316707455317,-0.032267419023,0.08055560827,0.0821797536632,0.0293721117176,-0.0945748335639,0.0999167601684,0.0537346006895,-0.000796037246039,-0.0493178734945,-0.0413153726821,0.0747669625573,-0.0386088618068,-0.0697205191471,-0.0382371838616,0.0384723692901,-0.0186885727327,-0.0848129913077,-0.0705077652474,0.0801822128586,-0.0941965882446,-0.0286800706034,0.0974206270979,-0.0536871248861,-0.00390745795645,0.0743736664581,0.0184048835957,-0.0487044937862,-0.0644833186541,-0.0133992661966,0.0696559414434,-0.00841826392745,-0.00452235967434,-0.0966955781129,-0.0587413677227,0.0793224316134,-0.0270428076765,0.0388438666712,-0.0362122729402,-0.00760255462002,0.0940716496294,-0.063467555718,0.0744150202637,0.0740523354072,-0.0482238576563,0.0329741246579,-0.00890625604827,0.0746686138368,0.0667690734187,-0.0424588604188,-0.0706760687221,0.0833058381683,0.0362314567565,0.00602757697941,-0.0770434535823,-0.0751304146111,0.000666830651057,-0.0537346069991,0.0135139216005,-0.0489296510958,-0.0374549358269,0.0141935483621,-0.0771200793385,-0.024383456655,-0.0510380621705,-0.027245975811,0.0342630911744,-0.0275454142006,0.00113098000299,0.0308686832427,0.00473709284809,-0.0764775479453,0.00247978261619,-0.0315412411746,0.100136123843,-0.00159705004595,0.0276985493777,-0.069427969076,-0.063644916016,0.0951152628505,0.0271038997877,-0.0875180599491,0.0498406505454,-0.0873237358184,-0.0646885302343,0.00799235686993,0.0778467545227,0.00333866242869,0.100035769963,-0.0766330110195,0.0103209322416,-0.0514468000917,-0.0096538565722,-0.0633293620868,0.00993294265404,-0.0513909919362,-0.0193109765226,0.0785701095959,-0.0341154125266,-0.0437119242307,-0.0525097767965,0.0532327371957,-0.0119027602131,0.0712863429933,0.0128550316731,0.0284029187669,0.0171670964197,-0.0679914606142,-0.0970272763961,-0.0393678276137,0.0140870674691,0.0573720070502,0.0310752346176,-0.0141314355391,-0.00385516577037,0.0497200010763,-0.0258313635857,0.0314104295952,0.0670263247324,0.0613971334075,-0.035448697844,-0.0509173040309,-0.0208476502504,-0.0735856023932,-0.00426198255319,-0.00601740184212,-0.01044040876,-0.094403214474,-0.058069157259,-0.0852191771534,-0.0563868677987,-0.0383898370671,0.0493883798126,0.0237093117671,-0.0477246814747,-0.00507980618905,-0.0525953231064,-0.0758377537651,0.0724500569664,0.0439324196986,-0.0185549025429,-0.021948042314,0.0517830733608,-0.0662834402282,-0.00292553655471,-0.040901808766,0.0083092634608,-0.0822434289331,0.0501666369692,-0.0764059290562,0.0262336561824,-0.0164297598159,0.00126544736375,0.0102816381169,0.00394808933182,-0.0970140236198,0.0305849810177,-0.0818464066559,-0.0700702770431,-0.071339273964,-0.0348136972187,-0.0282721653221,0.0165869172084,0.012611376925,0.0816827801575,0.0402867593254,0.0868149067196,0.0289715112344,-0.0577797074911,-0.013471844505,0.0593492734168,0.0657133845767,-0.0471052945488,0.0396532441601,-0.0897972397326,-0.0770892310095,-0.0716168440312,0.0510081323263,-0.0765596504357,0.0635981494949,0.0307034970748,-0.097576502722,0.0343111072607,0.0445731876057,0.0865839151234,-0.067778776645,-0.0513092171321,0.0732441491003,0.0230271162298,-0.07936215745,0.0491897532004,0.0470937339356,-0.0289283366599,-0.0823779837769,-0.0764281658574,-0.0263672590621,0.0393827723233,0.00587835548919,0.0494036213283,-0.0159597655104,0.0506685885779,0.0087534110457,0.0567127077417,-0.0205248705835,0.0550970284326,0.0327191225752,0.089368077939,0.0855645367988,0.062050059374,-0.0471210193708,-0.0313759938688,0.0100878033823,-0.0318405298151,-0.0576627544399,0.0553955880556,-0.0794145471809,-0.0418393494067,0.0368785649224,0.0717272548132,0.0257266537246,-0.0725025358673,-0.0231749766136,0.0357098179446,-0.0716929764639,-0.0155795136317,-0.0379950635269,0.0920277481096,0.0498661736102,0.0631412116523,-0.0523482731617,0.0265171537334,0.0797486930298,-0.0200067844479,0.0297596890612,0.0184457767321,0.0607569924233,0.0598910334881,0.00986023236206,-0.0221574598304,0.00754307499577,0.0294083043668,-0.0986233630527,0.0115958830645,0.0769934217858,0.0037952762289,0.023978091267,-0.0161906069596,-0.000244194311748,-0.0362356206003,0.0792239423027,0.0478121632851,0.0349272067348,0.01235033013,-0.0511896450668,0.00407574349,0.0471619337571,-0.0590366342965,0.0827795308786,0.0361651332469,0.0919992296929,-0.0922964783538,-0.0262691458414,-0.0338390474277,-0.00518659390863,-0.0425263219251,0.0139002267818,0.0296258064937,0.0461314872318,-0.000836177456569,-0.0844661706788,-0.022394174248,0.0138817550159,-0.0973198769705,-0.0538192749383,-0.0874115884592,-0.0687171451835,0.055765325911,0.0886111148722,-0.026825625031,-0.0269910454798,0.00733778588507,0.047655141773,0.0724938024877,-0.0423111093981,0.0335916767087,0.01891585043,0.0927234714387,0.0644966067574,-0.0764477733865,-0.0425908421585,0.0421114608609,-0.0146492415371,0.0512421040879,-0.0572634871761,-0.0184050838127,0.0383495602248,0.0220142786078,-0.0516965326892,0.0417391795607,0.0842920441054,-0.0274296688688,-0.0574690510069,0.0763435619561,0.0427107774703,0.00341327562502,0.0402795426202,0.0138682060183,0.0698525364832,-0.0953418170929,-0.0754441864087,-0.0604954040872,0.0978386403173,-0.0732428473583,0.0720975319202,-0.0267250244407,-0.0656070571133,-0.0843527348997,0.0612784757831,-0.0854284077224,-0.0697724298498,0.0488103518429,-0.00145709107066,-0.0838738637944,-0.0280902175097,0.0327314673487,-0.0263325800304,0.0617541925461,0.0551726745009,-0.0575992702844,0.0300709137929,0.0750068583156,-0.0387182143047,0.0209320057105,-0.0439559527893,-0.0538872980821,0.0216185205052,-0.0178825501432,0.0576273191254,-0.0120020042506,-0.0103255629973,0.00755752882663,0.0839103038563,0.0609555609654,-0.048825341064,0.0931823326206,0.037609951455,-0.0903496438417,0.0771320636999,-0.0627858575156,0.0707389961827,-0.0740299091639,0.0929607811748,0.0372636505903,0.0342503406228,-0.0459229916743,-0.0529758712196,-0.0817712468969,0.0944161047804,-0.0843062426401,-0.0546150186412,-0.031751280782,0.0976321339996,0.00612868357597,-0.0909755771141,-0.0900244520207,-0.096539540122,0.0338327291114,-0.0284786262794,0.00555750417723,-0.0122503049215,0.0456210299423,0.0822286364944,0.0582038381075,-0.0694175810152,0.00381317882555,0.0298591907237,-0.0493636455096,-0.00361697543532,0.0872026325155,-0.0385955872837,-0.00506282524802,0.00789223633275,0.0221343429369,-0.0700124716529,-0.00649183383037,-0.0228425521944,-0.0479562929615,0.0013226729527,-0.0175204829506,0.0442554438506,0.00929791471272,0.0629746446915,-0.0562193117858,0.0166753899178,-0.0936256887951,-0.0781108809987,-0.0805979976033,-0.0350709257665,0.0191668433266,-0.0749600069627,0.0806698070093,-0.0562759552748,0.0860393683704,-0.0873346305179,0.0388167167538,0.071769592528,-0.0344641702963,-0.0244647667415,-0.0603796235108,0.0462880725094,-0.0567123226364,0.0163630376078,0.0288225060392,0.0422906586601,-0.0328945581339,0.0774456233795,-0.0267127869934,0.0220693593673,-0.0512970874639,0.0721703309055,0.0170981251261,-0.0732974285579,0.0324539306997,0.0734650473312,0.0996549683777,0.0509655739673,0.0481113454973,0.0418925086289,0.0886443888118,0.0501037005642,0.0268095849932,-0.033191029041,0.0831747252427,0.056597314571,-0.0967651230714,0.00275286929462,-0.0248994955592,-0.070135658808,0.0255542022318,0.026883881414,-0.0154251150542,-0.00965578860506,-0.0349180904574,-0.0795642945909,0.0744971212989,-0.072134102347,-0.0822738252159,-0.0591346550459,-0.0950560058154,-0.0778637308249,-0.0498926351296,0.0978906039423,-0.0483933312456,-0.0391070620334,-0.0629046792949,0.0975774469354,0.0151829531057,0.074348399325,-0.0528614291328,0.00758849652756,-0.0735163676577,0.067217368977,0.0105538210541,-0.0254612554359,0.0814768344566,0.0625628408238,0.0122383016755,-0.025839227757,-0.0684149141345,0.0434701768837,-0.0220181448308,-0.0501448326315,0.0919449101961,0.0466150196498,0.00740371502932,-0.0370048123153,0.0563654054819,0.0228422144849,0.031731848787,0.0447529526715,0.0183849100575,-0.0446944710088,0.082316049243,-0.0632945215419,0.03477080985,-0.0274208228543,-0.0607190270386,-0.018132400351,0.0354902710517,0.0118108969695,0.000282162109302,0.0331475306378,0.0320478618927,0.0433831776223,-0.0720603347335,-0.0185319279637,-0.00506178806813,0.0856316089235,0.0113043836518,-0.0525472011006,-0.0119521770622,0.0714937288618,-0.0091704712947,-0.0651329332807,0.0636892209634,0.0198987546156,-0.0350532618806,0.0944950939357,-0.0360006039053,0.0724279509719,-0.0507086255269,-0.0255350395094,-0.0118898517444,-0.048524601077,0.06132100013,-0.0384311600309,0.0409160135498,0.0449877769984,-0.0885664922817,-0.0123236931299,0.0550956707268,0.0534701393041,-0.0956177542823,-0.0734179748835,-0.00301460667793,0.0983413833772,-0.0351641424218,-0.0287319398993,0.042630379691,0.0872971742795,-0.0298538970477,0.0274891673338,0.0356257398436,-0.0997246809411,0.00924992332419,0.0182009882531,0.02791196786,-0.0595024732037,0.0663386356508,0.0150833073072,-0.00554765329834,-0.0760491356506,-0.037781641733,-0.0559448451737,-0.0413341735698,0.0256842425769,-0.0985888823948,0.0966742634911,0.0730196509518,0.0771743812268,-0.0435176499819,0.00387323056048,0.0357985756384,0.0204960014998,0.0154010456022,0.0655327845243,-0.000150281099272,-0.0398570362826,0.00906552835109,0.0827388264207,-0.0773501247222,-0.0591168133234,-0.054332824714,-0.0502517566404,-0.00281156238072,-0.0263095046011,-0.0796940356067,0.0734063699983,0.0648725505539,-0.0942550125658,0.00110633911286,0.0614431906133,0.0505103647708,-0.019037730695,0.0141665164266,-0.0729668773019,-0.0793125060087,0.0325870152741,-0.0548539106258,0.0760250613582,-0.0113225527766,-0.063639413641,0.0724520822247,0.0845605737564,-0.0375069558812,0.0360716992409,-0.0698589782762,0.0258067827438,-0.0633216782951,-0.0232460908307,-0.0745822307409,0.044503110997,-0.0682241677469,0.0790664842131,0.0369490665776,-0.082566543693,-0.0912923332939,-0.0801039952038,-0.0882880289059,0.0435033983522,0.0795144879713,-0.0913233609501,-0.0369895156383,0.0716052806442,0.0942096475767,-9.51964411511e-05,-0.0222169776095,0.0596407063314,-0.0319265716403,0.00907754703187,0.0713658668251,0.00689351471802,-0.0193665264913,0.0435965875911,0.0890066667311,0.0220100054107,-0.044480366477,0.0873685417564,-0.0716059529726,0.0683025863905,0.0793245367841,0.0366465274981,-0.00208172467026,0.0191902845461,0.0398873525642,-0.0255494647697,0.0227307597704,0.0385924933159,-0.0867170663113,-0.0406721748596,0.0995427237037,-0.0891860901517,0.0294013798356,-0.0839786404057,0.0925626868342,0.0748104564605,-0.0163943565678,0.0633521079596,0.0893788623097,0.0906498933004,0.015852112533,-0.0293797617521,0.00836161848988,-0.0445841384975,-0.0750219136204,0.0411150125741,-0.0100415166133,0.03670887214,0.044412726083,-0.083047113032,-0.084331518029,0.0342597332189,-0.0346306225737,0.0979735314608,0.0186785079172,0.0738317757147,0.0776544417213,0.044671026285,0.056218663861,-0.0847657782664,0.0225764194202,-0.00948449402746,-0.0639929747105,-0.0430370834182,0.0287501972274,0.0969729924103,0.0126204409556,0.0736952596988,-0.095280768494,-0.0530825543671,-0.014117428408,-0.0393024684827,0.0201873978492,-0.0150032153796,0.0569089572426,-0.0426123063814,0.0812763272869,-0.0886979051244,0.0235586187055,-0.00235951582854,0.0704622647772,0.0931056204523,-0.0609778262408,0.0805456856638,-0.0650573523749,-0.0489006423811,-0.0221904000172,0.0101477488289,-0.00423310778903,-0.0770614418728,0.0525641978166,0.040744822292,0.0706676593332,-0.038317944507,0.0125482619995,-0.0814101193661,-0.0622381398104,0.0711637128563,0.0927867041824,-0.00857410626957,-0.049805097865,-0.0231841944513,0.0268536287885,0.0667643178825,-0.0693735473,-0.0152516202185,-0.0914578390486,-0.0967634628335,-0.0134674679055,-0.0761669785795,0.048004032388,0.0348336071935,-0.0563637105522,0.0126606091876,-0.0952143110543,-0.0592833863972,0.0302986861315,0.0330231927528,0.075710711961,-0.0431626441793,0.072258638269,-0.0200569495875,-0.0690288531339,-0.0631764090329,-0.0904556061691,0.0832021384967,-0.100098953031,0.067196649613,0.087120544274,-0.0411683782943,0.00496467015367,0.00470418383805,-0.0518423723823,0.0441407018981,0.000502757980552,-0.0611501613432,0.0978301335441,-0.0450705947991,-0.0910107359725,-0.0527165244754,0.0334483813906,0.0503037605226,-0.094189783864,0.0530244919588,0.026328744466,-0.0241993644761,-0.0798788025968,-0.034367869491,0.0284016681799,-0.037372810184,-0.0900822047168,0.0473799857668,0.0406374069477,0.0782132315656,0.0574921956105,0.00114963162436,0.0326308232325,0.025710249329,0.0284591210754,0.069609352776,0.0653050564633,0.02918440973,0.0614651182115,0.0142922547233,0.0288179585076,-0.0495591192162,-0.0861905508485,0.0368169399778,0.0675079893339,0.022953247435,0.04907719461,-0.043123282326,-0.071630787705,-0.0803067773298,0.0869689333408,-0.0120629532964,0.00193412379908,0.00535181527864,-0.0376202473193,-0.0890492585006,0.0691196794538,-0.0927487928291,-0.0991245683903,0.0186016433109,-0.0272211062516,-0.0141360727404,0.076201536581,0.0909923127386,-0.0869718007219,-0.0835972197762,-0.0886141430027,0.0619420323488,0.0892444542921,-0.0885704071737,-0.0204950989174,0.000809863937781,0.0158894954054,0.0615807506665,-0.0484571531239,0.052426914691,-0.0826895910963,-0.075486139333,0.0204780465088,0.000786530012666,-0.0508924116575,0.0218854060819,-0.0193574383313,-0.10042563685,0.0622572378423,0.0766199323566,-0.0205852124484,0.0582745373231,-0.0615426254283,0.0126249732951,-0.0412966752619,-0.0671588698232,-0.00880713784657,-0.0629758044797,0.0583838020929,-0.0343224529251,0.0189547581623,0.0486880342747,0.0344888043326,-0.042629460859,0.0742569354934,-0.0852249562991,0.0991845967028,-0.0720229538953,-0.0936875072947,-0.0298163041497,-0.0761483192252,0.0720806188861,0.02105270242,0.0371458296053,0.0442945930376,0.0793066304023,0.0250196506957,0.0400004079283,0.0452327406116,-0.0255325378902,0.0915236006022,-0.0290155480649,0.0528557200617,-0.0328581751895,0.0738396960988,-0.056363097736,-0.0618904986206,0.0177097383261,-0.0959220202943,0.0233870826214,0.0715388301262,-0.0585602224197,0.0977680720624,-0.0557553153629,-0.100769375004,-0.0456659163098,0.016609452367,0.0596320509104,0.00259455289535,-0.0217493393809,-0.0621530058318,-0.0160263560137,-0.0736654778534,0.0956374820371,0.0329083533352,0.0745608730392,0.0262780929287,-0.0346093881951,-0.0128188817154,-0.066514174168,-0.0491789780295,-0.037126203585,-0.0633247117237,-0.0294151730405,0.09303775767,0.0644237171963,-0.00623756767621,0.0667757184695,0.0981271440989,-0.0416692574351,0.0128746615668,0.0448441770127,0.0172354283198,-0.0732410932368,-0.0952967816335,-0.0675138265197,0.0946243161825,-0.068231014501,0.0578508292757,0.0219378498282,-0.0432138813745,0.0702748580687,0.0333069338466,-0.00554879525142,0.0412181906061,0.0216737802135,-0.00449009107048,-0.0960873708554,0.061258256577,0.0976445645667,0.0673910065809,0.0434060479191,-0.085376766677,-0.0506415475852,0.0336383106184,0.0544463159977,-0.0136038309877,-0.0466778780906,0.0672172181814,0.0688410652717,-0.0137686161792,0.0441732412054,-0.029716588563,-0.0424583702752,0.036719326195,-0.0367095044141,0.0570772160542,-0.00980327279676,-0.0917946701072,-0.0433095656625,-0.0940997437164,0.0693066600552,0.0165716374714,-0.0339371777722,-0.00296686861501,0.0571092591659,0.0600315587254,-0.0686367353835,-0.0262804738236,-0.0766126268912,-0.066665094011,-0.0839998264023,-0.0837233771585,-0.0553515066938,-0.0388771509718,-0.0735074786681,-0.0166210317292,0.0115545272462,-0.0843579591627,-0.097826718347,0.054016344181,-0.0827028565674,-0.0536497475867,0.0888150001313,0.00714898481228,0.028263958294,0.0991836749008,0.0346921877532,-0.0811444899098,0.019749351475,-0.0380721649577,-0.045499756335,-0.0831532507951,0.0958368924274,0.0578475062848,-0.0665662932327,-0.0875264765864,0.00185567479976,-0.0911665244869,-0.0216510359657,-0.0605791395281,0.086352396845,-0.0568817853853,0.0540087693094,-0.04095982903,-0.0803256782695,0.0692410307821,0.0646437471308,-0.0627459705837,-0.0306117102867,-0.0385620406191,0.040399064758,-0.0373927979825,-0.0179034561523,-0.0800618921334,-0.0388302397313,-0.0816809873318,0.0689456502076,0.0150593388404,0.0929747978456,0.06279904138,-0.0167473579123,0.0916467448794,0.0570208648781,-0.0289062303054,0.0188091598698,-0.0833942540635,0.0612091306602,0.0300286630054,0.0407279269247,-0.082476147289,-0.0593810823407,-0.0539470034853,-0.00819863672813,-0.0808836630824,-0.054441905119,-0.0478791712795,-0.0570263179954,-0.0597958746516,-0.0374291107293,-0.050624059699,-0.0304339253005,0.0313889811699,0.0598275312429,-0.0496875224717,0.0180490020397,0.000564961948211,-0.0294104448323,0.027428862345,0.0263445648814,-0.08899383006,-0.0674271437493,-0.0145038415317,-0.0253418837592,0.079711042749,-0.0266391304407,0.055628969738,-0.0802698896513,0.0393457328268,-0.0530497317205,0.0552900390082,-0.0412686413761,-0.0829396993108,-0.0925586623774,-0.0572775119731,0.0690563405891,0.094461844501,-0.0594405837212,-0.0511694443714,-0.00944434772189,-0.0836856855378,0.0298575561778,-0.0156869083327,0.0963286419878,0.0539616597546,0.0076174303679,0.0676196065731,-0.0381972301202,-0.0851415338308,-0.00240712935747,-0.0355475425974,-0.0130506305833,0.0748339272586,0.0902256443777,0.00592852983724,-0.0368939879998,-0.0193169890434,-0.0261873645559,0.0394845883398,-0.0205016039722,0.0836479511436,0.0346492719346,0.0160549547164,0.0967762571379,-0.0821894842136,-0.049264172668,-0.0840888080159,-0.093622198148,0.0875109863183,-0.0649828008256,-0.00977401956381,-0.0357142688151,0.0154891767254,-0.0888283162566,-0.0414423526934,-0.0292912451525,0.0558448160782,-0.0515875024995,0.100475213362,0.0852335071507,-0.0849819899869,-0.0968456682398,-0.0071003817053,0.0887971084755,0.0221881727493,-0.0646147799344,0.000485297502706,-0.081031743696,-0.079279902789,0.0841758931524,-0.0472513933394,0.0321780017231,0.0571300213273,-0.0281319885206,-0.0990140872771,-0.0606724765479,-0.0899449840502,0.0473519989777,-0.0990530959443,-0.0501131962531,-0.0535282993326,0.037152743298,0.0557820074394,-0.0625993722243,0.060401695067,0.00340607903338,0.0239484823259,0.0290588511854,-0.0452907002697,0.002007070097,-0.0871755199514,-0.0964161667549,-0.0559727966802,-0.0509841375524,0.0531553494205,-0.0122907162007,0.0540912385529,-0.0774119528206,0.00620873163625,-0.0575128520805,-0.0993493913416,-0.0153998518146,-0.00665284716617,0.0446725308038,0.0432891834306,-0.0774777405861,-0.075026532954,0.0651005569326,0.0404752090417,-0.0628859404301,0.0846056662001,0.0472914512357,-0.00515138547962,0.0599354786073,0.0553531137098,0.0856458282944,0.0255595238307,-0.094550761027,-0.090938545468,-0.0599493317344,-0.0565632298384,-0.0848265238474,0.0565908370892,0.00192059436851,-0.026311803199,-0.0152602890644,-0.0883769794297,-0.0762341103732,-0.0522534572762,-0.0396149375415,-0.00036463842522,0.0765517981674,0.0158170875076,0.0492639658887,0.00332239869195,-0.0644306631378,-0.0614815850722,0.037995429685,-0.0711569493183,0.0843731290424,-0.0562594488002,-0.0106375678532,0.0337249312538,0.0259167683373,0.0687321361452,0.0964459968948,-0.091560285867,-0.0376198996403,-0.0615346558221,0.0699320331912,0.0287071746374,0.0706117931969,0.0339783394811,0.0156708051288,0.025061618273,0.0393925501463,0.0630673291799,-0.0188804303592,0.0330697570197,-0.0499773138992,0.0512634887546,0.0560797415502,0.0163980736697,0.101356659331,-0.0157328177375,-0.0986718739092,-0.0915754089349,0.0131172657082,0.0742146699721,0.0766985687871,-0.0891953052233,-0.0627088050205,0.0414796245547,0.0520246027488,-0.0897810018526,-0.0113152175437,-0.0427542919164,-0.0682281632827,-0.0290036442914,-0.0797322189418,0.0975928130326,0.0308321623124,-0.0950830984817,-0.0192450631092,0.0545636677733,-0.0487922146739,-0.0913520770163,0.0108496401808,0.0854444451368,-0.0240902131702,0.049012722833,-0.0276169613327,-0.0365260240543,-0.0935636127999,0.050776083838,0.0250916427748,0.0352766433101,0.0790940169877,0.0900750523894,-0.0678779849165,-0.0354742470915,0.0719650505968,-0.0601246793402,-0.0115699123414,0.0641148033022,0.0362742061343,-0.0781349931551,-0.0899008748033,-0.0387647262899,-0.0572726382386,-0.03055869145,-0.0231166893596,-0.0273780582156,0.0568948362214,-0.0629625104614,0.0917971363623,0.0301784777881,-0.0487242981907,0.0342135865575,-0.0873637420593,-0.0435166867204,0.0478737614174,-0.0319841725487,-0.00367410779501,0.00456892755185,0.0587296421406,0.029700204642,0.0274202584874,-0.0884774401028,0.0350464781841,-0.0160513086244,0.0137929849018,0.0536406476095,-0.0733818403826,-0.0927696068652,0.0235211430539,0.0752087835989,-0.0102535816552,-0.0280872274107,-0.0623957079593,-0.0110458109996,0.0814464483836,-0.0654629327666,-0.0663502970089,0.0675082480292,0.069296055511,-0.015542893359,0.0345415826723,-0.000388520656306,-0.0647785161162,-0.00434226003804,-0.000389655550431,0.0965127626459,0.0151266718415,0.0904957437486,0.0534417275068,-0.017128346766,0.0207490197686,-0.0292494729408,-0.0921633921021,0.0798013258678,0.0520434870133,-0.0364140047657,-0.0109284781649,0.0177503379216,-0.00175674521437,0.0738363812964,-0.0715724359561,-0.0137063112071,0.0948767462329,-0.0317938958391,0.0328033989276,0.0906052063022,-0.0982970921087,0.0985350855901,0.020387007346,-0.0264189052769,0.0993205015149,-0.00157734724217,-0.0698112335278,0.0938005477392,-0.0931007174658,0.0215205976047,0.0345521210976,-0.0559900711034,0.00492024716211,0.0194602997245,-0.000209740051538,0.0329407163386,0.049031459776,0.0237931055089,0.00589952752952,-0.0285961002582,0.0820249954943,0.0052248667454,-0.0475433707252,-0.0233563905421,-0.0405001285698,-0.084842754646,-0.000511771807061,-0.0436962326025,0.063216105568,0.0704086293564,0.0718385207246,0.0373991306398,0.0388665915257,0.0426477953437,-0.074652747255,0.0110179796744,-0.046525688636,0.0936207533322,-0.00591280516248,-0.0770634685312,-0.00526117075241,0.0248243311805,0.0368871513299,0.00557958190853,-0.00848459020426,0.0573189307045,0.0882599462391,-0.000876826162509,-0.0135262479395,-0.0652978077901,-0.0760790095613,0.0515070896122,0.0585620737784,-0.0751438229282,-0.00180741002582,-5.42992615269e-05,0.0883387136846,0.0700209177623,-0.0874917981044,0.0122418112766,0.0731861015112,0.0522753625944,-0.0889715665549,0.0608385368173,0.0591514946346,0.0340727275725,-0.0246145410887,-0.0673420308505,0.0845528223992,0.0563070245194,-0.0299450992837,0.00182947904776,-0.0324453922313,-0.0110481461937,0.0107329914599,-0.0386907282636,0.0197200532623,0.0019168187471,0.0948918160312,-0.0271740263958,0.057689390604,-0.00194168692594,0.0430077593614,0.00231492400619,0.00669953593769,-0.0321350510118,-0.0606525587063,0.0408132990738,0.0280791683364,-0.0275797643634,0.0478499220261,-0.0228659271353,-0.0127859343363,-0.0993564158163,-0.0643012081117,0.0551396159622,0.00710297010064,-0.00261512363477,0.0151374726913,0.0235051124705,0.0416107217482,0.0127895946449,-0.0423316633231,0.0359674845321,0.0797823701045,0.0520511211469,0.0551484055603,-0.00237618128591,0.0770398911763,0.000997321494278,-0.00855423350803,-0.00463968533536,-0.0313758897625,0.00985408032917,-0.0667254580072,0.045299099853,0.00297988070285,-0.0620553054216,0.0475844700651,0.062473444235,0.0120279485154,0.0583864790548,-0.091874153833,-0.0760317545928,0.0877145824637,0.0603403093458,0.00890066648261,-0.0536021525728,-0.0726643488207,-0.00144429593527,-0.020041469048,-0.0706173968779,0.0224553507787,-0.0943406420596,-0.0481382402412,-0.0704664621267,0.0293938282175,0.0766238777268,0.0313173889595,-0.0134121149727,-0.0295316117766,-0.0901993154041,-0.0960469644705,-0.00144321599825,-0.0799223199221,0.0972011295993,0.0580201787286,-0.0186165025445,0.0588960177404,0.0728706555896,0.0668731063639,0.0373497099197,-0.00474779485978,-0.0888424853949,-0.0663331314891,0.0725134585349,-0.0983270561486,-0.0941783127702,0.0487696546907,-0.0504242218972,-0.0712906934392,-0.0861918498261,0.0775214841115,0.0297546751408,0.0887078924207,-0.0524147315205,0.0486745285667,0.0545138273315,0.0494119074952,0.0786825794672,0.00711198821895,0.0164318706162,-0.00354070979893,-0.0100774723573,0.011955955916,0.0651166887292,0.00953984074477,0.0251531312868,0.0680542694314,-0.0538372970551,-0.0431208747567,-0.0793531196517,-0.0472081330254,0.086166895993,-0.0782324584532,-0.0819187461634,0.0582188774146,0.0494710408389,-0.0814340013971,-0.0532084179254,0.0599526874956,0.034811332969,0.0743667717412,-0.0171958931277,0.0594568267623,0.0516597315186,-0.0757772054054,-0.0476785641316,0.0246174118948,0.08304023205,0.0351011881687,0.044237565239,-0.0616291829082,0.0918608793982,0.0355016055888,-0.0798218999612,-0.0988744766565,-0.0968537756036,-0.0944740314478,-0.0925571842892,0.0393366790941,0.0639804867398,-0.035384715472,0.0734687429628,0.00904155835633,-0.0745025211681,0.017911830854,0.0349633378432,0.0973912196266,0.0848125340517,-0.0661976619187,-0.0631397863964,0.0570348985246,-0.0711633429079,0.0757690700902,-0.080711518877,0.064157129513,0.0226243709354,0.0883119707102,-0.0863187501197,-0.0781641293574,-0.0676080557139,0.0138160090544,0.00497732957298,-0.0639228337234,-0.0988611447897,0.0648305544061,0.00620358125674,-0.0198647710985,0.0241393838822,-0.0923385274468,0.0626600530225,-0.00279829865203,-0.0533049715133,-0.00615275740188,-0.0789878798846,0.0412307825509,-0.0435182690256,-0.0296721327092,0.028227080776,-0.0781416636903,0.000389041152846,-0.0977007129455,0.0548494619127,-0.0612808046207,0.0933908557809,-0.0221216220196,-0.0817954202352,-0.036854734482,-0.0967789276144,0.0295381631228,0.0907610115319,-0.0118812583953,-0.0861659457659,0.0870358582171,0.0535483880724,0.0681250249346,-0.0807249503652,0.0339001732795,0.0537755766782,-0.0987364666125,-0.0568409226562,0.0854446042116,0.0824994354801,0.0597958263321,0.0594478485675,-0.0983082359753,0.0346286573272,0.0983140095594,0.0564231642552,-0.0137509431191,0.095797074357,-0.0796779207667,-0.015129371647,0.0960464466628,-0.047796025609,-0.0914434368217,0.0224101969032,-0.0981001046008,0.0598583942011,-0.0659359929244,-0.0892931189523,0.0572721193008,0.0193157454693,-0.0905702234452,-0.0954494450498,0.0282214401335,-0.0959450726776,-0.069927582582,-0.0117202152341,0.0905508827342,-0.0294587173578,-0.0460881631072,-0.0207576444592,-0.0103878153388,-0.0246490358438,0.0483380903259,0.0082079737334,0.0319734774899,-0.0222040142678,0.0907809145189,-0.00353450876901,-0.00751622871388,-0.0838176469813,0.03544416008,-0.00274963117674,0.000560635169805,0.0637939073408,-0.0368838630295,0.073417412878,-0.0460441596825,-0.00984330417357,-0.055320991295,-0.0140563315393,-0.0937120997024,-0.0428093761161,-0.0527585410038,-0.0504786279068,0.0335305729506,0.0690917552068,-0.0564347457049,0.0404996560854,-0.0714276608187,-0.0652718991115,0.00806123116691,0.0291445831182,0.0703176350258,0.0807154274946,-0.0850606985528,0.00407075938315,0.067265337103,0.0479393545196,-0.0589168501783,0.0334600059028,-0.0342908959733,0.0356229136446,0.0508376901172,-0.0438245860505,-0.0862901538982,-0.0969192192784,0.00118028733968,0.0662179716726,0.06759907675,-0.0522108311838,0.0777100105619,0.0164009422912,0.0305202139417,-0.0270856723507,0.0643075846309,0.0603858674906,-0.0629543992631,0.0654452847074,0.0652414831388,0.052909207694,0.0672818893619,0.0645673137208,-0.0147609635773,-0.00894744841787,0.0390365346872,-1.70708296696e-05,-0.00757406877752,0.028927752957,-0.0442931365182,0.0205359746307,-0.071000001641,-0.0837295352185,0.0977323573103,0.0466434192963,0.00740970541212,0.0594223983906,-0.0812247148143,-0.0279085641334,0.0300540704146,-0.0270124620414,0.093894750587,-0.0154113665835,0.00236613356673,0.0228434374018,0.0101626256108,0.0922700452309,-0.04874781421,-0.0837044817661,-0.0448739582915,-0.0680796865005,-0.0300544536649,0.0872043508091,0.0225186808411,-0.0391398275602,-0.0932308559502,-0.0463302024599,-0.00939427415306,0.0754564051703,-0.0444579094155,0.0976552526577,-0.0765723596361,0.0796602255069,0.0259568196897,-0.086021949502,0.0896798489968,0.0147602619636,-0.0747869626907,0.0824448439951,0.0540798785072,0.0177083765161,-0.0595892691845,-0.0350581995023,0.0327309443008,-0.0297299472836,0.0609233008007,0.0630817768309,0.0648355755438,0.0925694975662,-0.0875290081484,-0.0594486438527,0.0818039028064,0.0100706470767,0.0764929917823,0.0263980028953,-0.0679272858932,-0.0966931817334,-0.0128762192237,-0.0159985597794,0.0491915125025,-0.0648954764154,0.0418370684853,-0.0837406793062,-0.0714517018354,0.0692689266814,-0.0754763597084,-0.0652673085374,-0.0523191240077,-0.063520279978,0.0694188666389,0.0563122463747,-0.0564355428669,-0.0212501239395,-0.0470169594976,0.0471298855161,-0.0340785073798,0.0788206766496,0.015010387101,0.0848811124059,0.0281375866028,-0.0641323485874,-0.087930303117,0.00656713304575,0.0494523112052,0.0977550918381,0.00454385991708,0.0390359145855,-0.0562750036867,-0.0150531053558,0.0259081195725,-0.0308435445472,-0.0338486887934,0.0792229188296,0.0499098361471,-0.0117987490532,0.0878563343427,0.0833671997523,0.0326828258386,0.0529511371261,0.0275380200737,-0.0110907941975,-0.0347718077474,0.0433517566753,-0.0989352862051,-0.0556361915309,0.0816293088753,-0.0587795365481,-0.0301470729465,-0.0927001733742,0.0769873843939,-0.0256971649634,-0.0493201520697,0.0699836581116,0.0118652153753,-0.046162856597,0.00489326608135,-0.057139989434,0.0508467533981,0.0505765791348,-0.0106130708239,0.0624404347888,0.00425885306193,-0.0357146838077,-0.0702727731714,0.100258075643,-0.0690574440467,-0.0647050134651,-0.0125622594056,-0.0767480610066,-0.0736332843973,-0.048510896625,0.0669929720324,-0.0519040499197,-0.0827605806977,-0.0506855789722,0.0969891750463,0.0924218389027,-0.0421620552374,-0.042520676775,0.0770321649603,0.0870416761313,-0.0871551723052,-0.0424081177818,-0.0400691867152,-0.0713167487183,0.0046873193247,0.044642548699,-0.0170810485004,0.0133465898445,0.0582403478372,0.0224675789266,0.0293219012964,-0.0365151223143,-0.0472082204442,-0.0475735241502,-0.0594907543744,-0.0431257906597,0.0602443664014,0.0149054215479,-0.0163317134935,0.0563442344826,0.071435160751,0.0766481818176,0.0575632019956,0.0966014218054,-0.00969087145246,0.0372052291244,0.00412949476136,-0.0385109634267,-0.0975982255804,0.063625080739,0.0677853013727,0.0955049443636,-0.0198642856228,0.0395015067436,-0.00750699420938,-0.00837936727239,-0.0600080267406,-0.0658729574413,0.0136033638695,0.0437784226918,-0.0415228359527,-0.0311603345049,0.0307550534731,0.0564925738843,0.0866091091955,-0.00399359582465,0.0709027494336,0.0242262169521,-0.0330250641359,-0.00680118427385,0.0633970278486,0.0396345614771,0.0151677311794,-0.0405082784306,0.00502948668658,-0.0340553172084,0.0670352454111,-0.0524971294487,0.0644730691662,-0.0253567515267,0.00186863957257,-0.00697186840904,-0.0287673851557,-0.0197755539629,0.0929439966715,0.0755211399723,0.0194889449486,0.0542026526412,0.0363030334051,0.018468444247,-0.0918636181375,0.03858753557,0.0525747495159,0.0656651827453,-0.0324372518007,-0.025933909985,-0.0740702402062,-0.0220396690466,0.0311429074306,-0.0744160132885,0.0428295071319,0.0194822430773,-0.0454029826939,-0.0883256016735,0.0359490979486,-0.0911777564826,0.0631060374753,0.0927903731191,0.0496012596642,-0.049119445289,0.00913892637808,-0.0285117819641,-0.0021652395472,0.066293961519,0.0647134637528,-0.00105006846609,0.0797708376169,0.0191838835554,-0.0509009596839,-0.028566546881,0.0288455859336,0.0929783898185,-0.0462528384678,-0.0633113070466,-0.0875325454588,-0.00552336979209,-0.0299450853592,0.0496387327496,-0.0150035220692,-0.0536646876611,-0.0397431597308,0.0515255497057,-0.0724111830933,0.0605153553592,-0.0297916596307,-0.0719940498847,0.0932388148435,-0.0765605966499,0.0435031439181,-0.061883313729,-0.0637207881671,-0.0484941346556,-0.0675319116792,0.0219985093013,0.0722556732968,0.0551628700525,-0.0457465383745,0.0107834869799,-0.0744337822359,-0.0488081312354,0.0401424711244,-0.0492341787943,0.0209073270539,-0.00996377587725,-0.0243923664544,0.0794857610306,0.0568967613032,0.00210215009118,-0.017401998657,-0.0402028007171,0.0903054544035,0.0957439725717,-0.0434946543692,-0.0807582092593,-0.0725838717813,-0.0512881591828,-0.00956846666232,0.0667110712623,0.0679587619242,-0.0794518512199,0.0109524171392,0.0719729806218,-0.0323919727249,-0.0357604273864,-0.0604620146454,-0.0305804622173,-0.094661168299,-0.0325407094586,0.0958081201445,0.0349104084811,0.043546786677,0.0446229561136,-0.076331705903,-0.0758606156106,-0.0591290650334,0.0664418569562,0.0621417913693,-0.0365881892143,0.0791092501585,0.0336608434165,-0.099431674156,-0.0881653602333,-0.0907421849289,-0.0882039732019,-0.097106558829,-0.0645107346231,0.0620012147066,0.0540980320288,-0.0876729366292,-4.45270343845e-05,0.0247674986065,0.0399443838225,0.0181095915914,-0.0754586190694,0.0691768841328,-0.0814048679418,0.0602933330052,-0.0963734400094,-0.0360591636412,0.0682805518758,-0.043079280972,0.0327570998261,-0.0423144052277,0.00684257682509,0.0579088155993,-0.0201936987897,0.0189049834778,0.0204068988909,0.0300166489651,-0.0193675901482,0.0612277384564,0.0827890580008,0.0720308957986,0.0684026316932,-0.012901235007,0.0703230909823,-0.0346212509437,-0.0157753179378,0.0584394598418,0.0525348702267,-0.0804629957121,0.0191274630108,-0.0127722981908,0.0741992163199,-0.098264386515,-0.0943426812981,0.0520453849033,0.0435688881989,0.0261434291412,0.0677956164503,0.0261958940665,-0.0726508814104,-0.0166414781967,0.095426872212,-0.0249725496027,-0.00517829366301,-0.0163992122054,0.0878271009483,0.0617094106433,0.0750508412108,0.0580235667909,-0.0228875494805,-0.0443816643967,0.00572472667508,-0.0802109702376,0.0469708017426,-0.0419335317051,0.00101424081288,0.0972083718069,0.0904086932024,-0.02176179445,-0.0893181338828,0.0228582606642,0.0688684413626,0.0046429094883,-0.0356527623479,-0.0987055712357,0.0918614442261,-0.0690977399169,-0.0579007960919,-0.075573315097,-0.0344212456515,0.029104854786,-0.0232408056059,0.0729833410601,-0.0664876829175,0.0827942111408,0.0560563392166,-0.0924739112283,-0.0282040686968,0.0848467719771,-0.0452705421129,0.0376837298214,-0.0721738546217,0.0942769667726,0.00130687991085,0.0637706961656,-0.0744239831153,-0.0315181058032,-0.097687089379,-0.0862526288459,-0.0308292921798,-0.0276988795764,0.0158384582123,0.0228988899101,0.0235977694693,-0.00454858729777,-0.0218643013149,-0.0418980792874,0.0781779868301,0.0808365195622,0.0236277753854,-0.018669563239,0.035659956075,-0.0486879020165,0.00343331371675,0.0323199304195,-0.0485173974554,0.03494986066,-0.0293117138143,-0.0799029914503,0.0717051918836,-0.0258800856925,0.0751470726315,-0.018516889203,-0.0789405469199,-0.013243850459,-0.0664671038368,-0.087192595358,-0.0962309604839,0.0399299802503,-0.0174210861154,0.0937639029215,-0.0872745269596,0.0569873289878,-0.0746780132472,0.0307379420828,-0.0470334181395,0.0820478750831,0.0988112357814,0.0916491579704,0.0927148761972,-0.0110710831827,-0.0496674040983,-0.0630464710264,0.093868941958,0.068493210454,0.0238819483007,-0.0348384491495,-0.0708219292932,0.0152221441201,0.0408213112653,-0.0670397838787,-0.0545929634789,-0.0845944811686,0.0176719031651,-0.0583183262475,0.0933949571849,0.0497023297555,0.0255110861689,-0.0262751508016,-0.0590366265635,0.0584877715851,-0.0706855526385,-0.0329543193039,-0.0692167720911,-0.0281257748544,-0.0278634334167,-0.036960510137,-0.0943719532919,0.0240131333219,-0.0301827053597,-0.0485987336935,-0.0741574375424,0.0315744808898,0.0318203942045,0.0105726106706,-0.0600973837094,-0.0817279258057,-0.0883605122749,0.043007393658,-0.0520054395025,0.0641178898332,-0.0763281555492,0.068147019296,0.0620565503951,-0.074916910736,0.0946515135099,0.0580117318084,0.0156854535182,-0.0911302285594,0.0572329400754,-0.0674992512854,-0.0649864409959,0.00339329850968,-0.0705204364863,-0.0291119442386,-0.0192228727197,-0.0670331073598,0.0969027001597,0.0788536740138,0.0330996534947,-0.0890138984301,-0.0714887140287,-0.0835681725052,0.0571904948245,-0.0498062012245,0.029740880854,0.0910721215575,-0.0167627134124,-0.0438864814919,-0.0788537401112,-0.0842817264289,0.0426839866622,-0.0809483330409,0.0826628409144,0.0962306453589,-0.022469496479,0.0239001458515,7.19029688383e-05,0.0886451536884,-0.036110196974,0.078466333108,-0.0142823534623,-0.0875481293261,0.0910508548973,-0.0176295821013,0.00839213260445,0.0853103819192,6.45846823588e-06,0.0290296426168,-0.0184644729731,0.0384641646574,-0.0356521106595,-0.0780070282224,-0.0335802038057,0.0712030529433,-0.0257360914291,0.0478052624074,-0.00192986154364,0.0791320604036,-0.0247940278096,0.0618852180922,0.0117151845025,0.0533155205706,0.0485005320143,-0.00490541826946,-0.00835678475923,0.0819639033849,-0.0742396698824,0.0466077005771,0.097168324967,0.00149521030119,0.00883977523757,0.0177294663105,0.00745388781423,-0.0874991387253,-0.0158457946594,-0.0629128083074,0.0730790490003,-0.0117925320406,-0.0868062993948,0.0171803934158,0.0632436561773,-0.0117010299678,-0.0886558027548,0.0222286264888,-0.0556269087015,-0.0182957421291,-0.0832927423244,-0.0587549199651,0.0752826459016,-0.0407699419667,0.0217046676257,0.0895568175337,-0.0761002688509,0.00812682588752,0.0543711019128,0.0368228491517,0.0986645314577,0.00651383023918,0.00855486633398,0.0170049696247,-0.0575008160934,0.0652788616355,-0.00128369121614,0.0247150206648,0.0677126328843,-0.0116605354297,-0.0139888970784,-0.00590770635818,-0.0152154218616,0.0501830265584,-0.00993712744792,0.0409872807393,-0.00433905942495,0.00405388488058,0.0765774311532,-0.0448550138431,0.0515740633711,0.0544505441976,-0.0971491367758,0.0341295512877,0.0866084933962,-0.0168262955719,-0.0417750361293,0.0677168212301,-0.089774409744,0.0634819271929,0.0142334971025,-0.0198927787288,0.0121957855089,0.0677631034703,0.0204701552827,-0.0838144388527,0.0958418783946,0.0171602941749,0.0384090899415,-0.0802144123366,0.0474261800079,0.0419987750188,0.0222603654518,0.0952874554379,-0.016368703579,-0.0540722871887,-0.0570704338229,-0.0850280564619,-0.0681321376044,-0.0246041112416,-0.0845428157273,0.0273275643382,-0.0991077759269,-0.0915846395886,0.0847442564619,-0.0400400309184,-0.0748444530046,0.0382273274087,0.0913538711782,-0.0198390679851,0.00107519929128,-0.0713415843919,0.0386438626487,0.0952206517315,-0.0495695901858,0.0401091776912,0.0977279140336,0.0362291334368,0.0682790372988,0.0441244564137,-0.011153649994,0.0814196872677,-0.0883434341813,-0.0397164710285,0.0969241033085,-0.00456572659436,-0.0755959868982,0.000920846366209,-0.0387339412957,0.0598335518076,0.0357848865011,0.0229317946134,0.04636055379,0.0738850258136,-0.0191243108456,0.0373470087822,0.0557780148094,-0.0560962538012,-0.0370582149912,0.0910758129743,0.00422277950256,-0.0588123273815,-0.0070594398907,0.0954893156694,-0.0662317802132,0.0864905993126,-0.0065644050008,0.0275602357543,-0.0872642008507,-0.0652894166892,0.0160518901057,0.0160763608193,0.0719403765119,-0.0924688642532,0.0481757373597,0.000271745059349,0.0556830960619,0.0365747842836,0.0608501527088,-0.088198742626,0.0686663740126,0.0142801093658,0.0547809214425,0.0214540521059,0.039519159619,0.0258795420559,-0.0713298150993,0.00486922140011,0.043459824996,0.0606126849563,-0.0933778934367,0.0832308100796,0.0278349787408,-0.029394770137,-0.0217850560593,-0.0645277867892,0.0658635723714,0.056736635908,-0.0214095007095,-0.000879942938298,0.080210031628,-0.0938115418244,0.00411108691923,0.0636906553788,0.0172627382711,-0.0967393302204,0.0764895769296,0.0141679134614,-0.0407148900703,0.0842246125285,-0.0199390710464,0.0435132146339,0.0458846933687,0.0317269097045,0.0889033283661,0.0154863581911,-0.0729784163628,0.0204630055083,0.0319540972124,-0.0741860195131,0.0409659714754,-0.0388085257402,-0.0854300917682,0.0673858866831,-0.0574634542221,0.0181129152302,-0.0575095893866,-0.0846115896143,-0.0893379303101,-0.0286316276524,-0.0543226308561,0.0821656181456,-0.0279886321027,0.0380989186146,0.00747511122427,0.0429041990755,-0.00535465392235,-0.0532377885773,0.0505641346747,-0.0277797829606,0.0796379656204,0.076006041672,0.0294939535818,-0.0454666540389,0.067031964017,-0.0671934195451,0.0659679886341,0.0140539021064,0.0163257991806,-0.0279588390993,-0.0462950601505,-0.0853511371481,-0.000687912068012,0.06149424625,0.0301446528153,-0.0969884695065,0.00620301652586,-0.0815382388632,0.0185859573055,-0.078668309224,-0.0401077802673,0.00763905751343,0.094703202558,0.0907507237691,-0.0143593995057,-0.0111200067032,0.0674733886602,0.0757879790397,-0.00260209595854,-0.0325822450791,0.0221133898624,0.00232113252801,0.00362812578937,-0.0684597422977,0.0832151484524,0.0416394536459,-0.0788679318285,-0.0760814417377,0.078613470755,-0.0201739487175,-0.0106637926933,-0.0221511585431,-0.0948377557774,0.0912640094039,-0.0736645248128,-0.0618129099859,-0.0390979182449,-0.0818808591567,-0.0520820805019,0.0838619146057,-0.0664959447812,-0.0867926315506,-0.083410581149,0.0916279051744,-0.0947848192062,-0.0901921441775,0.0162709753721,0.0224126520249,-0.0819544792962,-0.0512383145604,-0.0427873467182,0.085583088671,0.0543184318955,-0.0811664350428,0.0203882382746,0.0268593007798,0.0824150686849,0.0119127051611,0.0132881294688,0.0204739272427,0.0354404802145,0.0702059715924,-0.0719073754072,-0.0104099797032,0.0434059681359,0.0464101289063,0.0538674001905,-0.0698215444881,0.0438253482989,-0.0288576479917,0.0123345099368,0.0524624806989,-0.0386748729589,0.0707776442474,-0.0444609786108,0.0976365528727,-0.0935552681992,0.049446009336,-0.07354927801,-0.0555565875636,-0.0540215179156,-0.0454606523142,0.0680147284054,-0.0960114640389,-0.0336955733538,-0.0178720730204,0.0582434458793,-0.067042626027,-0.0370421926604,-0.0621309594617,0.0823500391172,-0.0932006358238,-0.02644376388,0.0373960992334,-0.0799082871917,-0.0586882137502,0.00457808761093,-0.0186214564399,-0.077472737373,0.0264039451422,0.0441921200448,-0.0471437731914,-0.0450115962771,0.0851484236286,-0.0257940421278,0.0765558184654,-0.0916157832871,-0.000485250866996,-0.0885611115955,-0.0830254586003,0.0419349526782,-0.0723241959634,-0.0132757125894,-0.0454723230558,0.0375856798311,0.0690502630994,0.0204291366933,-0.0815829947726,0.0487640460724,0.0988779017893,0.00706137046053,0.031131353263,0.00814829264529,-0.0888418509069,0.0774589589199,0.0486984809198,0.0886114667771,0.0265669822102,-0.0524012403696,0.00843106261539,-0.0402381106783,0.00883127078534,-0.0186366269891,-0.07383702686,-0.0569004934844,-0.0949359969168,-0.0708436225354,-0.0563056240177,0.0662520382746,-0.0763778699045,-0.0274665020296,-0.0658020088466,0.0121427805121,0.0252447552857,-0.0981023669686,0.0637748485104,-0.0613497913804,0.054461506032,-0.0259275525684,-0.0550323531295,-0.0485178128888,0.030817771888,-0.079113731382,0.0562849959436,-0.00248423250877,0.0672129643906,-0.0342775757255,0.0465946722862,0.0055545499002,-0.0425258046189,0.0294447558197,0.0346763897843,0.0591622495625,0.0306270552709,-0.0230343482696,-0.0733697106763,0.0258735816573,-0.0315703636019,-0.0207609488103,-0.0548156449708,0.0126636248431,-0.0742901657039,-0.0224962427569,0.0651524922,-0.0595748507013,0.0538351391902,-0.0105406421216,-0.0641958835127,-0.0602434720814,-0.0931110281835,-0.00399114783,-0.0791659136666,0.0873848511597,-0.0238371472773,-0.0127166793506,-0.0367312264568,0.0361617626468,0.0225621231091,-0.0266919268375,-0.0434339156632,0.0908318587113,-0.0218593362385,0.0342659897145,0.007144970711,0.0525007847402,0.0383539620162,0.0265345101206,0.0933707225612,0.0652072786764,-0.0742007338818,-0.0200379202141,0.0314447092321,0.0632977679236,0.0743855625105,0.0803347383251,0.0760557339878,-0.035281098835,0.0258109600291,0.0385256445496,-0.0302476159749,0.0403143814576,0.014012399983,-0.0358139806273,-0.0479180757265,0.0132880178253,-0.0176803759515,-0.0739926129095,0.0223861124995,-0.0672017439676,0.0415277799757,0.0382140973198,0.0781442701167,0.00112264457126,0.0319245794557,-0.0965007510072,-0.0413066952045,-0.0906238148604,0.00473066878354,0.074295471424,-0.0103534666931,-0.0227617734022,0.0197855909175,-0.00359046986767,0.060463424641,0.0844678264769,0.00235892406584,0.0264338187621,0.0793557309422,-0.012478354701,0.00314018376023,0.0401390932464,-0.0234114191677,0.0184450998486,-0.049803172744,-0.0367006039754,-0.0885696188711,-0.00860270811299,0.0630122205814,-0.0974258969764,0.0335640092802,-0.0359834788365,-0.0862746528732,-0.0262144383063,-0.0990390989475,-0.0665995652749,0.0288740306211,-0.0540002950291,0.0706301850445,-0.0890174830851,-0.0136162266743,0.0414155912441,-0.0531938144407,0.0529337513773,-0.0318174640543,-0.0702539637882,0.0168761750981,-0.0279990583295,-0.0203023005654,0.0885584398836,-0.0276046240781,0.0764552632208,-0.0810534275177,-0.00369739006575,0.0239205194605,-0.080675715487,-0.0776094508519,-0.00451920119611,0.0878196798952,-0.0759765599949,0.0762067032554,-0.0691067165824,0.0369835824171,-0.0988303718082,0.0273736056859,0.00586264142876,0.0011959179398,0.0949569431875,0.0890949031734,-0.0181752423959,-0.00999256193586,0.0744624185037,0.0276537746095,0.0087283599385,-0.0266715714527,-0.0110268198922,0.055131098186,-0.0928270349315,0.0547992496472,-0.0679736787904,-0.0289914353537,-0.033436283403,-0.0828171018045,0.0945511753648,-0.0818782875971,0.0971266915887,0.0304801927796,-0.0982330858642,0.0574043931072,0.0830490824131,0.0810269181853,-0.00128781270758,0.0939767813356,-0.0229074743065,-0.0445724731472,0.061791167048,0.0222410470644,-0.0635575456257,-0.0706583962785,-0.0886891412382,0.0792938439206,-0.0225685840349,-0.0292522741789,0.0351021292677,0.0415178122114,0.0831354054756,-0.0985344888688,0.0027577665569,0.0784743801199,-0.0653645263363,0.0558036599993,-0.00274293195143,0.0925935019026,-0.083151682026,0.0603141014016,0.0689260861192,0.054225557763,0.0342806798123,0.00106085453039,-0.0500010918492,0.0922744858255,-0.073221800209,0.03458269269,-0.00340180638541,0.013739900453,-0.00974064362421,-0.0691675581967,-0.0592138918433,-0.0808244581184,0.0891882421684,-0.0167559756793,0.0236623917003,-0.0265539943334,0.0960732955046,0.0221354652254,0.0545354758659,0.0803607114811,-0.0578488460138,-0.0563206833277,0.0317175432196,-0.0973284577321,-0.0758653091549,-0.0079397862068,0.0871253222801,0.0386479476326,0.0543929940688,-0.0824025496085,-0.0545429337445,-0.0543811751752,-0.0506636776832,0.0361008133201,0.0427964047794,-0.0736228181792,-0.0868065752512,-0.0215446374324,0.0399942791078,-0.0942469217753,0.0114585399208,0.086104052971,0.00733104477801,-0.033523218578,-0.0971969799778,0.0646483119448,0.0878730421102,0.0212242300276,0.0562548147085,-0.0799505683841,-0.021893468301,-0.0210698127608,-0.0147362771043,0.0717534931462,0.0989212509959,-0.0730427717715,-0.0117501321781,-0.000566046496278,0.0529092068705,-0.0165362189483,0.049262877601,0.0849537580385,-0.0814538188444,0.0949891269216,-0.0940144496634,0.0525063146725,0.0206793646276,0.0382379801385,-0.0638005422463,0.0299756200865,-0.0771927971689,0.0747105299923,0.0573259711621,-0.0999147051254,-0.0502127605721,-0.0340475491013,-0.0552859546983,-0.0258191060006,-0.0812602732198,-0.0626199333137,0.00929008486481,-0.097635246723,0.0059575820558,0.020908632747,0.0720404938776,0.0795028774502,-0.0573810280293,0.0155421457515,-0.0849350261972,-0.0625514336757,-0.0154711084132,0.0369175085309,-0.0493793579547,-0.0835298996443,-0.0475820839636,-0.0975631070813,-0.0971044145147,-0.036258073599,0.0369139633812,0.0192236647039,0.0927605416264,-0.0887552068233,-0.0398114164147,-0.0329645605664,0.0755576385207,0.0128191584567,0.0221550740233,0.00998575580835,0.0212350060814,-0.0316617321831,-0.053498005189,-0.0492686834457,-0.0438107163192,0.0370651376086,-0.0599720325942,0.0509794893023,0.0935658643104,0.0119661103278,0.0199948422631,0.0401081997143,-0.0988451301134,0.092528896652,0.0622015646471,-0.0275361109838,-0.0554640478566,-0.0875487283081,0.0168152033709,-0.0564165179474,-0.0156269044317,-0.098333403682,0.0705042334846,0.0641367436246,0.0106010548815,-0.0351926199731,0.0916421108018,0.0227559251549,-0.0550541944216,0.0415844877768,-0.00912684293845,-0.00582823987955,-0.0340584080677,-0.0320253036755,0.0563087367435,-0.0301100388747,-0.0330323126626,0.0673148686347,-0.0148353822007,-0.0508393642853,-0.0741928351387,-0.0549558853549,-0.0686053859622,-0.0581476772615,0.053258341649,0.00856630053966,-0.0546617016859,-0.0177735212286,-0.00432651046207,0.0457832354947,0.0415114598981,0.0823721399735,0.0979998087232,-0.0533320904017,-0.0768008268099,-0.0487307429078,-0.0268332526282,0.00994885539358,0.0257704090708,-0.0834638432428,0.0763182314407,0.0956875123573,0.0320423936854,0.0279382069133,0.0540759915076,-0.0976426310622,0.00210723988034,0.044255977862,0.046435471184,-0.068887309813,0.0341478288588,0.00645963967768,0.0857975895591,-0.0401349668422,-0.0830093302922,0.0418460571866,-0.096248149364,-0.0516608781854,-0.0933233945121,-0.0446211607315,-0.0827570197178,-0.0741398493284,-0.000593668344316,-0.0280323243,0.0426777564755,0.066243493364,-0.0641755572196,-0.0841767422772,-0.0783855165637,0.0110514345496,0.0506299118398,-0.0819769190592,0.0278706827034,0.0904947780083,0.0950293088377,0.0832913177711,-0.0536155721772,-0.0740705244663,0.0865115509414,0.0153425790847,-0.0515297371221,-0.023592696156,0.00171446074612,-0.0871979334909,-0.0630842732814,-0.0669374942881,-0.00947605036308,-0.0212094822215,-0.0979414483603,-0.060181130989,0.0273138256982,-0.0981062947254,0.0307121521311,-0.0985264346214,0.0979653869983,-0.0696986997007,0.0318722028686,-0.00933408833868,-0.0254945443251,-0.0914805723755,-0.0375192700372,0.0435772612133,-0.0680976711754,-0.0691185631631,0.0168922153675,0.0591370729154,0.09182217292,0.0619086743223,0.0876806168222,0.0094188008674,0.00372256457686,-0.0427099989966,-0.0489177947839,0.00392726752851,0.0345410352712,0.0617361304622,0.00410880984872,-0.0770206955241,0.0277755413643,0.0818557018696,0.0307551756357,0.0927447763619,0.0039637576867,0.0807948463974,-0.099109833929,0.0915667039623,0.0346789577389,-0.076647104006,0.0708535251478,-0.0379475605871,0.00272849320103,0.021564508214,0.0868594746895,0.000896435099568,0.02903963086,-0.0111310776845,-0.0276347084981,0.067752005229,-0.0506463604203,-0.0125056163875,0.0970020147433,0.082618368407,-0.0907050014325,0.0494786291091,0.0684606742041,0.0902363111067,-0.0705274973873,0.0708159497753,0.0298666545188,-0.0885618549852,-0.0377769564797,-0.0736438777243,0.0556252885913,-0.0696575024622,0.014396777487,-0.0209075669579,0.0623007855099,0.0455954436693,-0.0477114359753,-0.0537317684696,-0.0672852264618,0.0160703327523,0.0304509159497,-0.0285191179076,-0.00559285204785,0.0854298095481,0.0209882770991,0.03840201777,0.0803778816398,-0.0107101399691,0.0999218756111,-0.054467472583,-0.0615913143177,0.0282721386811,-0.0954949633007,-0.00200713464233,-0.0742261315184,-0.0180543057303,-0.0495105588003,0.0890950616883,0.0765864693708,-0.0117853994149,-0.094404029159,-0.0919500545984,0.04259872896,0.0745751561568,0.0169075925142,-0.0679267748953,0.0787606397418,-0.0311079632594,-0.0937430055565,0.0242660629146,0.0565819767381,0.0464188090221,-0.0359233373566,0.0350730412711,-0.0166678017291,-0.086549150393,0.088895122619,-0.0624955939175,0.0455963750124,-0.0774010460298,0.076744158947,-0.0360264691994,0.0152669525531,-0.0993186671085,0.00467975201433,0.0673509561615,0.0986883868907,0.0394353346998,0.0183164855702,-0.0389605801068,0.0958589823249,-0.10074126321,0.0880766594737,0.0896783785516,-0.00804762689879,-0.00485622353675,-0.053352098465,0.00304355618883,-0.0251043759315,-0.0625671255748,0.0198748405082,0.044972844583,-0.0476484666543,0.00248786148551,-0.0904689985972,0.00935085453371,-0.035148981811,-0.000203119664676,0.0508879043687,0.0466452139327,0.080836642637,0.0410743326587,-0.0629490616337,-0.0309407605431,0.097529243244,-0.035156133506,0.0177945065915,0.0658736880635,-0.0639067024192,0.0606261500831,0.0831684349963,-0.000201004374494,-0.0524928861949,-0.0802039684676,0.084262173798,0.0923621855538,-0.0196369360527,0.00210665640317,0.0868109061257,0.0560545074676,-0.0933609193325,0.0849413126141,-0.0757031937696,0.00756264458496,0.0231682334144,-0.00364406495632,0.083876263331,-0.0153194767328,-0.0729557052087,0.0971006100817,-0.0863352052402,-0.0337047399763,0.0543968828411,-0.0164333393824,-0.0738494825723,0.00240219725865,0.0538958906962,0.0134027146403,0.0756247427821,-0.0368154498941,0.0551263954182,-0.0985682915596,2.89577505033e-05,-0.0518723241251,-0.0839174074255,-0.0163942949855,0.0628217699906,0.0595100933331,0.0308891168022,-0.0827062937272,-0.0916175675337,0.0313184751504,0.0457919322559,0.0478490152597,0.0103388440072,-0.0743306384857,0.0963257533548,0.0104623853711,-0.029788958922,-0.00214734851605,0.00571192362384,-0.0602321459873,-0.0411914953079,0.0981796740549,-0.0232581718278,0.0686431021855,-0.0270319224907,0.0432137012015,0.0517498310162,-0.0338513833416,-0.0134981666031,0.0324747039362,-0.0167543573134,-0.0467247534826,-0.0737711133139,-0.0798886345119,-0.0196487677052,0.00274177619644,-0.0968309977354,-0.0669656928692,-0.0672586203032,0.0979987765036,-0.0227766722706,-0.0100360155339,0.0120637792984,-0.0501360316625,0.0190384291203,0.0957641500327,-0.0766055101409,-0.0726496306708,0.0915651896846,0.0410813864967,0.0174328932452,0.0919287454728,-0.0984522010373,0.0458750902929,0.0896129111446,0.000384876138208,-0.0233890979411,-0.0493092982898,0.0864983017699,-0.0169773861052,0.000682146519604,0.0768389585137,0.0617596747807,0.0965876975243,-0.0838054492087,0.0415114514827,0.0387486577384,0.0753321519343,0.0710232108201,0.0786300615698,-0.0790745026384,-0.0551723629882,0.0690727449824,-0.0683158156263,0.0568885099117,-0.0667973243097,0.0871899200912,-0.00530039731745,0.0219392817775,0.0397889220552,0.0371174215475,0.0427907326418,-0.0597480211156,-0.0603631813416,-0.0649945358323,-0.056507781739,0.0441378464934,0.00514802816074,-0.019363932425,0.0911778837845,-0.00445089296885,0.0704145267397,0.0621023052768,-0.0882890249472,0.0898206678872,0.0540471809976,0.0689187599405,0.0200614750636,0.018405557987,0.0921580178801,-0.00149052514357,0.0222323483523,-0.0663033884207,0.0622311883246,0.0359529278325,0.0854337942162,-0.017481673499,-0.0359244311883,0.0804567648722,-0.0882137339954,0.0360528748911,0.0521576883122,-0.0230992672028,-0.0544684624389,-0.0912269528777,-0.0346219319001,0.0565276025569,-0.0128016279389,0.0782261398977,0.100050103487,0.0410144352929,0.0250590204837,0.077776107856,-0.0986762952145,0.042431813827,-0.0225365467966,0.0473919064412,0.0973373806042,0.0932429701056,-0.069133827584,0.00682130812429,-0.0640124214569,0.0599987863954,-0.0273423167672,0.0611362539034,0.0285820173234,-0.065342818355,0.0450602573634,-0.0531241628681,-0.025955296246,0.0559352774383,-0.0342451939205,-0.0996202987793,0.0121646935141,-0.00941106031283,-0.0508361965495,0.0327193222171,0.0952752819994,-0.00204136686963,0.0107596063849,-0.073749191996,0.0316317711858,0.0326827113855,-0.00425840033165,-0.0817714720821,-0.0229380674828,-0.0171333274476,0.0986473653926,-0.0202053943805,-0.0887484409361,0.0163442083868,0.0117352096006,0.0197612879385,-0.0878992980073,0.048162018691,-0.0334649573296,0.0602562909676,-0.0433149231466,0.066967740501,-0.0850068222528,-0.095487846104,0.0432441358446,-0.100450397979,-0.0437785325877,0.0969987680039,0.0328178835328,-0.091111334594,-0.00892353362072,0.0492188727361,-0.0683539755065,0.0903665291508,-0.0932063670909,-0.00162410811276,0.0749090799686,-0.0729470250094,0.0849054340713,0.0238371140307,0.0541968768026,0.00152108911439,0.0555423025103,-0.0399615921561,0.0741508287647,0.0132460990142,0.000184359079542,0.0854725937342,0.0164982787317,0.0526779365063,-0.0468449841286,0.0355503851588,-0.0518641830707,-0.0665385464414,0.0903494839475,0.00598380923234,-0.078927455795,-0.0291317335047,0.0276280996535,0.0227399168305,-0.00671346972307,0.0566193374757,0.0579033718974,0.037944065738,0.0534692498657,0.0193919157583,0.00410063981476,0.0785991836592,-0.0230999193831,-0.0959499526176,-0.0996484266704,-0.0680399159142,0.03606640505,0.0647918736071,-0.0536236294518,-0.0735196608034,0.0637200265303,0.0146337063566,-0.00928523518735,-0.0493954942913,0.0382546414863,-0.0799016699782,0.067197520286,-0.0922692449243,-0.0870247044125,0.0781353006046,-0.0374172770932,-0.0915201075104,-0.01984767282,0.0874464900196,-0.0213740229158,-0.0544326806583,0.0870297008148,0.0567496054575,0.00903336594463,0.0213239816943,-0.0862650872615,-0.0660194188484,-0.0809447191065,0.0774155492217,0.0825977368818,0.0379928127173,0.085344984083,-0.0408987268945,-0.0542049790287,-0.0545740811731,0.0361260334796,-0.0239264632466,-0.0856550312252,-0.0274054486114,0.047610562825,-0.0748825884462,0.00831164676838,-0.0414939131561,-0.0497284453589,-0.0951650356431,0.038869673981,0.00312830209029,0.0815332676908,0.0613444794223,0.041407820589,-0.0765201344963,0.0410062517951,-0.00934757428284,0.0923352046629,-0.0900589742141,0.00109602737397,0.0565608467757,0.0647618388538,0.0407397553836,-0.0582443892412,0.0359179215448,-0.0550532780902,-0.0128605698687,0.0431729344632,-0.0125261854476,0.0151621571711,-0.0346601896009,-0.0421283725072,-0.0361984160656,0.0705444248278,0.0718260903141,0.0559768387039,-0.0364481344483,0.0974294123304,-0.0569768369303,0.0963904443125,-0.0948523952956,-0.0702807796604,-0.009356890343,0.0339096383617,0.0603880391953,-0.0616973558108,-0.0680518601353,-0.0183359178863,0.100007977807,-0.0196991349096,-0.0875316277029,0.061523696939,-0.0012810732311,-0.00357287780121,-0.0867687678979,0.0353728800905,0.0581203649709,-0.073988449184,-0.0482919753412,0.023586025058,0.0778161955704,-0.087688721396,-0.0273403020919,-0.0332061606343,0.0815536895896,0.00220243968303,0.0558548917035,-0.0102568426206,0.0967877807199,0.0326825350532,-0.0772659915835,-0.0450492869824,-0.0484675710886,0.0761662493588,-0.00917683633296,-0.025875771918,-0.0133056255904,-0.0171276595889,-0.00922724373739,0.0548488232288,-0.0779951584839,0.0455284816166,-0.0236462015675,0.0393481240793,-0.0966366943393,0.0477385287148,-0.0550201437851,-0.0203267440602,-0.0563364552738,0.0184448144999,-0.086755998733,0.0427080793918,-0.0233397885788,0.0811679742374,-0.0738325995111,-0.0370072371354,-0.078505237705,0.0893891948898,-0.0249087124853,-0.0600862092603,0.0307032994995,-0.0432873259389,0.0615373884878,0.0800975753742,-0.040724418123,0.0230833403444,-0.0908108154264,0.0192681132613,-0.0643238108183,0.0884157373723,-0.0731861055153,-0.0101755176189,-0.0603279494213,-0.0374444433037,0.082973715999,0.0386813825249,-0.0632085696813,0.0841005903305,0.00175512162547,0.0707963392779,-0.0795364406118,-0.0917042486077,-0.0563346997894,0.0821235663842,-0.0529390173401,0.0392346093317,-0.0944138856315,0.0422504849602,0.0095971308694,-0.0896454110735,0.0753201139527,0.0210876003408,-0.0578638705884,-0.0903894758448,0.0576224936899,-0.0601757610876,0.0262503273105,0.0518317376864,0.0865143095197,-0.0182547794828,-0.0699271020749,0.0389784591224,0.0444134916941,-0.0283011536694,0.0923556640414,0.0457047030913,0.0205795810779,-0.0942847688893,-0.0553650380168,0.0824637004582,-0.0398216355454,0.0620183149554,0.0495664595763,-0.0294038586974,-0.0546814175719,-0.0565571505328,0.0870459302566,-0.0961413305988,0.0234256218713,0.0338099476467,-0.060216493552,0.07109003739,-0.0815924265608,-0.0549489247668,0.0201047572068,0.054503958802,0.0417146448098,0.0971512883861,0.0268183028192,0.0773567673342,-0.0151681699649,-0.0209387059583,0.0615797384682,0.0694686377547,0.0110080670513,-0.0183699246621,0.00676426569721,-0.0446319840939,-0.0919837913093,0.0830369384867,0.00428841442894,0.0339071304881,0.0376665031465,0.0723938607812,0.0438223541806,0.0766582217124,-0.0790052228977,0.0697293976126,-0.0191113613514,-0.0490860660919,-0.0323537547799,0.0192613886873,0.088040802545,0.0756071888262,0.0116885883728,0.0785610665285,-0.0763386488618,0.0928818300673,-0.0691368733423,0.0263210583396,0.013783207774,-0.0253580555479,0.0504711736185,-0.0323004684414,-0.0696526173178,-0.0810316341551,-0.0832700189373,-0.0107069444774,-0.0673291210164,-0.0572106413281,-0.00560988025724,0.0905776045464,-0.0686210569362,-0.0617022492384,0.0188229523077,0.0552554206987,0.063893015609,0.00553478024501,-0.0231666979009,0.0238889037064,-0.0946392588462,0.0814271403399,-0.0634150294692,-0.0756626023998,-0.0329961477884,-0.0133420987579,0.00456006776036,-0.0691117117271,-0.072008022491,0.0364380179253,-0.0148933146099,0.0387910003783,0.0050111253747,-0.0837164214632,0.0826665933643,-0.0685574307045,-0.0276638253331,0.0333340474793,0.0175416026668,-0.064499304119,-0.0232762812295,-0.00237218651607,-0.0442252991798,-0.00942308771016,-0.0151169352213,-0.0680187807082,0.0343729233402,0.0238968581922,-0.0901362983597,0.0179659821357,0.0850596987693,0.0242188748359,-0.00221734944662,0.0477457339642,-0.0124238351469,-0.0500900480099,0.0904601718837,0.0543709531435,0.0905396718919,0.0434303593019,-0.0362773029541,0.0117976064191,0.0945323076379,0.0951416464763,-0.0352456646225,-0.0483976673624,0.0937336314293,-0.0833749696441,0.0272051060947,-0.0443102822123,-0.0528769947782,0.0781396631983,-0.0150679391965,0.044146090242,-0.00435765947541,0.00389327340528,0.0287057669546,0.0196725136183,-0.0263314877036,-0.00883888791515,0.0943045842691,0.0113005061539,0.00546036839073,0.0947563873269,0.056417131597,0.025180927217,0.0472771700764,-0.0649169383017,-0.0661496494343,0.0886959182441,-0.0449585580804,-0.0827494399393,-0.084799522036,-0.0137224302637,0.0962060465302,0.0227289714454,0.0749263117469,-0.0144691051868,0.0892873046441,-0.0863905250038,-0.0835083799541,-0.0315873724381,-0.0328936291494,-0.0335240579226,-0.0930878926178,0.0900738587413,0.0996733735125,-0.0358500074197,0.0499195583174,0.0665116303586,0.0237234417809,0.0105889478356,-0.0611862754785,-0.0739382049016,-0.0742913218404,-0.0443738141772,0.0435970698448,0.00565612371555,-0.0485291892333,-0.0173083493049,-0.0342496813068,-0.0545302114905,0.0454735287798,-0.0444962924073,0.0104860257442,-0.0644201132912,-0.00439219793097,0.0348994270142,0.074425941993,-0.0291054258833,0.0963907691982,-0.0120211468648,0.097505195698,-0.0687157926409,-0.0376866149123,0.0889134153185,-0.0402819683635,0.0853519281576,-0.0539843097219,0.0725418236266,0.0552392074682,0.0609256646457,0.0715795562466,-0.0872532380527,0.0106758247427,-0.00996914427131,-0.0806515560293,0.0390677562493,0.0181948346612,-0.0572787371089,-0.0884165874693,0.0543673142733,-0.06442845901,0.0934311854297,0.0288571061012,0.0397802894203,0.0439912056246,0.0123559791701,0.0190468263643,-0.033596523793,-0.0387747707164,0.00837573976946,0.0850384228259,-0.0623753848009,-0.0775776008943,-0.0860511606633,0.0276373144206,0.0557334678085,-0.0408699258327,-0.0614028553699,0.0528139981024,0.0808673656193,0.0501289514285,-0.0536368357739,0.0557834746907,-0.0926233602909,0.0200926659335,0.0174892719668,0.0143592336376,0.0478811836797,0.054514271089,0.0962229340508,-0.064161404506,0.0249164688554,0.0970239089899,-0.0118745842817,-0.0248979830927,0.0770312689574,-0.0938675613137,0.0231188110227,-0.0620313507861,-0.0437167385818,-0.0937431483261,-0.0571832282149,-0.0456228554875,-0.0567804734611,-0.0834608092475,0.00788249538343,-0.0654307227871,-0.0245585971294,0.0415119874385,0.0942921746899,-0.0751304546731,-0.0547513113856,-0.0615713194907,0.0963553900981,-0.0761146494857,0.0531447154243,0.072598587121,-0.0780242116628,-0.0328816427498,0.0290359909084,-0.0898796167704,0.0541530533014,-0.0546641214197,-0.0394788572734,-0.0914883590695,-0.0233234007057,-0.0870409690672,0.0863602190209,-0.00830781291333,0.0698650976311,0.00198923357708,-0.0066105957224,-0.0330061300761,0.00831116427391,0.0663479274599,-0.0876684929927,0.0612007995476,0.091681469435,0.0190645365669,-0.0626750243719,-0.0816471379505,-0.0975575748089,-0.0615235850823,0.055240617294,-0.0627365077467,-0.0767433758867,-0.0493497798158,-0.00893633396938,-0.0982576700525,-0.0391301677361,0.00456077193708,-0.00546342447154,0.0989828197427,0.00461026851058,-0.0462217589351,-0.0861890510218,0.0200897512806,0.00615843684187,-0.0263434964248,0.0452663852497,-0.00919251764015,-0.0416307618379,-0.0341855104663,-0.0490794349389,0.0842654470996,0.0675931287813,-0.0545579946262,0.0474476583508,0.0793728078823,0.0614587768469,0.040552335546,-0.0977969990983,-0.060813019558,-0.00494634404467,-0.0977796302963,-0.0163017114346,0.0488602871041,0.0309992094499,0.000617273339499,-0.035480623188,-0.0754223652746,-0.00768005454865,0.0236823809271,-0.00234639384101,-0.0387308443754,-0.0309698738868,-0.0545261965196,-0.0692585978774,-0.0706342642945,-0.0955175605176,-0.006566837798,0.00998730006068,0.0503846953656,-0.0897723025145,0.0493333747343,-0.0954835482311,-0.046721679715,-0.038687503999,-0.088158152433,0.0325010478704,0.0875104477722,0.0443101258404,-0.0109228464184,-0.0887593747306,-0.0165395328571,0.00774549091863,-0.0535054800647,-0.0334520134524,-0.057085103332,-0.0839283244632,0.101488609936,0.0566196644459,-0.0654000843879,-0.00895772161987,-0.0745957320993,-0.00318463892964,0.0667312990908,0.0365409248324,-0.0135701632746,0.0175477495923,0.0573440410318,0.0939793719135,-0.0490061180959,0.00142627384971,0.0172869554012,-0.0551665001822,0.0686663584856,-0.0576839883949,0.00571181572929,-0.0457647436162,-0.0826909612962,-0.0286583530213,0.0541337147952,0.0205691045302,-0.0704615582709,0.0243735997224,0.00628882197351,-0.0682686558432,-0.0322539523654,-0.0593903082773,0.00813166540707,-0.0139190944731,-0.0313079132645,0.0819128617414,0.00886002574134,0.0317587299417,-0.093850561584,0.0575360865956,0.0999639143132,-0.0570308784797,0.0207767870855,0.0739019493202,-0.0666120316959,-0.0617750662653,-0.0801949011263,-0.0858509811597,-0.0230008187146,0.037489659887,0.0877275510228,0.0115525399279,0.0273999192373,-0.0565550660565,-0.0199466463604,-0.0947657435485,-0.0410998373527,-0.0396031817802,-0.0643428972838,0.0504513012988,0.0985185036136,-0.0919278514499,-0.080779103309,-0.00349255612587,0.0657783981762,-0.0343009073142,0.04321569884,-0.0475810537034,0.0367313947959,0.0966902720906,-0.0572091087321,-0.0245771348301,0.0958784964079,-0.0293231775799,-0.0248206474395,-0.0234419446412,-0.0345719570949,0.0526867886577,0.0161911189858,0.0891138518032,0.0467954275249,0.0789083980877,0.0380695687144,0.0880243267635,0.0324797161595,0.0248237088948,0.0550113140512,0.0465323608118,0.0492575890148,0.0760906890671,-0.0343484625264,-0.0127302562472,0.0578963624695,0.0425415604119,0.0468839599125,0.0206806784575,-0.0552016433273,-0.0590819798972,0.0155369095128,-0.0833846518114,0.0106924401689,0.0413814450541,0.0143252416489,-0.0631972486031,0.0790514170528,0.0441679470875,0.0493842392014,0.0575806882085,-0.00641211906391,-0.0268795111624,-0.0833233045105,-0.07339469975,0.0429807495913,0.0857896558534,-0.0714950697051,0.0399288743849,-0.053124190926,0.0653115507655,-0.0221369209953,0.00786638016632,-0.0454467964528,0.0818072941155,0.00496223931993,0.0847688270582,-0.0202589682352,-0.0876312572782,-0.0298524181406,-0.0919035521712,0.00209047877126,-0.0194982335399,-0.0513496249994,0.0210967933161,0.00792281465471,-0.0119122310807,0.0419602533859,0.082603492039,-0.0461221708828,-0.000434937411274,-0.0485541272894,-0.0972843225955,-0.0794739020068,0.0490946664291,-0.0316082089756,-0.0490874980884,0.052287420602,0.0791871658433,0.0267571533383,-0.0971107765066,-0.00745367221865,-0.00605154451328,-0.0714398823913,0.0909012205179,-0.00248732415635,0.0310081446908,0.0739034758755,0.0463306507559,-0.0468668320443,-0.0579214570322,-0.0271424645327,-0.0547328996514,0.0910186735006,0.00734865333082,-0.0778677041119,-0.0156669665892,-0.00017609411954,0.0151638459952,-0.0469428531232,0.0554478856575,0.0236284019365,0.0545764221772,-0.0281820313948,-0.0250600628245,0.0762295886798,0.0968784155318,-0.0728358596106,0.053741245096,-0.0789750991303,0.0413434946112,-0.0197232491394,0.0456308295993,0.00596660108794,-0.0211717120819,0.0682122129603,0.0689755071356,-0.0917614413782,-0.0483849420921,0.0280407148881,0.0690888651598,0.01051618586,-0.0722087412063,0.0397998889846,0.0768909264571,-0.0271646188978,0.0384749024128,-0.00264929362465,-0.0603826928289,-0.0251479484893,0.0863179882466,0.0950031916842,0.0708024512223,0.0448486735507,0.0947257237977,-0.0942740912321,-0.013166249336,4.0337098967e-05,-0.0827272183846,-0.0971918024158,-0.0878038905329,-0.0443024415272,-0.0365802341333,0.0287527912755,-0.0822721516521,-0.0828837214805,-0.00723011963105,0.0556505143105,0.0425504069989,-0.060103127971,0.0902280190607,-0.0111843488299,-0.00895540190564,0.0353977165687,0.0272504184446,-0.0255227631078,-0.0480177428866,0.0221586632288,0.0265929254111,-0.00988707471508,-0.0638196567061,0.00361326688206,0.0274558391254,-0.0583092440858,-0.0590122566973,-0.0986244700889,-0.0572279183484,-0.0094167774093,0.0742179379095,-0.068594322949,-0.0211105689662,-0.0379909834234,-0.0101342078259,-0.0831657566795,-0.0165159289954,-0.0887541726213,-0.0061164048317,-0.00476581765449,-0.0765052818192,-0.00888737832536,-0.0723608894183,0.0212807703628,-0.065308638163,-0.0296488356949,-0.0388750350906,0.0619064944381,0.0508922319759,0.0224648267358,-0.0525660623961,0.0968774480438,-0.0113762689492,0.0177107369335,-0.0430426019317,-0.0123710246036,0.0689928578905,0.0602448108007,0.0736007484148,0.0363505447964,0.0529366461752,-0.0484159395804,-0.018099672425,-0.0440272862903,0.0601302825785,-0.075408890056,0.095369714065,0.0185538015619,-0.0274718781223,-0.0161520814598,0.0275912634769,-0.018306842153,-0.0524017316804,-0.0225437031867,-0.0424699494714,0.0774161980335,-0.0967231274741,-0.0920296530123,-0.0891812694226,0.0339264566291,0.0479341515799,0.0400397430269,0.0731373639795,0.0332975208611,-0.0936352968901,0.0705926386766,-0.0573354154814,-0.0760195846954,-0.0736406274013,0.0735412314045,0.0736292491729,0.0534008566937,-0.0680078566368,-0.0532162887417,0.0420699364517,0.045274058417,0.0395588040365,0.0487413500251,0.0431796037858,0.0277813683431,0.0192177280587,-0.0180754899122,0.0787119501677,-0.0576173916722,-0.0165508541134,0.0441898461406,-0.0288053172816,-0.0487809273643,-0.0209984337016,-0.068173601794,0.0580555533465,0.0531949619641,0.0562043105105,0.0292073449577,-0.000894324733797,0.098973343964,-0.0833202994179,-0.0360571908389,0.0749878312365,0.0860886552246,-0.0128989818291,0.085668003161,-0.0276023349291,-0.0835613500112,0.0891023373566,-0.0696990659522,-0.0322231154461,0.0783847716681,-0.0530125591935,-0.062193839655,-0.0246630221018,0.0821842141269,-0.068687935203,-0.0953434773825,-0.074125936941,-0.0475398877417,0.0177530993508,0.0345331554205,-0.084965235735,0.00994246381679,-0.0488545646291,-1.30045659299e-05,-0.0124654479965,-0.00900675683469,0.095569472584,0.0895114545281,0.052098949203,0.0788792583523,0.0161581499791,0.00233336302806,0.0759839686354,-0.044212568175,-0.019693216319,-0.0211787078833,-0.0845070200005,-0.021703214285,-0.00905146482265,-0.0436452545671,-0.0997565793252,-0.0764346107772,-0.0114917327007,-0.0621549095345,0.0555841920995,0.0812673699606,-0.000969998169614,0.0230845927749,0.0152605593822,0.0300966687424,-0.0873761445073,-0.044651629149,-0.0837503154201,-0.080471725175,-0.0398737572001,0.0199980454042,0.0483132560538,-0.0585063745634,0.0772524460546,-0.00555628477294,0.0249761155069,-0.0391497227725,-0.0131003597971,0.0093426508113,0.0074605370727,0.0909970666034,-0.00789074183595,0.00349708550155,0.0975869970289,0.0907538811051,0.0855958753569,-0.0994894676543,-0.00254294286489,0.01335905564,-0.0795899648274,-0.0577252610296,-0.0849281867751,0.0835336181838,-0.0690178250113,0.0802144089217,0.0926401566105,-0.0675469664879,-0.00257712308674,-0.0733350586947,0.0118295596089,-0.0417573046788,-0.0683797765662,-0.0788866984415,0.0887500962636,-0.0666844877541,-0.0789495849876,-0.0223649146144,-0.0331790828331,-0.051834311925,-0.0453612092189,0.0925349764394,-0.0487592687293,-0.0642942153381,0.0648956023173,0.0522200267527,0.0834206911728,-0.0135774531424,0.00671198068978,-0.0501501142177,0.0432260155773,0.0111462828931,-0.0266735670195,-0.00253919688171,-0.077241007279,0.0735390859776,0.0506833560725,-0.0693062096956,-0.0124379263679,0.0446265314206,-0.0326397015626,-0.0218840931653,-0.0332206253803,0.036256021917,0.0749235014996,0.0871345360107,0.0313058543336,-0.00407423825545,0.0634169305068,0.027033389686,-0.0769029832471,0.0266344083049,-0.0737739349126,-0.0759300644491,-0.0447040765271,-0.0910059031243,-0.0660671871236,-0.0262469859801,0.0717780669907,0.0122158919061,0.0218480256152,-0.0649847471078,-0.0854431989367,-0.00662019118991,-0.0599266395965,0.0841416584279,-0.0776895825269,0.0938171089023,0.0183208422719,-0.0345167543536,0.050476281802,0.0180155224994,0.0564861012377,0.0503185475537,-0.0407715178632,0.00437549690419,0.0814071088921,-0.094226066283,-0.044591921933,0.0173617078102,-0.0626572021012,-0.00340369521252,-0.0871890953621,-0.0159891011936,0.093095531872,-0.0833734150206,0.0898116392376,-0.015460965738,0.0605790445492,-0.00560579016526,0.091259029425,0.0812372434002,-0.0395874415884,0.0266864178636,-0.00633006549333,-0.0449296765592,-0.0233610689928,0.0635246168865,-0.0799898586245,0.0193268432589,-0.0465863174135,-0.0991840888025,-0.0983522743244,-0.0550742713344,0.0942854737277,0.0500969818714,-0.0280948872723,-0.0116143598534,-0.0556880461325,0.017995146944,-0.089702236548,0.0445422258731,-0.0387880990951,-0.0431101724952,0.00340594121302,0.0930251136906,0.0803609044576,-0.0654498671176,-0.069492760863,-0.0375748793634,0.00244848888275,-0.050628543332,0.0615518492425,-0.0588483346993,0.0693542110446,0.0573951016246,-0.0041054759594,0.020025031213,0.0466304292925,0.0152371598664,0.0510316508022,0.0366792399915,-0.0695238619107,0.0322605614543,-0.01581236382,0.00511406093556,-0.0907069295463,-0.0793358195633,-0.0121765927633,-0.0903672554185,-0.0653812541062,-0.0208546406134,0.085113982447,-0.0581159513431,-0.0420969902807,0.0417819646772,-0.074779023334,-0.0808587530104,0.0699228632735,-0.0176936510751,-0.0883295515094,0.0392795503517,-0.0123149977218,-0.0443116872698,0.0306987491083,-0.0627397647183,-0.0233296394169,0.0253315510167,0.0242286720239,-0.0926689530269,0.0564435723507,-0.0481761394865,0.0156111610443,-0.0974063939225,0.0993238785344,-0.0234088267772,-0.0653061962234,0.0431770524746,0.0365349871847,0.012713085189,-0.0339921858614,0.030002989652,0.0578398889467,-0.0350609592875,0.00373933886211,-0.0341824319289,0.074414605207,0.0144191179994,-0.0560552352796,0.0395402768928,-0.0932889805539,-0.0732948545018,0.0232636957906,-0.0402189667769,-0.0614785887388,0.0639721069242,-0.0725096916061,-0.0872068492542,-0.0725831174877,0.0604349198645,-0.0671445318198,0.0512560466168,-0.0391911202687,-0.0826714272796,0.0498477516239,-0.0691301421357,0.0361214964924,0.0879035776243,-0.0306058172281,0.0989150683234,0.0657615276373,0.047563361886,0.0488096776325,-0.0683996431494,0.0424897130988,-0.00717552854042,0.00342929000321,-0.0462435623555,-0.0305001246949,0.0752877430918,0.0149339404961,0.0362592303894,-0.0367164543024,-0.0847975120653,-0.0734433922026,0.0321378301425,0.0159975173937,-0.0294024606549,0.00697273111777,-0.0617952504999,-0.0937028827055,0.0885580038076,-0.00981423050192,-0.00622282668626,0.0304683834688,-0.0603927493846,0.0250113008803,0.083902024249,-0.0741953515489,-0.0225800093934,0.0903500465126,-0.0972042289361,0.00994562692885,0.0928143233555,-0.00399179867489,0.0195873768326,-0.10072074797,0.0470685499589,0.0137142337122,0.0331611304789,-0.0753533346492,0.0832596633962,0.0837347528176,-0.096766627814,0.0564364248553,-0.0791410366714,0.0950564802144,-0.0635573363731,-0.0895175404666,-0.0943761203609,-0.0451085214274,-0.0129986265078,-0.0608923804149,-0.0488992996216,0.061968104673,-0.0450469357636,0.0684244107753,-0.0540079301128,0.0358452788607,-0.0228410706357,-0.0456523181724,0.0967713438796,0.0761144687296,-0.0614790196445,0.0525025106434,-0.00707305928806,-0.0212398225891,-0.029432499422,-0.0275327844714,-0.0597665248858,-0.00119628862835,-0.0795878975026,-0.0060272528031,-0.0514566561554,-0.00966136521772,-0.0298571330339,-0.0803259347554,0.0981241499852,-0.00685153925995,-0.0271872044419,-0.0441758794044,0.0567599918376,0.0408759867212,-0.0632007022607,-0.00293325015337,-0.0497781773727,-0.0276710226527,-0.0127298800751,-0.0509125170064,-0.0202485787193,0.0468180700993,-0.0693927869552,-0.0456748223747,0.076452431578,0.0598972219258,-0.0684699745205,0.0618087620031,0.0346661083682,-0.0484906819169,0.0631067556921,-0.000585907714832,0.0463507843473,0.0262505874762,0.00286074790002,0.0695451572321,0.0120640431241,-0.0394947367345,-0.0173305914832,-0.0613625320133,